tree
version=v4
num_class=1
num_tree_per_iteration=1
label_index=0
max_feature_idx=19
objective=binary sigmoid:1
feature_names=0 1 2 3 4 5 6 7 8 9 10 11 12 13 14 15 16 17 18 19
feature_infos=[-1.5330018876069358:9.8944161005812656] [-1.3780674304926439:9.0223818720640363] [-1.8174795624490965:5.9157603103616996] [-1.5577083845879629:13.59282842639937] [-2.0423262177770494:1.7050613377771702] [-1.7314687505775761:1.7467133960437633] [-1.7329725344783058:1.6984636339595924] [-1.7413652558012171:3.447460109477408] [-3.8999930448782139:1.74768522567666] [-2.5663737506182898:2.428172541042684] [-1.0429862252721112:11.712159325892346] [-1.278837133948743:12.440763296457463] [-1.1291762384035666:9.768530501606806] [-1.7467133960437635:1.7314687505775765] [-1.698463633959592:1.732972534478306] [-3.6790739188930646:3.249806437303524] [-1.2932581918892165:5.5489829528037378] [0:3] [0:3] [0:4]
tree_sizes=1261 1077 973 1075 971 1078 1183 1391 1705 976 1884 1084 1078 1080 982 1190 1162 1162 1596 1384 1074 1285 1700 1371 1078 1295 1401 1172 1590 982 1160 1190 1850 1504 2053 1246 1466 1258 1351 1498 1614 1498 1391 1660 1872 1518 1790 1657 964 1185 1824 1462 3054 1162 1037 1166 1168 1241 1187 2011 1526 1852 1315 1512 1279 1453 1168 1282 1058 1512 1168 1162 1145 1045 1354 1397 1675 2549 1068 1407 1338 1711 1217 1422 1038 1578 1320 1557 1904 1393 758 759 1165 1140 848 1606 1531 1639 1499 1413 1250 915 1200 1412 1394 1705 1240 1419 2309 1229 1201 1213 1297 1132 1398 1128 1048 1223 989 1134 1298 1405 1314 1032 1272 1376 1392 1641 942 1309 1126 1309 1592 1702 1499 1285 1381 1295 1146 1279 995 839 931 1303 1491 1032 1021 1000 1295 820 926 1015 1278 1113 823 853 1315 1393 1292 1217 1671 1104 1285 1007 1191 1209 1203 1395 855 1113 1284 1296 1008 1330 1112 1287 908 1476 912 1282 1089 1282 1001 1013 1025 1288 949 1092 1473 1091 844 939 1266 1300 1193 798 1357 1104 904 1195 1026 1029 918 931 1011 1194 998 1092 1003 1192 825 824 826 827 1175 1180 1177

Tree=0
num_leaves=11
num_cat=0
split_feature=16 8 8 16 8 16 16 8 8 8
split_gain=550.032 584.99 107.209 154.241 17.3789 25.2567 7.15728 16.613 0.64035 0.271181
threshold=-0.99081543851725196 -0.68976704384656451 -1.8727705813585758 -0.68494399971858788 -0.031063722027357989 -1.0977355707786896 -0.89670758621094881 -0.64114550256748426 -0.96245967429396329 -1.619586045970294
decision_type=2 2 2 2 2 2 2 2 2 2
left_child=1 8 3 -2 5 -3 7 -4 -1 -8
right_child=2 4 6 -5 -6 -7 9 -9 -10 -11
leaf_value=-1.3368428517036866 -1.6983371617747209 -2.2752182039535214 -2.4589095133692389 -2.8331164857918489 -2.8418991963038045 -2.820714165164171 -2.7870199184592539 -2.836997197286637 -2.0996925995856142 -2.8521052333040795
leaf_weight=4.4760402515530586 1.5297859087586401 1.1331747472286227 1.1331747472286222 2.719619393348693 5.3259213119745237 1.4731271713972089 1.9830558076500882 3.5128417164087287 1.4164684340357778 97.736321948468685
leaf_count=79 27 20 20 48 94 26 35 62 25 1725
internal_value=-2.74812 -2.1656 -2.82468 -2.35938 -2.74089 -2.54911 -2.84547 -2.72776 -1.45373 -2.85112
internal_weight=122.44 13.8247 108.615 4.24941 7.93222 2.6063 104.365 4.64602 5.89251 99.7194
internal_count=2161 244 1917 75 140 46 1842 82 104 1760
is_linear=0
shrinkage=1


Tree=1
num_leaves=9
num_cat=0
split_feature=15 8 16 8 15 7 15 8
split_gain=487.69 30.9573 31.9693 18.6897 19.8202 3.30209 2.33775 1.91592
threshold=-1.4024864615113928 -1.8727705813585758 -0.68494399971858788 -0.72067708895435867 -1.6972553566268187 -0.33939046326430422 -1.2204304603812679 -0.79210022159514459
decision_type=2 2 2 2 2 2 2 2
left_child=3 2 -2 5 -5 -1 7 -3
right_child=1 6 -4 4 -6 -7 -8 -9
leaf_value=0.53046118939098463 0.39911680583962694 0.055652922834908018 -0.085032647510488252 0.41852345712857536 -0.036228749159604098 0.29054538901194088 -0.10531362701700418 -0.078016414103749751
leaf_weight=13.030993800610307 2.0973280370235443 1.5362834930419924 2.5187353491783133 1.2891421318054201 1.8316035829484452 3.0507193505764016 97.990906782448292 1.7205481268465508
leaf_count=91 15 20 48 17 34 29 1876 31
internal_value=-0.00604273 -0.0907489 0.150496 0.45089 0.180716 0.495685 -0.102532 -0.0132862
internal_weight=125.066 105.864 4.61606 19.2025 3.12075 16.0817 101.248 3.25683
internal_count=2161 1990 63 171 51 120 1927 51
is_linear=0
shrinkage=0.1


Tree=2
num_leaves=8
num_cat=0
split_feature=15 8 16 9 15 7 15
split_gain=327.847 26.8095 21.2167 11.9553 2.32006 1.81247 0.967977
threshold=-1.4024864615113928 -1.8727705813585758 -0.68494399971858788 -1.878053361296764 -1.2204304603812679 -1.1184866967726386 -1.6598546203463547
decision_type=2 2 2 2 2 2 2
left_child=3 2 -2 -1 5 -3 -5
right_child=1 4 -4 6 -6 -7 -8
leaf_value=0.058642258648385487 0.29793165345073008 0.053924650233407673 -0.083282564438648343 0.36547683171154216 -0.10466189248901137 -0.07675996244987951 0.24532675881339905
leaf_weight=2.0048382654786137 2.6608931720256805 1.5453610792756083 2.3345128297805777 15.938457377254966 89.192815154790878 1.6621654406189907 6.6246781125664684
leaf_count=23 15 19 48 90 1876 32 58
internal_value=-0.00657165 -0.0892524 0.12659 0.316046 -0.101648 -0.0123188 0.336717
internal_weight=121.964 97.3957 4.99541 24.568 92.4003 3.20753 22.5631
internal_count=2161 1990 63 171 1927 51 148
is_linear=0
shrinkage=0.1


Tree=3
num_leaves=9
num_cat=0
split_feature=15 15 9 9 9 15 15 15
split_gain=245.024 17.2367 28.8788 6.84781 1.59511 6.23441 0.655277 0.206961
threshold=-1.4024864615113928 -1.1450907471149629 0.14488990679557739 -1.878053361296764 -1.2383109784025079 -1.8962317962680098 -1.0018651642598078 -1.0856376450542427
decision_type=2 2 2 2 2 2 2 2
left_child=3 2 -2 -1 5 -5 7 -3
right_child=1 6 -4 4 -6 -7 -8 -9
leaf_value=0.052177086316962551 -0.096261715500172249 -0.070058182128988261 0.29139524254159249 0.25732593137590232 0.29050710962224863 0.070932483151081957 -0.10284782844110903 -0.011826967689691907
leaf_weight=2.0853733457624939 4.4201423898339263 1.278356369584799 2.6616841405630112 5.9087118357419968 16.756862334907055 3.4241057783365267 79.049252543598413 2.127655901014804
leaf_count=23 82 28 14 26 89 33 1827 39
internal_value=-0.0067154 -0.0878466 0.0577273 0.247798 0.261783 0.197042 -0.100743 -0.042413
internal_weight=117.712 89.5371 7.08183 28.1751 26.0897 9.33282 82.4553 3.40601
internal_count=2161 1990 96 171 148 59 1894 67
is_linear=0
shrinkage=0.1


Tree=4
num_leaves=8
num_cat=0
split_feature=15 8 16 8 9 15 7
split_gain=197.398 23.1704 8.34111 4.85569 3.30013 3.25798 1.34632
threshold=-1.1675248533925315 -0.38101006792501235 -0.89670758621094881 -1.9266814908405061 1.1298096408688776 -1.6972553566268187 -0.12687601559136391
decision_type=2 2 2 2 2 2 2
left_child=1 2 -1 4 -2 -3 -4
right_child=3 5 6 -5 -6 -7 -8
leaf_value=0.2372306458583141 -0.06878899913588786 0.078534070024897193 0.14084387131230722 -0.10352798609879343 0.12486444294545201 -0.088122087307694441 0.040882110986467185
leaf_weight=25.554126687347889 1.242235325276851 1.2638710737228391 3.7208911255002022 73.373859893530607 1.2610763683915136 2.9630034603178492 3.3414352759718886
leaf_count=126 30 10 34 1860 14 56 31
internal_value=-0.00664399 0.181712 0.209937 -0.0988249 0.0299833 -0.0331388 0.100701
internal_weight=112.72 36.8433 32.6165 75.8772 2.50331 4.22687 7.06233
internal_count=2161 257 191 1904 44 66 65
is_linear=0
shrinkage=0.1


Tree=5
num_leaves=9
num_cat=0
split_feature=15 8 16 8 15 15 5 16
split_gain=172.399 16.0893 10.5735 7.26195 7.75214 1.75087 2.38086 0.536817
threshold=-1.4024864615113928 -1.8727705813585758 -0.68494399971858788 -0.68976704384656451 -1.6369669093685546 -1.2204304603812679 0.67780439616104959 -0.93952691715856684
decision_type=2 2 2 2 2 2 2 2
left_child=3 2 -2 7 -5 6 -3 -1
right_child=1 5 -4 4 -6 -7 -8 -9
leaf_value=0.21827736478458648 0.19256540635523856 -0.08372252336048841 -0.079879302089491566 0.15512903115520787 -0.081333839716481268 -0.10309529525242581 0.064788686877206764 0.13280985171981377
leaf_weight=22.910134226083755 2.8642937541007996 2.05660044029355 2.0315288901329032 2.9102175123989582 1.8668837919831265 67.287039808928967 1.3415512070059774 4.5789435729384449
leaf_count=95 13 38 50 23 28 1866 18 29
internal_value=-0.00458412 -0.0872442 0.0807346 0.187112 0.0618741 -0.0995047 -0.0217368 0.207025
internal_weight=107.847 75.581 4.89582 32.2662 4.7771 70.6852 3.39815 27.4891
internal_count=2160 1985 63 175 51 1922 56 124
is_linear=0
shrinkage=0.1


Tree=6
num_leaves=10
num_cat=0
split_feature=15 8 8 7 15 15 5 10 7
split_gain=143.368 14.5194 7.12116 5.86711 4.64808 1.759 2.10153 1.22397 1.13385
threshold=-1.4024864615113928 -1.8727705813585758 -0.58607983876081959 -0.091165639375289168 -1.7578042695253928 -1.2204304603812679 0.67780439616104959 -0.1743042058805464 -0.18975295605064937
decision_type=2 2 2 2 2 2 2 2 2
left_child=2 3 8 -2 -4 6 -3 -5 -1
right_child=1 5 4 7 -6 -7 -8 -9 -10
leaf_value=0.19566352391958333 0.17034931458858998 -0.081738772163956142 0.13650222945289442 -0.080765868523082665 -0.051418391671290545 -0.10261712697699343 0.058246216876249923 0.038081423948939958 0.10963989949597337
leaf_weight=23.857244245707989 2.4166594408452511 1.9153044074773782 1.9564777463674543 1.4776215963065626 2.327676720917224 61.155371118336916 1.3961520940065382 1.0092324204742897 4.6783093065023449
leaf_count=104 17 38 12 30 34 1866 18 16 25
internal_value=-0.00453582 -0.0860061 0.166073 0.0730266 0.0376075 -0.0987254 -0.0201971 -0.0308855 0.184036
internal_weight=102.19 69.3703 32.8197 4.90351 4.28415 64.4668 3.31146 2.48685 28.5356
internal_count=2160 1985 175 63 46 1922 56 46 129
is_linear=0
shrinkage=0.1


Tree=7
num_leaves=12
num_cat=0
split_feature=8 7 8 9 8 7 9 9 9 8 8
split_gain=79.5261 19.5016 8.51197 5.9887 9.63477 5.6025 10.0227 4.90599 1.92339 0.395283 0.294333
threshold=-0.70238848992173863 -0.12687601559136391 -2.4900693707120527 -0.22396907236164487 -1.4265855676944079 -1.2116667951399054 -1.0214335805574841 -1.5437923143646304 0.17323067240963844 -1.9266814908405061 -2.0915020029464064
decision_type=2 2 2 2 2 2 2 2 2 2 2
left_child=1 3 -3 -1 9 6 -2 -4 -6 -5 -9
right_child=5 2 7 4 8 -7 -8 10 -10 -11 -12
leaf_value=0.17058992342048859 0.13120608036608403 0.1372942028724102 0.072750251171925476 0.16206586351919072 0.033227735034668214 -0.10021004969039538 -0.09206599882669067 -0.01716308762686487 -0.085740423587500572 0.075997999134574876 -0.098021836616006316
leaf_weight=19.212377279996872 2.7703974395990372 2.4456213638186446 1.9046084731817234 5.1173800267279148 1.845104262232782 45.177387371659279 4.7063319366425267 1.0687629468739013 2.7044334337115288 2.8775444328784943 6.8153524138033399
leaf_count=96 31 19 15 27 24 1482 143 18 73 36 196
internal_value=-0.00441835 0.0941387 -0.0121433 0.134947 0.0751465 -0.0870594 -0.00504344 -0.0553084 -0.0369988 0.138562 -0.0899307
internal_weight=96.6453 43.9912 12.2343 31.7568 12.5445 52.6541 7.47673 9.78872 4.54954 7.99492 7.88412
internal_count=2160 504 248 256 160 1656 174 229 97 63 214
is_linear=0
shrinkage=0.1


Tree=8
num_leaves=15
num_cat=0
split_feature=8 7 8 7 8 7 1 14 7 8 13 13 3 13
split_gain=68.566 16.5427 11.9644 5.38011 6.67375 3.54525 1.59082 0.720146 0.701636 1.53043 0.764549 0.240172 0.239368 0.699867
threshold=-0.70238848992173863 -0.39875958127369943 -1.7695543424115538 -1.2116667951399054 -0.38101006792501235 0.4193172809835386 -0.72105515615890503 -0.04602788820346445 -0.82046228509193264 -1.40881742050519 -1.3050793548662927 0.64381204741511844 0.49082090705787207 0.50591012689865222
decision_type=2 2 2 2 2 2 2 2 2 2 2 2 2 2
left_child=1 8 5 4 -2 -3 -6 -7 -1 -10 -11 -12 -4 -14
right_child=3 2 12 -5 6 7 -8 -9 9 10 11 -13 13 -15
leaf_value=0.14333705400528809 0.13386030913236258 0.14100166445265649 -0.095277809723949614 -0.099528483710848395 0.020680050203533046 0.042886236529179056 -0.092075887981366816 -0.044333939967071488 0.12644218432358714 0.087441586845119906 -0.03451393962958918 0.017937581690117218 -0.074102231605178023 0.016260610625521112
leaf_weight=21.224829528480772 1.925710631534457 4.532802199944852 5.4324307609349489 41.147327346727252 1.3260740898549555 1.4397185035049918 4.0493750330060712 1.3488319497555492 3.7283340506255627 0.77487387694418464 1.0851318296045058 1.2755655366927383 1.3575878422707321 1.0493410713970659
leaf_count=136 22 34 166 1482 32 18 120 22 28 6 19 22 37 16
internal_value=-0.00424213 0.0866388 0.00147934 -0.0856311 -0.00466829 0.0908864 -0.0631653 0 0.131423 0.0859947 0.024375 -0.00449533 -0.0812637 -0.0352462
internal_weight=91.6979 43.2494 15.1607 48.4485 7.30116 7.32135 5.37545 2.78855 28.0887 6.86391 3.13557 2.3607 7.83936 2.40693
internal_count=2160 504 293 1656 174 74 152 40 211 75 47 41 219 53
is_linear=0
shrinkage=0.1


Tree=9
num_leaves=8
num_cat=0
split_feature=15 8 16 15 9 15 5
split_gain=96.3733 10.2957 6.63452 3.87515 17.4783 1.55621 1.8004
threshold=-1.4024864615113928 -1.8727705813585758 -0.68494399971858788 -1.6369669093685546 -0.70351781384998124 -1.2204304603812679 0.67780439616104959
decision_type=2 2 2 2 2 2 2
left_child=3 2 -2 -1 -5 6 -3
right_child=1 5 -4 4 -6 -7 -8
leaf_value=0.15645981036508638 0.13114924328070041 -0.08063973768340818 -0.080022222912813745 -0.098634739056627008 0.17421630601888152 -0.10157277789330771 0.050432350453087554
leaf_weight=22.752081587910656 3.1247720569372177 1.7755468543618911 2.031447196379303 3.3805375881493092 5.5288131237030012 47.329197475686669 1.4030836001038549
leaf_count=109 13 38 50 42 24 1866 18
internal_value=-0.00406801 -0.0832001 0.0464646 0.133874 0.0698839 -0.096959 -0.0210737
internal_weight=87.3255 55.664 5.15622 31.6614 8.90935 50.5078 3.17863
internal_count=2160 1985 63 175 66 1922 56
is_linear=0
shrinkage=0.1


Tree=10
num_leaves=17
num_cat=0
split_feature=16 9 7 16 16 9 7 16 16 1 7 1 5 5 9 11
split_gain=66.0843 3.01428 3.8013 8.24944 3.60365 3.05577 2.57627 2.11745 1.73561 1.21545 0.971027 0.367645 0.333914 0.307445 0.247569 0.0707261
threshold=-0.77919365338585933 -1.6019090178728219 -0.95682912650851548 -0.99773113667919833 -1.0977355707786896 -0.6527917448025814 -1.5340910692224974 -0.69611261615356634 -1.0977355707786896 0.47816692415032375 -1.0268480361967274 -0.14649393218788573 1.3139700182773055 1.3575535965204213 -1.1435835631757432 -0.59011448321333015
decision_type=2 2 2 2 2 2 2 2 2 2 2 2 2 2 2 2
left_child=1 4 3 6 -1 14 15 9 -8 12 13 -10 -2 -5 -4 -3
right_child=7 2 5 10 -6 -7 8 -9 11 -11 -12 -13 -14 -15 -16 -17
leaf_value=0.072264759079383914 -0.073353790078702727 0.013128861510669082 0.099530361626968045 -0.086656671572633126 -0.072406340838168465 0.18480920746279841 0.13474276888286374 -0.10076807928816221 0.072857862036279683 0.055400213037232339 0.020368086656783975 0.010234999267094385 0 0 0.042209258293028899 -0.015985781321121419
leaf_weight=3.9571503885090351 1.5415034331381319 0.86543957144022021 5.3965639397501937 2.8418813254684214 2.2810270320624104 6.9041936583816996 10.019134758040309 36.039212055504322 2.7592425793409348 1.1230299063026903 1.0197451151907468 2.1722361072897884 0.59924032352864731 0.57678427360951889 3.0878107436001292 1.3506132196635032
leaf_count=30 58 12 41 99 40 33 65 1583 30 16 18 35 7 16 30 28
internal_value=-0.000469839 0.084267 0.0950673 0.0645883 0.0164334 0.13385 0.0956905 -0.0938162 0.11017 -0.011206 -0.051191 0.0505961 -0.053808 -0.0749634 0.0832919 -0.000610014
internal_weight=82.5348 43.2318 36.9936 21.6051 6.23818 15.3886 17.1667 39.303 14.9506 3.26377 4.43841 4.93148 2.14074 3.41867 8.48437 2.21605
internal_count=2141 477 407 303 70 104 170 1664 130 81 133 65 65 115 71 40
is_linear=0
shrinkage=0.1


Tree=11
num_leaves=9
num_cat=0
split_feature=15 8 15 15 8 7 0 16
split_gain=79.4422 10.3082 3.10218 2.47342 2.36764 2.04309 1.53536 0.784479
threshold=-1.1831368226639472 -0.48485796079322074 -1.4024864615113928 -1.7578042695253928 -2.0390512536369325 -0.27418622879769466 -0.29371613239344668 -0.48036692971886558
decision_type=2 2 2 2 2 2 2 2
left_child=1 2 5 -3 7 -1 -4 -2
right_child=4 3 6 -5 -6 -7 -8 -9
leaf_value=0.15234246992235417 0.048918305084521697 0.047235913130887874 0.09386462593905448 -0.08695385297334797 -0.10091540615757161 0.072011576215084541 -0.0083449154455758189 -0.053898246368018543
leaf_weight=21.890898801386356 1.2896723281592133 1.8667495325207708 2.298978079110384 2.7286414932459584 39.26494718529284 5.9602645002305534 2.6036569476127616 0.74155664257705112
leaf_count=106 18 10 21 60 1846 30 28 22
internal_value=-0.000354905 0.104472 0.12399 -0.0311943 -0.0955175 0.137077 0.0419842 0.00419955
internal_weight=78.6454 37.3492 32.7538 4.59539 41.2962 27.8512 4.90264 2.03123
internal_count=2141 255 185 70 1886 136 49 40
is_linear=0
shrinkage=0.1


Tree=12
num_leaves=9
num_cat=0
split_feature=15 8 15 9 19 8 7 16
split_gain=69.0425 8.67544 2.7915 8.71623 2.3249 2.28154 2.06826 0.92358
threshold=-1.1831368226639472 -0.48485796079322074 -1.4024864615113928 0.14488990679557739 1.5000000000000002 -2.0390512536369325 -0.27418622879769466 -0.4970321446094505
decision_type=2 2 2 2 2 2 2 2
left_child=1 2 6 -4 -3 7 -1 -2
right_child=5 4 3 -5 -6 -7 -8 -9
leaf_value=0.14381933816062603 0.054374145596629592 0.040928434245513505 -0.091885000923671398 0.150770712122101 -0.089794272090301483 -0.10053329703336718 0.064758822495088339 -0.056647441790644237
leaf_weight=20.947894439101223 1.2046997305005791 2.0416617859154931 2.2945580333471325 2.6437496691942215 2.3847017772495747 35.658447096124291 6.0177279375493518 0.81575808860361476
leaf_count=106 15 25 38 11 45 1846 30 25
internal_value=-0.000376656 0.0971729 0.11523 0.0381014 -0.0294342 -0.0947374 0.12804 0.00323642
internal_weight=74.0092 36.3303 31.9039 4.93831 4.42636 37.6789 26.9656 2.02046
internal_count=2141 255 185 49 70 1886 136 40
is_linear=0
shrinkage=0.1


Tree=13
num_leaves=9
num_cat=0
split_feature=15 8 15 9 15 8 15 16
split_gain=60.2954 7.4557 2.55775 13.7033 2.26357 2.19624 2.18318 0.81248
threshold=-1.1831368226639472 -0.48485796079322074 -1.6972553566268187 -0.75453902188534405 -1.4024864615113928 -2.0390512536369325 -1.7578042695253928 -0.4970321446094505
decision_type=2 2 2 2 2 2 2 2
left_child=1 2 -1 -4 -5 7 -3 -2
right_child=5 6 3 4 -6 -7 -8 -9
leaf_value=0.13733668335573471 0.049826864880318664 0.044122175091922247 -0.081415770218692007 0.16423969765182578 0.056098787219935789 -0.10015868977754326 -0.084407992474455268 -0.054979271715137105
leaf_weight=16.038138136267662 1.2275613807141783 1.871790826320648 3.8273182976990947 6.7681240737438202 4.1124229170382023 32.381492400541902 2.4313798751682034 0.77380829118192096
leaf_count=84 15 10 33 32 36 1846 60 25
internal_value=-0.000409793 0.0911038 0.10822 0.0723411 0.128506 -0.0939522 -0.0276449 0.00241704
internal_weight=69.432 35.0492 30.746 14.7079 10.8805 34.3829 4.30317 2.00137
internal_count=2141 255 185 101 68 1886 70 40
is_linear=0
shrinkage=0.1


Tree=14
num_leaves=8
num_cat=0
split_feature=16 8 8 16 8 1 7
split_gain=40.0333 18.316 2.99841 9.35209 2.28943 2.12764 0.333542
threshold=-0.69611261615356634 -0.38101006792501235 -1.4265855676944079 -1.0213784470096312 -1.0039252148106181 -0.91237656414205459 -0.071714969139179116
decision_type=2 2 2 2 2 2 2
left_child=1 2 6 -4 -5 -3 -1
right_child=-2 5 3 4 -6 -7 -8
leaf_value=0.13518042934026681 -0.099303373910317683 0.037514839182019144 0.11759874158256034 0.016400874615786234 -0.096541254782573638 -0.097438020892369345 0.074724114752147366
leaf_weight=12.637978006154301 24.807858278043568 1.0112128537148226 9.5220039151608926 3.4941325411200497 2.7356283823028225 6.4064145497977734 4.3967125043272963
leaf_count=76 1583 25 63 36 59 278 21
internal_value=-0.000393813 0.0608626 0.092939 0.0573298 -0.0351965 -0.0765702 0.122722
internal_weight=65.0119 40.2041 32.7865 15.7518 6.22976 7.41763 17.0347
internal_count=2141 558 255 158 95 303 97
is_linear=0
shrinkage=0.1


Tree=15
num_leaves=10
num_cat=0
split_feature=16 8 8 7 16 8 8 8 8
split_gain=34.783 15.3926 4.81932 8.34658 1.56773 4.42284 1.29209 1.05757 0.113591
threshold=-0.74719741699545861 -0.096915367512398473 -1.7253205052242568 -0.58220806712063788 -1.1156317204576469 -0.70238848992173863 -2.4900693707120527 -1.1543165311611985 -0.58607983876081959
decision_type=2 2 2 2 2 2 2 2 2
left_child=1 2 -1 4 -4 7 -2 -6 -7
right_child=6 -3 3 -5 5 8 -8 -9 -10
leaf_value=0.14127001583696791 0.011958091993752921 -0.093666129217167785 0.1271076498488328 -0.065812362025712473 0.12418345887122484 -0.0049947945381488548 -0.099062341950359123 0.032238468029108451 -0.07529053816035633
leaf_weight=10.57544785179198 0.82349442876875656 5.0878776973113409 6.3359853662550476 4.0646554725244632 4.0078483391553172 0.72302219737321172 23.409165011718869 2.8540010396391153 1.3655624482780666
leaf_count=57 14 250 43 36 34 13 1647 38 44
internal_value=-0.0035413 0.0597248 0.0872424 0.0543978 0.0880672 0.0541097 -0.0947198 0.0920867 -0.060484
internal_weight=59.2471 35.0144 29.9265 19.3511 15.2864 8.95043 24.2327 6.86185 2.08858
internal_count=2176 515 265 208 172 129 1661 72 57
is_linear=0
shrinkage=0.1


Tree=16
num_leaves=10
num_cat=0
split_feature=15 8 7 8 15 15 15 8 8
split_gain=39.6862 6.4592 3.97777 9.52873 2.12373 1.5919 1.30883 2.94042 0.557269
threshold=-1.0018651642598078 -0.38101006792501235 -0.58220806712063788 -1.7695543424115538 -1.8541044892996421 -1.6598546203463547 -1.3692417467745479 -1.7253205052242568 -2.2488166346453453
decision_type=2 2 2 2 2 2 2 2 2
left_child=1 2 6 -4 -3 -5 -1 -8 -2
right_child=8 4 3 5 -6 -7 7 -9 -10
leaf_value=0.13235766554787606 0 0.064897767215755853 0.12342968012552658 0.014745524345305417 -0.088909096537304264 -0.10135248707625195 0.12307510551013388 -0.027305388283561355 -0.099100851423150838
leaf_weight=13.476017087697988 0.73660094104707496 0.75755896419286761 4.9571368675678968 1.3616244047880171 2.7295697126537553 3.2147493166848999 2.2288855463266373 2.0356048718094852 24.121104683727026
leaf_count=87 17 5 33 7 93 56 10 39 1829
internal_value=-0.00342217 0.0718289 0.0882472 0.032344 -0.0490391 -0.0667895 0.11603 0.0538614 -0.0965191
internal_weight=55.6189 30.7611 27.274 9.53351 3.48713 4.57637 17.7405 4.26449 24.8577
internal_count=2176 330 232 96 98 63 136 49 1846
is_linear=0
shrinkage=0.1


Tree=17
num_leaves=10
num_cat=0
split_feature=15 8 7 8 15 15 15 8 8
split_gain=35.1944 5.58696 3.525 8.17391 1.93219 1.46859 1.20827 2.58393 0.550776
threshold=-1.0018651642598078 -0.38101006792501235 -0.58220806712063788 -1.7695543424115538 -1.8541044892996421 -1.6598546203463547 -1.3692417467745479 -1.7253205052242568 -2.2488166346453453
decision_type=2 2 2 2 2 2 2 2 2
left_child=1 2 6 -4 -3 -5 -1 -8 -2
right_child=8 4 3 5 -6 -7 7 -9 -10
leaf_value=0.12746936288496177 0 0.059891546015034006 0.11564083082283033 0.013669959375172425 -0.087096755867054246 -0.098782704492697535 0.11695879908366438 -0.025483661782477397 -0.098715267059125505
leaf_weight=12.655336581170564 0.73660094104707496 0.77940145134925876 4.803652198985219 1.3612427115440366 2.5285126101225606 2.9930095048621279 2.141548216342926 2.0006319200620082 21.908531408756971
leaf_count=87 17 5 33 7 93 56 10 39 1829
internal_value=-0.00326092 0.0684968 0.0841356 0.0304117 -0.0465211 -0.0637803 0.111122 0.0506717 -0.095899
internal_weight=51.9085 29.2633 25.9554 9.1579 3.30791 4.35425 16.7975 4.14218 22.6451
internal_count=2176 330 232 96 98 63 136 49 1846
is_linear=0
shrinkage=0.1


Tree=18
num_leaves=14
num_cat=0
split_feature=15 15 7 16 15 16 15 6 2 15 0 0 6
split_gain=31.2297 3.59723 2.30525 1.76119 1.05436 0.971105 0.854424 0.833825 0.343345 0.223221 0.204395 0.460329 0.0767079
threshold=-1.0018651642598078 -1.8126753670882334 -0.58897872612470492 -0.81994681136004155 -1.4343357397617498 -1.1348589034138408 -1.3692417467745479 0.5782632520200679 -0.92270764002620576 -1.2511159863435266 1.9102275801644109 1.969422572719753 -0.755014370819589
decision_type=2 2 2 2 2 2 2 2 2 2 2 2 2
left_child=1 -1 5 -4 -5 -3 -7 9 -6 -8 -2 -12 -10
right_child=10 2 3 4 8 6 7 -9 12 -11 11 -13 -14
leaf_value=0.11568296664342459 -0.098309805897029812 7.8897023028720099e-05 -0.059224821928325122 0.077250347315977574 0.028916195205739199 0.10426604048067044 0.018091081988250969 0.069147383328356363 0 -0.036082195906111669 0.03534444285996613 -0.057912230094290189 -0.055224468698992904
leaf_weight=9.2177933305501956 19.441880771890286 2.2559613753110197 3.0890887286514044 2.0705787539482121 0.50812155008316073 5.264331307262184 0.74075189419090914 2.2759556956589222 0.49813737068325292 1.1255969712510649 0.29636827018111833 0.89953695796430111 0.78404125571250749
leaf_count=66 1757 39 36 12 7 45 12 30 12 35 6 83 36
internal_value=-0.00310337 0.0653511 0.0375269 -0.00667745 0.0350426 0.063883 0.0773992 0.0335483 -0.0156144 -0.0110755 -0.0952505 -0.0252981 -0.0420344
internal_weight=48.4681 27.8304 18.6126 6.94997 3.86088 11.6626 9.40664 4.1423 1.7903 1.86635 20.6378 1.19591 1.28218
internal_count=2176 330 264 103 67 161 122 77 55 47 1846 89 48
is_linear=0
shrinkage=0.1


Tree=19
num_leaves=12
num_cat=0
split_feature=8 7 8 8 9 7 9 7 9 8 9
split_gain=19.5296 6.6196 7.78079 1.64166 5.07639 1.04841 1.29988 0.65019 0.493755 0.36732 0.194825
threshold=-0.38101006792501235 -0.60130378409643126 -1.7695543424115538 -1.1543165311611985 -0.58421281042980244 -1.336242662524729 -1.3536678841451748 -0.44286209179463204 -0.15323863440624466 -2.6264400406264805 -0.28108714448614097
decision_type=2 2 2 2 2 2 2 2 2 2 2
left_child=1 3 8 -1 -5 6 -2 -4 -3 -10 -6
right_child=5 2 7 4 10 -7 -8 -9 9 -11 -12
leaf_value=0.11250220499441009 0.067212622077717082 0.10137351610608776 -0.0007417371439714717 0.098965765562841562 0 -0.098270493405450951 -0.067111250363694003 -0.090140738794780628 0.056452524943260265 -0.0092527429514229955 -0.077555611929446586
leaf_weight=9.6629239153116959 0.70009638555347908 3.1348673179745674 1.2052167905494586 4.9490962978452453 0.66095247305929783 14.419808967038987 1.2462867954745913 5.8139438834041304 1.1616638693958523 1.0701980283483878 1.8181728795170791
leaf_count=99 9 26 34 35 14 1395 92 343 13 35 81
internal_value=-0.00284348 0.0453992 -0.00951837 0.0849056 0.0429145 -0.089096 -0.0108462 -0.0771906 0.0763212 0.0253587 -0.0634542
internal_weight=45.8432 29.477 12.3859 17.0911 7.42822 16.3662 1.94638 7.01916 5.36673 2.23186 2.47913
internal_count=2176 680 451 229 130 1496 101 377 74 48 95
is_linear=0
shrinkage=0.1


Tree=20
num_leaves=9
num_cat=0
split_feature=15 15 9 16 3 15 9 9
split_gain=26.3345 3.33308 10.0808 2.81126 1.50887 1.26534 3.15055 1.07585
threshold=-1.0018651642598078 -1.8126753670882334 -1.2383109784025079 -0.73948826754525554 -0.81754591029231638 -1.2511159863435266 0.43772434832369861 -0.6527917448025814
decision_type=2 2 2 2 2 2 2 2
left_child=1 -1 -3 5 -5 7 -7 -4
right_child=-2 2 3 4 -6 6 -8 -9
leaf_value=0.10503796628589789 -0.097789889391460008 -0.10652551954716041 0.044499635088358469 0.047816981068888674 -0.095553194027955354 -0.073776823182740467 0.099431084841092365 0.1176003938455733
leaf_weight=9.1423113718628901 17.141392641700804 3.7718511698767569 4.639544734731321 0.77630369551479805 1.2067601839080406 1.5085573745891463 1.6729045212268827 7.522408476099371
leaf_count=74 1831 95 35 9 35 56 9 53
internal_value=-0.000197237 0.055487 0.031618 0.0643962 -0.0370741 0.0788981 0.0157191 0.0933621
internal_weight=47.382 30.2406 21.0983 17.3265 1.98306 15.3434 3.18146 12.162
internal_count=2197 366 292 197 44 153 65 88
is_linear=0
shrinkage=0.1


Tree=21
num_leaves=11
num_cat=0
split_feature=15 15 9 9 13 15 9 3 9 13
split_gain=23.3729 3.03642 10.3662 1.51518 1.46545 1.07324 3.14959 0.908859 0.682752 0.0317649
threshold=-1.0018651642598078 -1.6091150672231291 -0.54344402987274365 -1.5158213832487244 0.85023005878384439 -1.3692417467745479 0.33865553817984539 -0.68152697384453753 -0.92068906185234789 0.64381204741511844
decision_type=2 2 2 2 2 2 2 2 2 2
left_child=1 3 4 -1 -3 -4 7 -7 -6 -5
right_child=-2 2 5 9 8 6 -8 -9 -10 -11
leaf_value=0.024488006407832618 -0.09734822336314837 -0.11189917546787334 0.12423242276965561 0.11145390774054593 -0.052313618530480666 0.034305560437339212 0.1067197177188904 -0.076219544778177106 0.054588168952125919 0.049182691379569786
leaf_weight=4.0268110372126094 15.579200682695953 4.0918019739910951 3.7642951756715775 8.6670293621718901 0.64454900566488504 0.66462874598801169 2.8269958086311817 1.5290015311911682 0.74005918484181143 1.9283438622951496
leaf_count=35 1831 110 27 67 27 8 16 43 14 19
internal_value=-0.000204028 0.0526182 0.0178928 0.0841139 -0.0846665 0.0840205 0.0435385 -0.0388681 0 0.103749
internal_weight=44.4627 28.8835 14.2613 14.6222 5.47641 8.78492 5.02063 2.19363 1.38461 10.5954
internal_count=2197 366 245 121 151 94 67 51 41 86
is_linear=0
shrinkage=0.1


Tree=22
num_leaves=15
num_cat=0
split_feature=8 7 8 7 8 9 7 9 3 8 9 11 9 2
split_gain=14.278 4.89587 4.55973 2.02269 1.26331 4.17626 1.02753 1.31209 0.643475 0.48979 0.473855 0.445965 0.241973 0.227817
threshold=-0.38101006792501235 -0.60130378409643126 -1.5272605478458769 0.4193172809835386 -1.1166594137876669 -0.61994608555072783 -1.336242662524729 -1.4386687198948531 -1.0241763157213568 -2.7973508709391335 -1.3921651126550219 -0.0098181293333936461 0.70899573273407168 -0.72149424314641719
decision_type=2 2 2 2 2 2 2 2 2 2 2 2 2 2
left_child=1 4 3 11 12 -6 7 -2 -7 -5 -4 -3 -1 -11
right_child=6 2 10 9 5 8 -8 -9 -10 13 -12 -13 -14 -15
leaf_value=0.11308392958047389 0.076708750785411617 0.095488335786519621 -0.018225369442541568 0.016156531366666432 0.089633261814097337 0.027601022627685108 -0.097508021830318731 -0.064774166300367836 -0.076393972792253614 0 -0.094623084104419067 0.018988630581383371 0.043103481996442268 -0.07723336615375577
leaf_weight=6.6047123530879635 0.57793888263404358 3.4075062917545438 1.8260931200347856 0.99750616960227523 4.8928363565355548 0.32550868391990784 11.005449895281343 1.1341420169919718 2.1879776525311181 0.44976034434512269 3.5454942025244183 1.7732784277759508 2.0366360722109675 1.0001847175881262
leaf_count=71 6 41 34 8 35 7 1375 93 88 13 326 21 40 39
internal_value=-4.96006e-06 0.0384069 -0.00657467 0.0413908 0.0745473 0.0380477 -0.0866301 -0.00595043 -0.0572627 -0.0270924 -0.0741181 0.0750403 0.100944 -0.0584878
internal_weight=41.765 29.0475 12.9998 7.62824 16.0477 7.40632 12.7175 1.71208 2.51349 2.44745 5.37159 5.18078 8.64135 1.44995
internal_count=2197 723 482 122 241 130 1474 99 95 60 360 62 111 52
is_linear=0
shrinkage=0.1


Tree=23
num_leaves=12
num_cat=0
split_feature=15 15 9 16 3 9 15 15 1 1 6
split_gain=18.9939 2.74966 7.69143 2.16258 1.11232 1.09686 3.95007 1.40019 0.641871 1.43247 0.116394
threshold=-1.0018651642598078 -1.8126753670882334 -1.2383109784025079 -0.73948826754525554 -0.81754591029231638 -0.75453902188534405 -1.6369669093685546 -1.4024864615113928 -0.59734843458593023 0.62179248296359824 0.90108328240635849
decision_type=2 2 2 2 2 2 2 2 2 2 2
left_child=1 10 -3 5 -5 6 -4 -7 -9 -10 -1
right_child=-2 2 3 4 -6 7 -8 8 9 -11 -12
leaf_value=0.11007382140010491 -0.096539920510085142 -0.10291382924853985 0.1062044379795371 0.038199196338788974 -0.088196513573234617 0.1181933813073681 -0.082603151351776996 0.07537029499023605 -0.058065170479779493 0.065151330892382606 0.047457013451374236
leaf_weight=5.5385003015399006 13.095597647130488 3.2647142773494169 1.7814713045954707 0.72489419486373652 1.0810541594400938 5.6842445358634004 1.634841338731351 1.6846317872405068 1.4322578115388709 1.339925887994468 2.2607817724347115
leaf_count=55 1831 95 10 9 35 46 36 19 27 15 19
internal_value=0 0.0484576 0.0255715 0.0558883 -0.0358436 0.0696594 0.0142884 0.0858251 0.0347669 0 0.0970806
internal_weight=39.5229 26.4273 18.628 15.3633 1.80595 13.5574 3.41631 10.1411 4.45682 2.77218 7.79928
internal_count=2197 366 292 197 44 153 46 107 61 42 74
is_linear=0
shrinkage=0.1


Tree=24
num_leaves=9
num_cat=0
split_feature=15 8 16 16 9 8 13 16
split_gain=16.989 3.54902 3.93829 3.22958 3.54654 2.8641 1.12568 0.042869
threshold=-1.0018651642598078 -1.0039252148106181 -1.0555370007760139 -0.85355459658333332 -0.57609594617661808 -0.37151556597621443 -1.10088400935032 -1.0213784470096312
decision_type=2 2 2 2 2 2 2 2
left_child=1 3 5 -1 -5 -3 -7 -4
right_child=-2 2 7 4 -6 6 -8 -9
leaf_value=0.10750978619947119 -0.096030350179198851 0.095490402425510892 -0.019302900691950651 -0.072537934873403279 0.073580495168453455 0.038894239334705177 -0.080144209676601338 -0.094263880666782832
leaf_weight=10.086956638842819 11.911665000487117 3.6577990688383579 0.77141653513535891 2.3571534464135766 3.4240751201286939 0.80031466670334372 1.4970707776956258 2.489653764292596
leaf_count=103 1831 29 16 32 39 13 48 86
internal_value=0 0.0465469 -0.00193566 0.0745156 0.0113805 0.0445457 -0.0355614 -0.0841139
internal_weight=36.9961 25.0844 9.21625 15.8682 5.78123 5.95518 2.29739 3.26107
internal_count=2197 366 192 174 71 90 61 102
is_linear=0
shrinkage=0.1


Tree=25
num_leaves=11
num_cat=0
split_feature=15 15 9 10 15 9 6 15 15 3
split_gain=14.7011 2.85887 7.2305 0.929302 0.922411 2.61882 0.615026 0.564058 0.450025 0.00192082
threshold=-1.0436078059160965 -1.5609805691379164 -0.54344402987274365 -0.86246803409483985 -1.3692417467745479 0.33865553817984539 0.83310912499783085 -1.7578042695253928 -0.81279531178395359 -0.48791432649754352
decision_type=2 2 2 2 2 2 2 2 2 2
left_child=1 6 -3 8 -4 9 7 -1 -2 -6
right_child=3 2 4 -5 5 -7 -8 -9 -10 -11
leaf_value=0.11533121141531084 0.048805562297542154 -0.099484002063185362 0.11504887407281067 -0.095364186304486842 -0.008336305967401092 0.094322575502864742 0.028741702530539516 0.044770799705989489 -0.044235787020911244 -0.064125002282057531
leaf_weight=6.0032165236771098 0.51085528684780002 3.4085346907377243 2.5015159025788307 10.436515301000325 0.65370754990726732 2.1822076514363289 2.8230654597282401 3.2122919205576208 0.56929812440648564 0.98030442558228792
leaf_count=62 9 126 22 1743 13 14 29 33 98 30
internal_value=0.00224246 0.0506032 0.00830556 -0.0866228 0.0709578 0.02976 0.082285 0.0953348 0 -0.0536746
internal_weight=33.2815 21.7648 9.72627 11.5167 6.31774 3.81622 12.0386 9.21551 1.08015 1.63401
internal_count=2179 329 205 1850 79 57 124 95 107 43
is_linear=0
shrinkage=0.1


Tree=26
num_leaves=12
num_cat=0
split_feature=15 15 9 7 15 9 10 9 13 9 3
split_gain=13.0769 2.597 5.93295 1.07243 1.03517 2.42162 0.711551 0.66876 0.791744 0.241802 0.0282587
threshold=-1.0018651642598078 -1.6091150672231291 -0.54344402987274365 -1.5193373579543528 -1.3692417467745479 0.33865553817984539 -0.89179207618369993 -1.6019090178728219 1.0034007273322669 1.5632328818788628 -0.55983820381981453
decision_type=2 2 2 2 2 2 2 2 2 2 2
left_child=1 7 3 -3 -4 10 9 -1 -9 -2 -6
right_child=6 2 4 -5 5 -7 -8 8 -10 -11 -12
leaf_value=0.024600596127072188 -0.029186318901393421 0.030358277473637108 0.11144509202770661 -0.099015083082291011 -0.0058348450781524272 0.085597744480452626 -0.094732021134696753 0.10865039064386253 0.010861818871018827 0.047319562163357948 -0.065453802767737462
leaf_weight=2.5954856630414715 0.34458348667249339 0.39500889088958535 2.6253343410789967 3.4664906826801598 0.62848282605409611 2.3350503407418728 9.5222722203470713 6.7460418753325957 1.3335730656981466 0.2592406440526247 1.0450457339175061
leaf_count=28 64 9 25 135 14 17 1764 69 17 3 34
internal_value=0.0022924 0.0471167 0.00979426 -0.0815251 0.0663399 0.0254981 -0.0882877 0.0808361 0.0952492 0.00115657 -0.0541579
internal_weight=31.2966 21.1705 10.4954 3.8615 6.63391 4.00858 10.1261 10.6751 8.07961 0.603824 1.67353
internal_count=2179 348 234 144 90 65 1831 114 86 67 48
is_linear=0
shrinkage=0.1


Tree=27
num_leaves=10
num_cat=0
split_feature=15 15 9 15 9 2 14 9 13
split_gain=11.6584 2.57823 5.7538 1.70863 2.51668 1.13182 0.797681 0.458809 0.0523384
threshold=-0.83382182996993637 -1.7578042695253928 -0.75453902188534405 -1.4024864615113928 -0.18154064746133683 -0.83782983303984049 -0.77966816286014951 0.33865553817984539 -1.329915229829665
decision_type=2 2 2 2 2 2 2 2 2
left_child=1 6 5 -4 -5 -3 -1 -6 -7
right_child=-2 2 3 4 7 8 -8 -9 -10
leaf_value=0.026018173286529635 -0.093855193133301776 0.027587265002848228 0.1080702726726448 -0.078253101052479943 0 -0.0090982528723728036 0.11045984238560665 0.07880281464023485 -0.095940701991457267
leaf_weight=2.3173983916640282 8.3679178017191571 0.6062173326499759 3.7705118581652641 1.3822907120920715 1.2769967135973272 0.45233818190172348 5.0240702815353897 2.7599385799840093 3.4914974239654848
leaf_count=24 1735 26 38 76 36 18 59 31 136
internal_value=0.00236502 0.0423113 0.0147221 0.0599328 0.0184514 -0.071503 0.088439 0.0587429 -0.090375
internal_weight=29.4492 21.0813 13.7398 9.18974 5.41923 4.55005 7.34147 4.03694 3.94384
internal_count=2179 444 361 181 143 180 83 67 154
is_linear=0
shrinkage=0.1


Tree=28
num_leaves=14
num_cat=0
split_feature=15 15 7 3 10 0 6 15 6 6 15 19 10
split_gain=10.4732 1.9062 1.47457 1.26887 0.82965 0.787025 0.479244 0.463781 0.745357 0.522622 0.322943 0.0526783 0.021191
threshold=-1.0436078059160965 -1.8126753670882334 -0.82046228509193264 -0.74835436503591468 -0.86246803409483985 0.70740358657768343 0.90108328240635849 -1.3692417467745479 0.40581029711324762 0.5782632520200679 -0.81279531178395359 2.5000000000000004 -0.56395136821470337
decision_type=2 2 2 2 2 2 2 2 2 2 2 2 2
left_child=1 6 7 -4 10 11 -1 8 -3 12 -2 -5 -9
right_child=4 2 3 5 -6 -7 -8 9 -10 -11 -12 -13 -14
leaf_value=0.1071441542314165 0.042660064479911282 0.10266262907638189 0.042831984585756849 -0.076758943958595213 -0.093612279987250149 0.024989198290436235 0.024461892565231316 0 0.0079207629257739796 0.049714678853294877 -0.038483934545942733 -0.018361128304980972 -0.03424992482054437
leaf_weight=4.3723872341215637 0.4841153877787292 2.4343531634658575 2.0843686270527551 2.2196586327627306 7.9747588702011818 0.83153329649940122 1.6444558501243589 0.43094487395137548 1.6252775583416221 1.2060900083743034 0.47126219514757561 1.1385761490091679 0.77263865852728597
leaf_count=57 9 32 27 56 1743 18 17 12 27 23 98 31 29
internal_value=0.00237943 0.0449533 0.0204863 -0.0125295 -0.08364 -0.0438338 0.0896915 0.0525426 0.0719537 0.00965857 0 -0.0644969 -0.0274213
internal_weight=27.6904 18.7603 12.7434 6.27414 8.93014 4.18977 6.01684 6.4693 4.05963 2.40967 0.955378 3.35823 1.20358
internal_count=2179 329 255 132 1850 105 74 123 59 64 107 87 41
is_linear=0
shrinkage=0.1


Tree=29
num_leaves=8
num_cat=0
split_feature=15 15 9 15 9 9 5
split_gain=9.34908 2.14975 5.09698 0.981733 2.37558 0.710463 0.419859
threshold=-0.83382182996993637 -1.5609805691379164 -0.54344402987274365 -1.3031794506019792 0.34689685358104588 -1.6019090178728219 -1.0158669836368386
decision_type=2 2 2 2 2 2 2
left_child=1 5 -3 -4 -5 -1 -7
right_child=-2 2 3 4 -6 6 -8
leaf_value=0.013462699173423166 -0.092487969196699049 -0.093727431264138031 0.096920941927937682 -0.071527487189647618 0.07264452440938711 0.019294271738443503 0.095969535161532032
leaf_weight=2.4202589895576239 6.976981923216953 3.0533595448359847 2.5644813776016235 1.3951488377060761 2.3236067909747362 1.5194742195308206 6.1411442831158656
leaf_count=30 1735 190 26 77 27 18 76
internal_value=0.00251446 0.0386171 0.00239204 0.0540416 0.0141189 0.0695241 0.0841005
internal_weight=26.3945 19.4175 9.3366 6.28324 3.71876 10.0809 7.66062
internal_count=2179 444 320 130 104 124 94
is_linear=0
shrinkage=0.1


Tree=30
num_leaves=10
num_cat=0
split_feature=15 15 8 16 16 8 8 8 6
split_gain=7.70141 2.40391 1.86899 2.09042 0.865402 0.676972 0.708092 0.609657 0.594239
threshold=-1.1450907471149629 -1.8126753670882334 -1.5272605478458769 -1.0213784470096312 -0.7944126705410729 -0.65545554180039056 -0.31839207654973189 -2.0915020029464064 -0.67044719518844087
decision_type=2 2 2 2 2 2 2 2 2
left_child=1 -1 4 5 -3 -4 -7 -2 -5
right_child=7 2 3 8 -6 6 -8 -9 -10
leaf_value=0.090702798639568233 0 0.09049390362598736 0.067355976867470066 0 0.0051131276319884315 0.036600717515545805 -0.061666537785273659 -0.092688823518648822 -0.09656616690616851
leaf_weight=4.6030435077846077 0.91418498335406351 2.3324441350996494 1.546184938400984 0.83479118440300348 2.6155485534109184 0.95384935662150383 0.91368537023663587 7.1062431579921359 2.5855672946199766
leaf_count=62 32 27 17 25 28 9 49 1852 54
internal_value=-0.00565035 0.0331531 0.00707815 -0.0252676 0.0518079 0.0265368 -0.0101224 -0.0833901 -0.0763125
internal_weight=24.4055 16.3851 11.7821 6.83408 4.94799 3.41372 1.86753 8.02043 3.42036
internal_count=2155 271 209 154 55 75 58 1884 79
is_linear=0
shrinkage=0.1


Tree=31
num_leaves=10
num_cat=0
split_feature=15 15 9 15 9 9 15 15 6
split_gain=6.94443 2.33562 3.68438 1.82195 2.25856 0.71471 1.99026 0.68443 0.0607329
threshold=-1.0018651642598078 -1.8126753670882334 -0.75453902188534405 -1.475835587829273 0.14488990679557739 -1.2383109784025079 -1.6369669093685546 -1.4024864615113928 1.1672581816188761
decision_type=2 2 2 2 2 2 2 2 2
left_child=1 8 5 -4 7 -3 -7 -5 -1
right_child=-2 2 3 4 -6 6 -8 -9 -10
leaf_value=0.099107176909933509 -0.091559459848386218 -0.094636145899226268 0.10550142326177912 0.0093063530205007832 0.070559613819489289 0.07604635858624581 -0.078006179706953782 -0.082197994646362821 0.030232898335033859
leaf_weight=3.1289007794111994 6.2544944763649246 2.4020427027717242 2.7165891267359257 0.86101438105106387 2.3889546580612659 0.93320949003100429 1.4794781126547603 1.7381104491651065 1.2378398738801477
leaf_count=51 1815 83 32 8 25 7 56 67 11
internal_value=-0.00526259 0.0278398 0.00398151 0.0465462 0.00592947 -0.0602212 -0.012161 -0.0520476 0.0867501
internal_weight=23.1406 16.8861 12.5194 7.70467 4.98808 4.81473 2.41269 2.59912 4.36674
internal_count=2155 340 278 132 100 146 63 75 62
is_linear=0
shrinkage=0.1


Tree=32
num_leaves=17
num_cat=0
split_feature=16 9 16 7 9 12 3 16 13 7 16 19 1 2 14 2
split_gain=6.02907 1.13626 0.87809 0.870987 0.662699 0.585065 0.375919 0.347217 0.29944 0.211863 0.1959 0.181713 0.169315 0.0572183 0.0297033 0.0280493
threshold=-0.74719741699545861 -1.6019090178728219 -1.1156317204576469 -0.53513869838456263 -0.6527917448025814 0.32244299263661014 -1.3624522862122996 -1.0977355707786896 -0.530142073421624 -1.0858687047973867 -0.93952691715856684 2.5000000000000004 0.83957635988041435 -0.86212328060624899 -0.58215402870675093 -0.70964206298843069
decision_type=2 2 2 2 2 2 2 2 2 2 2 2 2 2 2 2
left_child=1 7 11 5 -5 8 -2 -1 12 13 -11 -3 -4 -10 -12 -7
right_child=6 2 3 4 -6 15 -8 -9 9 10 14 -13 -14 -15 -16 -17
leaf_value=0 0.0019029089412383995 0.092272833457480219 0.049093262932970311 0.008460558704028882 0.09397218913013583 0 -0.090499411355295031 -0.067015723747465075 0 0.044162043637970466 0 0.015970581163909422 0 -0.042633859647358087 -0.025341569711068573 -0.060975186797578455
leaf_weight=1.5600833911448719 0.22588884620927352 2.7411352430935945 1.5998533812817171 2.2683726542163645 1.6444648019969497 0.1513740972150116 5.8719358949456346 0.81949839182197948 0.21520993090234497 0.54935073852539062 0.23993505490943789 0.99707574397325505 0.56581052904948581 0.97189627238549292 0.28893380332738361 1.0050401247572152
leaf_count=30 25 52 69 39 14 16 1614 39 17 13 14 29 18 75 27 64
internal_value=-0.00487976 0.0277247 0.0393732 0.0197944 0.0532406 -0.00443427 -0.085676 -0.0291916 0.0115266 -0.0100936 0.0137217 0.0785657 0.0355444 -0.0353077 -0.0142736 -0.0566468
internal_weight=21.7159 15.618 13.2385 9.50024 3.91284 5.5874 6.09782 2.37958 4.43099 2.26533 1.07822 3.73821 2.16566 1.18711 0.528869 1.15641
internal_count=2155 516 447 366 53 313 1639 69 233 146 54 81 87 92 41 80
is_linear=0
shrinkage=0.1


Tree=33
num_leaves=13
num_cat=0
split_feature=15 15 12 1 15 1 13 2 11 5 14 2
split_gain=5.75484 2.01366 1.47696 0.760906 0.804202 0.755811 0.582774 0.233462 0.180183 0.100893 0.0992187 0.0249686
threshold=-1.0018651642598078 -1.8126753670882334 0.65417688937492835 -0.27253837387747865 -1.4343357397617498 -0.10189170236314161 -1.0586533581480106 -0.31208518948949238 -0.77350755329482068 -0.023398361559678411 -1.0969953320417105 -0.34221001398146395
decision_type=2 2 2 2 2 2 2 2 2 2 2 2
left_child=1 10 3 4 -3 -5 -6 8 -7 -9 -1 -4
right_child=-2 2 11 5 6 7 -8 9 -10 -11 -12 -13
leaf_value=0.026045746371826134 -0.090052003058842867 0.072021450323502406 -0.011525335883532578 -0.060363657225763971 0.044251578057785262 0.019728180057301533 -0.050015481283040002 0 -0.03137275791599034 0.052314176749155034 0.09594630336427433 -0.077941983547011595
leaf_weight=1.2073135562241075 5.3074468527920535 3.265805128030479 0.67762125772424031 1.3260396709665636 0.64958646544255294 0.6738854474388063 0.95712215756065966 0.67336694314144319 0.9338904267642627 1.1090593945700771 2.8405003305524579 1.2748198739718635
leaf_count=11 1815 49 15 21 12 19 50 31 25 23 51 33
internal_value=-0.00442686 0.0259962 0.00276354 0.0203377 0.0463863 -0.00652373 -0.00569972 0.0170164 -0.00561088 0.0385658 0.0824521 -0.0660181
internal_weight=20.8965 15.589 11.5412 9.58876 4.87251 4.71624 1.60671 3.3902 1.60778 1.78243 4.04781 1.95244
internal_count=2155 340 278 230 111 119 62 98 44 54 62 48
is_linear=0
shrinkage=0.1


Tree=34
num_leaves=19
num_cat=0
split_feature=16 9 16 7 9 12 17 5 16 10 13 16 12 16 7 16 12 12
split_gain=4.84799 1.00045 0.706254 0.925911 0.819735 0.438278 0.299983 0.270729 0.195469 0.182324 0.166322 0.152825 0.136399 0.136239 0.126102 0.0449447 0.012483 0.00964035
threshold=-0.74719741699545861 -1.6019090178728219 -0.99773113667919833 -0.53513869838456263 -0.6527917448025814 -0.082102692464724 1.5000000000000002 -0.22546767886866986 -1.1811540605118578 3.3246069955153081 -1.721394332851532 -1.0555370007760139 -0.89774615799646329 -1.1421324893773619 -1.0268480361967274 -0.61154390987802831 -0.22870859882826169 -0.46084659146288148
decision_type=2 2 2 2 2 2 2 2 2 2 2 2 2 2 2 2 2 2
left_child=1 7 6 5 -5 14 8 -1 -3 12 -7 -10 15 -9 16 -2 -4 -16
right_child=9 2 3 4 -6 10 -8 13 11 -11 -12 -13 -14 -15 17 -17 -18 -19
leaf_value=0.007549930678675449 0.0079821204465116511 0.050015255644391771 -0.026756200272174596 0 0.08843348969894238 0 0.077171873231290836 0 -0.022913034851092098 0 -0.072487167722118634 0.024014211129918278 -0.092145814220899153 -0.068419100170514516 0 -0.023055299269758637 0 0.029626109584075713
leaf_weight=0.75280930637382004 0.1727092198561877 0.81779843941330943 0.31493130046874185 1.8901930910069498 1.4456367455422912 0.088864456163719185 3.7472005216404796 0.65795246185734879 0.95334400306455802 0.27831668639555562 1.1719456033315507 0.82696780865080532 4.5118960859253985 0.86115229316055653 0.59582744468934834 0.27793991006910879 0.074144964106380939 0.54863227694295369
leaf_count=27 6 13 71 33 13 2 97 14 44 23 88 32 1510 28 27 100 12 15
internal_value=-0.00417807 0.0249119 0.0362957 0.00885556 0.0427751 -0.0289478 0.0587614 -0.0292622 0.0208113 -0.0828174 -0.0635974 0 -0.0868444 -0.0498096 0.0032548 -0.0026992 -0.0227109 0.0223846
internal_weight=19.9883 14.7474 12.4755 6.13018 3.33583 2.79435 6.34531 2.27191 2.59811 5.24086 1.26081 1.78031 4.96255 1.5191 1.53354 0.450649 0.389076 1.14446
internal_count=2155 516 447 261 46 215 186 69 89 1639 90 76 1616 42 125 106 83 42
is_linear=0
shrinkage=0.1


Tree=35
num_leaves=11
num_cat=0
split_feature=16 8 7 15 6 8 16 3 8 15
split_gain=5.48089 4.25521 2.23581 1.53572 0.466984 0.458747 1.17608 0.390074 0.237242 0.0115574
threshold=-0.74719741699545861 -1.0039252148106181 -1.177921907181724 -1.5296698763594081 -0.91808368783499628 -1.5782784406133896 -0.91637613949653363 -1.0613492072908077 -2.6264400406264805 -1.4024864615113928
decision_type=2 2 2 2 2 2 2 2 2 2
left_child=1 5 3 -3 -4 -1 -7 -5 -2 -9
right_child=8 2 4 7 -6 6 -8 9 -10 -11
leaf_value=0.093857211781045904 0 0.071611900108172297 0 0.024143314430817076 -0.09893791535073497 0.070019994266271965 -0.037019215621515097 0 -0.091709698519358174 -0.065716393065506237
leaf_weight=5.5928122429177165 0.26154313888400871 2.2247435282915826 0.52744470071047578 0.24789745197631363 2.5438545097131318 2.3722902471199636 1.0727660865522901 0.24458719696849507 4.4173777985852194 1.1544799632392833
leaf_count=81 12 23 36 7 133 47 28 7 1619 172
internal_value=0.00252837 0.0311172 -0.025784 0.0223346 -0.0838774 0.0749381 0.0336865 -0.0407476 -0.086763 -0.0608406
internal_weight=20.6598 15.9809 6.94301 3.87171 3.0713 9.03787 3.44506 1.64696 4.67892 1.39907
internal_count=2165 534 378 209 169 156 75 186 1631 179
is_linear=0
shrinkage=0.1


Tree=36
num_leaves=13
num_cat=0
split_feature=16 8 16 8 0 0 8 16 8 6 9 6
split_gain=4.86239 3.72374 1.92092 1.66 0.844143 0.435318 0.407557 1.04481 0.230545 0.115447 0.070951 0.00844579
threshold=-0.74719741699545861 -1.0039252148106181 -1.1156317204576469 -0.34574590325216836 -0.93220568746711363 -1.0082958255091168 -1.5782784406133896 -0.91637613949653363 -2.6264400406264805 -1.2842744348169635 -1.4386687198948531 -1.3769664676467741
decision_type=2 2 2 2 2 2 2 2 2 2 2 2
left_child=1 6 3 -3 -5 -4 10 -8 -2 11 -1 -7
right_child=8 2 5 4 -6 9 7 -9 -10 -11 -12 -13
leaf_value=0.01823234398273068 0 0.084475525611622235 0.0074244358064802524 0.038989882531275742 -0.075969808440619666 -0.011199891044137331 0.06684402028727611 -0.034967350391320144 -0.090518078006152761 -0.092971735639495345 0.096575882244775937 0
leaf_weight=0.73108974285423745 0.26154313888400871 1.7137988079339268 0.26900858432054464 0.49707417702302326 1.2307401066645969 0.17330614384263754 2.2658848115243022 1.0525598675012569 4.0532636439893377 2.5975462857168217 4.5567559627816081 0.16366182640194882
leaf_count=12 12 21 23 7 59 30 47 28 1619 226 69 12
internal_value=0.0022106 0.0295134 -0.0247051 0.0239505 -0.0370804 -0.0758535 0.071533 0.031582 -0.0852621 -0.0863687 0.0899828 0
internal_weight=19.5662 15.2514 6.64514 3.44161 1.72781 3.20352 8.60629 3.31844 4.31481 2.93451 5.28785 0.336968
internal_count=2165 534 378 87 66 291 156 75 1631 268 81 42
is_linear=0
shrinkage=0.1


Tree=37
num_leaves=11
num_cat=0
split_feature=16 8 7 15 6 8 16 2 8 15
split_gain=4.34121 3.24686 1.80227 1.24107 0.402445 0.378219 0.927965 0.352337 0.223674 0.12147
threshold=-0.74719741699545861 -1.0039252148106181 -1.177921907181724 -1.5296698763594081 -0.91808368783499628 -1.7253205052242568 -0.86239912580479172 2.5519272999232565 -2.6264400406264805 -1.5609805691379164
decision_type=2 2 2 2 2 2 2 2 2 2
left_child=1 5 3 -3 -4 -1 9 -5 -2 -7
right_child=8 2 4 7 -6 6 -8 -9 -10 -11
leaf_value=0.092769696534630922 0 0.066307777538436238 0 -0.058235439198536069 -0.093738208506816689 0.077439997110061609 -0.027847135285821931 0.02372494434446501 -0.089274150263805724 0.013576850663412283
leaf_weight=3.9362367587164044 0.26154313888400915 2.069385258480906 0.50501330615952644 1.267266515525989 2.2376160814892536 2.0553200505673885 1.117888986133037 0.22486661444418121 3.7227231865981576 1.1075524408370259
leaf_count=64 12 23 36 179 133 42 28 7 1619 22
internal_value=0.00213888 0.0283599 -0.0235454 0.020842 -0.0785956 0.0683956 0.0365331 -0.0380096 -0.0837033 0.0627129
internal_weight=18.5054 14.5211 6.30415 3.56152 2.74263 8.217 4.28076 1.49213 3.98427 3.16287
internal_count=2165 534 378 209 169 156 92 186 1631 64
is_linear=0
shrinkage=0.1


Tree=38
num_leaves=12
num_cat=0
split_feature=16 8 7 15 8 7 6 3 8 8 15
split_gain=3.89236 3.03367 1.58859 1.06244 0.583911 0.432055 0.378779 0.316315 0.18726 0.0732166 0.0104255
threshold=-0.77919365338585933 -1.0039252148106181 -1.177921907181724 -1.5296698763594081 -2.4900693707120527 0.30683511789365547 -0.91808368783499628 -1.0613492072908077 -1.4265855676944079 -1.2478065246704577 -1.4024864615113928
decision_type=2 2 2 2 2 2 2 2 2 2 2
left_child=1 5 3 -3 -2 8 -4 -5 -1 -10 -9
right_child=4 2 6 7 -6 -7 -8 10 9 -11 -12
leaf_value=0.09518617419393155 0.0066903050355500955 0.062351648947404081 0 0.021796275796138725 -0.089007911215773561 0.0027471620191955618 -0.091041039110309196 0 0 0.047346874469138912 -0.060459345788284262
leaf_weight=4.1378850685432544 0.45093650650233108 2.0152376443147664 0.50242002727463875 0.23046130547300014 3.6843448491999862 1.1612859368324278 2.0604766278993356 0.23092645779252063 0.95906202122569117 1.1738973306491978 0.9603588813915841
leaf_count=77 17 23 35 6 1646 12 118 7 22 33 169
internal_value=0.00203152 0.0289105 -0.0219111 0.0199813 -0.076819 0.069994 -0.0754467 -0.0354695 0.0798479 0.0338688 -0.0556291
internal_weight=17.5673 13.432 5.99988 3.43698 4.13528 7.43213 2.5629 1.42175 6.27084 2.13296 1.19129
internal_count=2165 502 358 205 1663 144 153 182 132 55 176
is_linear=0
shrinkage=0.1


Tree=39
num_leaves=13
num_cat=0
split_feature=8 7 8 11 8 14 2 6 9 9 14 14
split_gain=3.53868 1.38465 1.21325 1.17069 0.589448 0.645097 0.391769 0.261227 0.155869 0.0312467 0.00879821 0.00385985
threshold=-0.38101006792501235 -0.35011083848926761 -1.7695543424115538 2.502812366757611 -1.1166594137876669 -0.066053944679040813 -0.3976223842590601 0.80141073846220434 -0.56777751645616059 -1.878053361296764 0.67113380283903235 1.2489141408115179
decision_type=2 2 2 2 2 2 2 2 2 2 2 2
left_child=1 4 6 -2 -1 7 -3 -6 -7 -4 -10 -12
right_child=3 2 9 -5 5 8 -8 -9 10 -11 11 -13
leaf_value=0.076466873390307485 -0.090717462595468007 -0.01009045042593616 -0.0013827131698831755 0.038316715885636565 -0.05045467473389266 0.065862234765255642 0.053502462588505155 0.010963853098196585 0.0099599182154221783 -0.075051356837064487 -0.0085063817349510257 0
leaf_weight=4.4707684540189803 3.7148294610669828 1.1557170911692085 0.37600984529126336 0.43533768760971714 0.94256779982242755 1.302057887194678 1.5878577018156637 0.65397745370864868 0.30180785327683946 1.4510599662317005 0.15011419868096709 0.20252570346929133
leaf_count=137 1432 36 5 36 39 26 45 37 15 315 19 23
internal_value=0.00201775 0.0291203 -0.0123539 -0.0723672 0.0532575 0.0157556 0.0262052 -0.0239118 0.0504743 -0.0677423 0 -0.00314674
internal_weight=16.7446 12.5945 4.57064 4.15017 8.02382 3.55305 2.74357 1.59655 1.95651 1.82707 0.654448 0.35264
internal_count=2165 697 401 1468 296 159 81 76 83 320 57 42
is_linear=0
shrinkage=0.1


Tree=40
num_leaves=14
num_cat=0
split_feature=15 7 11 2 15 6 3 12 2 15 15 10 5
split_gain=3.22139 1.40611 0.813908 0.520206 0.488674 0.671761 0.665082 0.288992 0.276124 0.146308 0.0451979 0.0387336 0.0050567
threshold=-0.83382182996993637 -1.0157118517681656 -0.4975004252988654 -0.35457264763637475 -1.7578042695253928 0.96402231704388419 -0.85998115208934423 -0.69242072587729286 -0.85090523467646695 -1.3692417467745479 -1.0856376450542427 -0.65775924359319216 -0.9692876383747947
decision_type=2 2 2 2 2 2 2 2 2 2 2 2 2
left_child=1 3 7 8 -4 6 -6 -3 -1 -5 -11 -9 -8
right_child=-2 2 4 9 5 -7 12 11 -10 10 -12 -13 -14
leaf_value=0.042193114837318052 -0.083177963861505444 -0.001756506849042358 0.017255502682050002 0.09820126684456057 0.011714204617022297 0.015158663293313841 -0.0068601929924907434 0.0021506332376857867 -0.01765074438088576 0 0.032607688558676858 0.065189610333297204 -0.089620073008656598
leaf_weight=0.92075505224056542 2.9805378010496488 0.78197315626312081 1.5066015981137741 2.413821310736239 0.59632358583621581 1.0947174406610427 0.3702051409054542 0.50545121973846119 0.98954733088612534 0.49254023307003081 0.50819954404141687 1.4005690496414887 2.0512319004628865
leaf_count=21 1756 39 29 52 22 39 21 21 27 26 24 51 77
internal_value=0.00243288 0.0241394 -0.00104032 0.0618553 -0.0233646 -0.0406712 -0.0630426 0.0388357 0.0098139 0.0834434 0.0203256 0.0565497 -0.0837298
internal_weight=16.6125 13.6319 8.30707 5.32486 5.61908 4.11248 3.01776 2.68799 1.9103 3.41456 1.00074 1.90602 2.42144
internal_count=2205 449 299 150 188 159 120 111 48 102 50 72 98
is_linear=0
shrinkage=0.1


Tree=41
num_leaves=13
num_cat=0
split_feature=15 9 16 15 9 15 10 15 9 9 7 2
split_gain=2.90022 1.47562 0.848921 0.456686 0.413381 1.7754 0.462954 0.504261 0.773811 0.391078 0.174407 0.0433437
threshold=-0.83382182996993637 -1.6019090178728219 -0.77919365338585933 -1.8962317962680098 -1.2383109784025079 -1.8126753670882334 -0.45062047992506965 -1.6369669093685546 -0.6527917448025814 -0.32821213634859631 -0.92017410626588336 -0.22672976019589378
decision_type=2 2 2 2 2 2 2 2 2 2 2 2
left_child=1 3 4 -1 5 -3 -6 -8 -9 -4 11 -10
right_child=-2 2 9 -5 6 -7 7 8 10 -11 -12 -13
leaf_value=0.0043561052001049221 -0.081888754335353045 0.075768405738650707 -0.059524724403772128 -0.076507295020444482 0.084215059655153288 -0.070614756996023709 0.068180472087518026 -0.06607424495655112 -0.014375892364666361 0.015171562174106493 0.057633498595260672 0.01504993573993125
leaf_weight=0.7290220446884631 2.7447264696238554 1.2659231713041665 0.75317937775980681 1.2115330095402885 3.7978565191151552 1.043071989901361 1.1169126806780676 0.73825354885775407 0.47727725771255602 0.9171786587685371 0.72717233560980288 0.52192361699417233
leaf_count=12 1756 28 83 48 81 45 28 33 20 39 11 21
internal_value=0.00259138 0.0230866 0.037455 -0.0473626 0.0488069 0.00528215 0.0599572 0.0246187 0 -0.0198559 0.0323651 0
internal_weight=16.044 13.2993 11.3587 1.94056 9.68839 2.309 7.3794 3.58154 2.46463 1.67036 1.72637 0.999201
internal_count=2205 449 389 60 267 73 194 113 85 122 52 41
is_linear=0
shrinkage=0.1


Tree=42
num_leaves=12
num_cat=0
split_feature=8 16 11 15 9 1 1 3 11 8 8
split_gain=2.70322 1.35536 0.870084 0.888431 1.11448 0.465974 0.543378 0.431488 0.394733 0.299214 0.16213
threshold=-0.38101006792501235 -0.69611261615356634 -0.4975004252988654 -1.7578042695253928 -0.75453902188534405 -0.42991898178716942 -0.12204001316470574 2.2961588228244447 2.502812366757611 -0.86159004237848535 -2.0915020029464064
decision_type=2 2 2 2 2 2 2 2 2 2 2
left_child=1 2 9 -4 -5 -6 -7 8 -2 -1 -8
right_child=7 -3 3 4 5 6 10 -9 -10 -11 -12
leaf_value=0.08493431659353573 -0.087715802070245874 -0.061879808876514633 0.068395662237321853 -0.060875491151695604 0.064693484229764051 -0.052211237896590761 0.054870091892944874 0.012075783001331723 0.0069565972142345417 0.0031597918486309614 0
leaf_weight=3.1773421741090715 3.0073221817147004 1.038493567961267 1.5575852449983356 1.9413834403967483 1.1895457240752874 0.83778969489503663 0.63355523906648148 0.25417373958043743 0.20670543122105289 0.85239768063183863 0.64143737894482789
leaf_count=69 1401 444 50 38 31 16 7 51 34 31 33
internal_value=0.00225635 0.0258182 0.0374689 0.0120465 -0.00744719 0.0252072 -0.001323 -0.0689542 -0.0788178 0.0721026 0.0317697
internal_weight=15.3377 11.8695 10.831 6.8013 5.24371 3.30233 2.11278 3.4682 3.21403 4.02974 1.27499
internal_count=2205 719 275 175 125 87 56 1486 1435 100 40
is_linear=0
shrinkage=0.1


Tree=43
num_leaves=15
num_cat=0
split_feature=15 0 15 15 5 3 0 1 6 16 6 5 3 1
split_gain=2.39205 0.519068 0.5192 0.506038 0.475101 0.616719 0.34185 0.330858 0.290044 0.24252 0.193655 0.159859 0.10534 0.017861
threshold=-0.83382182996993637 0.13435174922264093 -1.8126753670882334 -1.3692417467745479 -0.20826617792127602 -0.61214975160115781 -1.1911791018305229 -0.76504213177227798 0.62037518792299418 -0.93952691715856684 0.90108328240635849 1.2067022314705238 0.20692687681317953 0.8714526831158641
decision_type=2 2 2 2 2 2 2 2 2 2 2 2 2 2
left_child=1 2 10 8 6 -6 -4 -5 -3 11 -1 -7 -11 -9
right_child=-2 3 4 7 5 9 -8 13 -10 12 -12 -13 -14 -15
leaf_value=0.066275300176820526 -0.07948260797404573 0.089687942566995624 0.02013802508989546 0.038946078040092431 0.048557515945217608 -0.015445036688111084 -0.061199718253751305 -0.043774268923293877 0.0073804834022194281 -0.058447838196131655 0 0.033887454992023287 0 0
leaf_weight=1.0670074727386225 2.3758603961905473 1.825219289865345 0.20032028132118274 0.49917107471264877 1.7921669663628548 0.76301188883371496 1.6358396703144524 0.52894606301560909 0.99221623619087029 0.82168323430232992 0.7587804328650235 0.67847373057156801 0.55789127887692302 0.19339215487707406
leaf_count=40 1756 40 5 13 41 27 100 58 23 29 12 16 24 21
internal_value=0.00229035 0.0213336 0.00475383 0.0488342 -0.0079924 0.00803161 -0.0456346 0 0.0691972 -0.0181371 0.0461168 0.00537125 -0.0429154 -0.0383001
internal_weight=14.69 12.3141 8.27517 4.03894 6.44939 4.61323 1.83616 1.22151 2.81744 2.82106 1.82579 1.44149 1.37957 0.722338
internal_count=2205 449 294 155 242 137 105 92 63 96 52 43 53 79
is_linear=0
shrinkage=0.1


Tree=44
num_leaves=17
num_cat=0
split_feature=16 11 11 1 5 7 5 14 3 6 14 1 2 3 6 3
split_gain=1.96384 0.73392 0.611942 0.433281 0.310792 0.186564 0.222841 0.16529 0.161843 0.191393 0.242123 0.144548 0.0207536 0.0203609 0.0139955 0.00425403
threshold=-0.69611261615356634 -0.41487001227255538 0.43553843609069814 -0.28778130107724059 1.3229573193340898 0.32077645870976418 -1.2001549741238049 -1.0295933476753423 -1.1192117104649852 -0.18604549769635723 -1.3764446458323245 0.27871989200520514 -0.82738427900268952 -0.2109957483985169 -0.8157791478969092 0.64654965177300638
decision_type=2 2 2 2 2 2 2 2 2 2 2 2 2 2 2 2
left_child=1 3 4 15 8 6 -4 -8 -3 14 -11 12 -5 -13 -10 -1
right_child=-2 2 5 11 -6 -7 7 -9 9 10 -12 13 -14 -15 -16 -17
leaf_value=0.073243116145129447 -0.076974567040337505 0.005721107071798918 -0.0074212807710825881 0 0.019550379361083378 -0.0077816695012097956 0 0.064173108924698963 -0.0069639679053280883 0 -0.065888450556414291 0 -0.02650348770971285 0.0319549762393097 0.010946829300288924 0.011450122033571744
leaf_weight=2.5070256286999215 2.0540047476533809 0.26779076736420426 0.30342417827341783 0.26297750184312463 0.66754256386775512 0.42956469696946431 0.40456274233292866 1.6344158465508365 0.41994522197637707 0.44356920418795276 2.1660372000187613 0.55833896540570971 0.50363381521310646 0.63875541230663668 0.29561248712707344 0.63749398593790818
leaf_count=99 1612 12 20 23 27 12 25 78 34 26 88 34 35 36 19 25
internal_value=0.0023242 0.0190454 -0.00103112 0.0460954 -0.0250361 0.0309958 0.0417432 0.0530187 -0.0371395 -0.0435021 -0.0542531 0.00212901 -0.0198177 0.0237739 0 0.0667491
internal_weight=14.1947 12.1407 7.03246 5.10823 4.2605 2.77197 2.3424 2.03898 3.59295 3.32516 2.60961 1.96371 0.766611 1.19709 0.715558 3.14452
internal_count=2205 593 341 252 206 135 123 103 179 167 114 128 58 70 53 124
is_linear=0
shrinkage=0.1


Tree=45
num_leaves=13
num_cat=0
split_feature=8 7 11 8 8 9 1 12 8 5 5 12
split_gain=2.38716 1.34849 0.781725 0.700502 0.495618 0.627772 0.27633 0.190823 0.153547 0.00862151 0.0266729 0.00418842
threshold=-0.38101006792501235 -0.35011083848926761 2.502812366757611 -1.7695543424115538 -1.232564724855306 -0.61994608555072783 -0.1633992938965636 -0.73997643500787558 -1.1414621376465055 -0.50726305393945836 -0.51895620907785533 -0.61527486644246132
decision_type=2 2 2 2 2 2 2 2 2 2 2 2
left_child=1 4 -2 6 -1 -6 -3 -7 -9 10 -5 -10
right_child=2 3 -4 9 5 7 -8 8 11 -11 -12 -13
leaf_value=0.081020142879316623 -0.084169917819436876 -0.0091932782664071542 0.028105034036148314 -0.018599156811189781 0.051537219424282826 0.016640901015953082 0.045946723717942096 0.0029141073644771511 0 -0.068924658296436875 0.0049435888251061167 -0.056632335970921543
leaf_weight=3.3334658163366839 2.6203546564211151 1.4111113420221957 0.36336735321674485 0.22864975879201666 2.1487341518513863 0.29970284993760321 1.0224904197966682 0.19822830404154967 0.17005765438079845 1.0815238683135224 0.11333735287189517 0.80732888414058745
leaf_count=112 1462 38 40 109 43 19 35 19 12 219 1 84
internal_value=0.00619725 0.0288994 -0.0655549 -0.0154098 0.0541906 0.0202567 0.0144478 -0.0217528 -0.0395535 -0.0621396 -0.000617805 -0.0530066
internal_weight=13.7984 10.8146 2.98372 3.85711 6.95752 3.62405 2.4336 1.47532 1.17561 1.42351 0.341987 0.977387
internal_count=2193 691 1502 402 289 177 73 134 115 329 110 96
is_linear=0
shrinkage=0.1


Tree=46
num_leaves=16
num_cat=0
split_feature=8 16 11 6 8 16 11 16 15 5 5 8 14 7 15
split_gain=2.08136 1.32442 0.736773 0.731073 0.675751 1.19056 0.331923 0.154381 0.112385 0.0636435 0.0521056 0.0501874 0.0339063 0.0109277 0.00115114
threshold=-0.38101006792501235 -0.84401439628985753 2.502812366757611 0.96402231704388419 -1.1166594137876669 -1.0213784470096312 -0.75661911909081792 -0.77919365338585933 -1.6369669093685546 0.92307074113006937 1.5282156789535533 -2.4900693707120527 -0.967112051471544 -1.373056428865896 -1.4024864615113928
decision_type=2 2 2 2 2 2 2 2 2 2 2 2 2 2 2
left_child=1 4 -2 6 9 13 11 -5 -8 -1 -10 -3 -9 -6 -13
right_child=2 3 -4 7 5 -7 8 12 10 -11 -12 14 -14 -15 -16
leaf_value=0.090130009750406637 -0.08260593442714409 0.024430503198523679 0.027052260622639313 0.051721191817521467 0.011698765357224267 -0.056923395117596344 0 -0.020319827962135106 -0.076495552423986035 0.026723368142796855 0 0 0.0070359243494223971 0.063865941505013887 -0.0093775489034965478
leaf_weight=2.621978744398803 2.422633801295889 0.28237599087879062 0.35942101781256486 0.70970155880786479 0.88925203378312323 1.0766631108708677 0.056294724345207547 0.24801272375043482 1.5906340386718492 1.3212650800123809 0.12415990745648731 0.043137652799487114 0.12513347133062758 1.2402967642992737 0.1604485482675958
leaf_count=70 1462 5 40 14 25 43 1 95 300 30 23 2 2 20 61
internal_value=0.00578074 0.0270977 -0.063429 -0.0208123 0.0506838 0.0101584 -0.0513894 0.0327044 -0.0682813 0.0765329 -0.0727205 0.0034381 -0.000917484 0.0522516 -0.00813547
internal_weight=13.2714 10.4894 2.78205 3.3399 7.14946 3.20621 2.25705 1.08285 1.77109 3.94324 1.71479 0.485962 0.373146 2.12955 0.203586
internal_count=2193 691 1502 503 188 88 392 111 324 100 323 68 97 45 63
is_linear=0
shrinkage=0.1


Tree=47
num_leaves=15
num_cat=0
split_feature=8 16 12 11 14 11 16 8 8 2 5 8 10 3
split_gain=1.84049 1.1561 0.791479 0.694017 0.649785 0.30212 0.224725 0.147118 0.127644 0.0570031 0.0481583 0.0472593 0.0243281 0.0127273
threshold=-0.38101006792501235 -0.84401439628985753 0.063522195520745423 2.502812366757611 -0.9552108521946302 -0.75661911909081792 -1.0666899008076471 -1.6934157593221377 -1.1166594137876669 1.7297148113441672 1.5282156789535533 -2.4900693707120527 -0.84425068303800133 -1.2119056277284785
decision_type=2 2 2 2 2 2 2 2 2 2 2 2 2 2
left_child=1 2 8 -2 7 11 -4 -3 -1 10 12 -6 -7 -9
right_child=3 4 6 -5 5 9 -8 13 -10 -11 -12 -13 -14 -15
leaf_value=0.088815504741848655 -0.081012471856196727 0.048119942973818795 0.029179079478293898 0.026040302803453243 0.023693368125647821 0 -0.021762879669116494 0 0.027906873965028681 0 0 -0.0079391939260758868 -0.076786174806696167 -0.014203445560904988
leaf_weight=2.6448598518036306 2.2423931887024096 0.78115877462550998 1.0953712901100519 0.35567532095592458 0.2778354100883007 0.13653365609934565 1.3768634306034071 0.080638843588531017 1.773200105410069 0.11118515575071786 0.12270200089551497 0.20211562857730347 1.3120657471008577 0.19553314772201724
leaf_count=72 1462 22 24 40 5 12 36 5 56 28 22 63 261 85
internal_value=0.00581026 0.0260723 0.0485036 -0.0612917 -0.0193095 -0.0489381 0 0.0311223 0.0717255 -0.0655903 -0.0693414 0.00291373 -0.0731993 -0.00409914
internal_weight=12.7081 10.1101 6.89029 2.59807 3.21977 2.16244 2.47223 1.05733 4.41806 1.68249 1.5713 0.479951 1.4486 0.276172
internal_count=2193 691 188 1502 503 391 60 112 128 323 295 68 273 90
is_linear=0
shrinkage=0.1


Tree=48
num_leaves=8
num_cat=0
split_feature=15 8 9 15 8 12 0
split_gain=1.65797 1.52137 0.846801 1.4759 0.561246 0.274161 0.209291
threshold=-1.2511159863435266 -1.9266814908405061 -0.57609594617661808 -1.6091150672231291 -0.30680143819649697 0.69386862634644364 -1.0465751161326493
decision_type=2 2 2 2 2 2 2
left_child=2 -2 3 4 5 -1 -5
right_child=1 -3 -4 6 -6 -7 -8
leaf_value=0.071773877823356327 0.03636400719544549 -0.082479597962495502 0.0745525522477231 0 -0.016838895904811458 4.0859434027724585e-05 -0.075998564499426213
leaf_weight=2.3794794883579016 1.1405732203274959 2.6793993252213131 2.4862391282804293 0.34686527308076609 0.94481150154024396 1.0051680495962498 1.2704464262351391
leaf_count=57 49 1921 62 5 16 18 65
internal_value=0.00558568 -0.0445785 0.0306517 0.00638772 0.037769 0.0557922 -0.0619766
internal_weight=12.253 3.81997 8.43301 5.94677 4.32946 3.38465 1.61731
internal_count=2193 1970 223 161 91 75 70
is_linear=0
shrinkage=0.1


Tree=49
num_leaves=10
num_cat=0
split_feature=15 8 7 15 9 15 9 2 12
split_gain=1.45052 0.721127 0.815199 0.64315 0.505718 0.36116 0.549023 0.295377 0.0358647
threshold=-0.83382182996993637 -1.1166594137876669 -0.33163687182884982 -1.6369669093685546 -1.4857223875320764 -1.5296698763594081 -0.2554965217619326 2.5519272999232565 0.49432825670036556
decision_type=2 2 2 2 2 2 2 2 2
left_child=1 2 8 4 -3 -4 -7 -5 -1
right_child=-2 3 5 7 -6 6 -8 -9 -10
leaf_value=0.082198660788899452 -0.070973428085158316 -0.018667266335362264 0.03501376050449679 -0.065541923087947776 0.053414370546014993 -0.067521634050536378 0.024553241066913936 0.013342187358577865 0.012206965478040344
leaf_weight=2.4259356358088557 1.5492422378738417 1.2926351018249991 1.2017570193856957 1.4612060381914469 1.4541773404926059 0.8877005759277381 0.64249863964505471 0.1810670481645501 0.64707704307511438
leaf_count=80 1747 19 20 214 27 41 17 7 21
internal_value=0.00526566 0.0205638 0.0425771 -0.0078822 0.0187623 0 -0.02741 -0.0510926 0.0740301
internal_weight=11.7433 10.1941 5.80497 4.38909 2.74681 2.73196 1.5302 1.64227 3.07301
internal_count=2193 446 179 267 46 78 58 221 101
is_linear=0
shrinkage=0.1


Tree=50
num_leaves=17
num_cat=0
split_feature=15 7 15 11 2 2 14 12 15 19 16 12 2 13 12 2
split_gain=1.84382 0.385618 0.337731 0.322127 0.270237 0.220584 0.131561 0.118009 0.104722 0.0544235 0.0139415 0.0132414 0.0110087 0.00833577 0.000218523 0.000205401
threshold=-1.5296698763594081 -0.99492031919309853 -1.6972553566268187 -0.75661911909081792 2.4706055130456472 -0.38501826622671459 -1.545006824052461 -0.820673525547572 -0.83382182996993637 2.5000000000000004 -0.88371545082647762 -0.90512157145059735 -1.1783572243972282 -0.9483898043223008 -0.89774615799646329 -0.44491826139166218
decision_type=2 2 2 2 2 2 2 2 2 2 2 2 2 2 2 2
left_child=1 9 5 8 6 -3 15 11 10 -1 -2 13 -9 -8 -13 -5
right_child=3 2 -4 4 -6 -7 7 12 -10 -11 -12 14 -14 -15 -16 -17
leaf_value=0.077552789220559457 0 0.061445479549933159 -0.021883040977352781 0.0018053628912436431 0.011272481459575753 0 0 0 -0.025208663744327599 0.011745522460967238 0.023588292043318689 0.0049857058183165213 -0.065109696073895842 -0.01701450824600453 0 0
leaf_weight=1.7210993506014349 0.3457011649152264 0.83603447675704945 1.2661910497117785 0.13019202830037102 0.2566054617636836 1.0367937134578826 0.10560911818174645 0.058503425621893146 0.3009463931666686 0.77255951240658749 0.71791104361182057 0.1146649033180438 3.6117356824106555 0.20011286705266684 0.1111758569022635 0.073950251331551864
leaf_count=44 25 22 23 25 51 25 8 40 324 21 36 2 1398 44 49 60
internal_value=0 0.0392353 0.00918323 -0.0371279 -0.0486498 0.0345864 -0.0549713 -0.0585906 0 0.0658723 0.0185534 0 -0.0644469 -0.0121693 0.00424727 0
internal_weight=11.6598 5.63268 3.13902 6.02711 4.66255 1.87283 4.40594 4.2018 1.36456 2.49366 1.06361 0.531563 3.67024 0.305722 0.225841 0.204142
internal_count=2197 135 70 2062 1677 47 1626 1541 385 65 61 103 1438 52 51 85
is_linear=0
shrinkage=0.1


Tree=51
num_leaves=13
num_cat=0
split_feature=15 8 16 16 8 8 19 5 11 13 12 12
split_gain=1.6241 1.28162 0.62404 0.279666 0.266988 0.208632 0.151645 0.134623 0.109314 0.0121956 0.00748209 0.00978622
threshold=-1.6972553566268187 -1.7695543424115538 -1.1156317204576469 -0.73948826754525554 -0.37151556597621443 -2.4900693707120527 1.5000000000000002 1.6962685449508446 -0.9393209597679274 -1.3050793548662927 -0.28066390239806283 -1.0151469807430984
decision_type=2 2 2 2 2 2 2 2 2 2 2 2
left_child=4 3 6 -2 9 -5 -3 8 10 -1 11 -4
right_child=1 2 7 5 -6 -7 -8 -9 -10 -11 -12 -13
leaf_value=0.0056733379093509275 0.049666385786728259 0.035501441980832965 0 0.02224663219250329 0 -0.041617010356124806 -0.016416515543497268 0 -0.073974380311001467 0.075376369958938844 0.0013180254836328189 -0.015341390412470443
leaf_weight=0.44313550833612758 1.6089127035811546 0.57772884401492752 0.055690235341899097 0.46293468517251324 0.9875308796763419 0.45857863879064076 0.46173059544526041 0.11253647034754966 3.8716393013019119 1.9674163125455377 0.11894447077065651 0.22913478844566271
leaf_count=11 32 23 14 17 9 39 44 32 1783 72 15 106
internal_value=0 -0.0242741 -0.0508785 0.0284683 0.0537395 -0.00595923 0.00810198 -0.0662958 -0.069142 0.0691744 0 -0.00969353
internal_weight=11.3559 7.95783 5.4274 2.53043 3.39808 0.921513 1.03946 4.38795 4.27541 2.41055 0.403769 0.284825
internal_count=2197 2105 2017 88 92 56 67 1950 1918 83 135 120
is_linear=0
shrinkage=0.1


Tree=52
num_leaves=30
num_cat=0
split_feature=7 19 9 12 10 14 11 17 5 3 6 10 11 10 3 10 1 6 4 1 5 9 17 12 1 10 5 11 1
split_gain=0.572747 0.483538 0.308162 0.167969 0.163392 0.13803 0.160778 0.0824356 0.356506 0.12919 0.0831586 0.0817794 0.0643416 0.0638528 0.0491249 0.048874 0.0411463 0.0431068 0.0402918 0.0374379 0.0313231 0.03091 0.0195003 0.0143654 0.0134721 0.0125157 0.00445741 0.00285017 0.000514734
threshold=-1.0070337326224337 1.5000000000000002 -0.6527917448025814 1.8208876725755785 0.33974050587442389 -0.88403252575001023 -0.75661911909081792 1.5000000000000002 -0.16458596203238834 -0.93365858467423724 -1.3148284752682715 -0.037965388899491324 1.3400584806249458 0.40863407744683738 -0.47981778472965247 -0.80051455891415957 -0.6420095634780022 -1.2707711510220034 -1.1054793288884943 1.0470043088054395 -1.1028408648315262 -0.54344402987274365 2.5000000000000004 -0.67683819090768726 -0.74894238049347017 2.3529476000010789 1.0556575911290824 2.502812366757611 0.92409364277698902
decision_type=2 2 2 2 2 2 2 2 2 2 2 2 2 2 2 2 2 2 2 2 2 2 2 2 2 2 2 2 2
left_child=1 11 3 7 16 13 21 9 14 -2 -10 -1 15 20 -9 -8 24 -18 -17 -11 -4 -7 26 -23 -3 -20 -22 -14 -13
right_child=2 4 5 -5 -6 6 12 8 10 19 -12 28 27 -15 -16 18 17 -19 25 -21 22 23 -24 -25 -26 -27 -28 -29 -30
leaf_value=0.061965558206970528 0 -0.0088469814465737089 0 0.0076483924875384527 0.023546459845970161 0 0 0 0 -0.070430708770740494 -0.054482474894765036 0 0.0063292213467552282 0 0.034804768322844161 0 0 -0.038995896833146804 -0.04829756715853744 0 0.045478833609766983 0 0 0.029364470601458782 0.010358132512915532 0 0 0 0.0027030182867750856
leaf_weight=1.9180128613370473 0.28258780745090906 0.25248144322540611 0.035139503714162856 0.2810916191083378 0.51665939087979484 0.062996542255859822 0.14043758175103016 0.13109389506280422 0.073886357189622109 1.3082394803059294 0.77826458454364822 0.15235849161399517 0.21149178902851407 0.1247536662267521 0.58787841419689391 0.12827143678441666 0.11391404946334627 0.7979565627756533 0.81858670688234203 0.19975188793614496 0.67911038588499673 0.11833588941954076 0.10814098961418495 0.45699429430533234 0.20672389160608839 0.029022197355516255 0.14617176918545738 0.084719023667275906 0.20450576924486086
leaf_count=104 34 40 48 33 50 12 60 50 12 183 121 26 65 60 71 76 15 107 540 26 107 89 58 79 12 21 39 35 24
internal_value=0 0.0281408 -0.0167118 -0.0349808 -0.00505428 0.00360586 -0.00840576 -0.0416636 -0.0104056 -0.0564666 -0.0468095 0.0552377 -0.0272059 0.0279808 0.0260402 -0.0356914 -0.0245885 -0.0330556 -0.0415481 -0.0654261 0.0358362 0.0180881 0.0391693 0.0251752 0 -0.0467926 0.0425037 0 0
internal_weight=10.9496 4.16261 6.78697 3.64279 1.88774 3.14417 2.05086 3.3617 1.57112 1.79058 0.852151 2.27488 1.41253 1.09332 0.718972 1.11632 1.37108 0.911871 0.97588 1.50799 0.968563 0.638327 0.933423 0.57533 0.459205 0.847609 0.825282 0.296211 0.356864
internal_count=2197 378 1819 530 224 1289 977 497 254 243 133 154 797 312 121 697 174 122 637 209 252 180 204 168 52 561 146 100 50
is_linear=0
shrinkage=0.1


Tree=53
num_leaves=10
num_cat=0
split_feature=15 9 15 9 10 15 11 15 9
split_gain=1.4573 0.701633 0.747547 0.580546 0.301373 0.217171 0.083373 0.0467171 0.00715105
threshold=-1.5296698763594081 -0.31687939341146265 -1.1831368226639472 -1.6019090178728219 -0.86246803409483985 -1.6972553566268187 -0.95032015121776692 -1.0436078059160965 1.3979136575165969
decision_type=2 2 2 2 2 2 2 2 2
left_child=3 6 -3 -1 8 -5 -2 -6 -4
right_child=1 2 4 5 7 -7 -8 -9 -10
leaf_value=-0.012568054245840536 0 0.04167825127763769 0 0.075170858695616447 -0.0017215253409441442 0.014498579473391619 -0.079524441772487867 -0.065379071001782432 0.019090686267355536
leaf_weight=1.2572363631334154 0.17250337020959694 1.5105888973921535 0.11044726887485046 2.1679061823524535 0.52034767204895627 1.7548257596790793 1.8024611252476459 1.2045693587861024 0.20907760772388428
leaf_count=28 44 35 59 74 21 33 714 1182 7
internal_value=0 -0.033391 -0.00173247 0.0371755 -0.0396248 0.0549978 -0.0744747 -0.0553727 0.0151023
internal_weight=10.71 5.53 3.55503 5.17997 2.04444 3.92273 1.97496 1.72492 0.319525
internal_count=2197 2062 1304 135 1269 107 758 1203 66
is_linear=0
shrinkage=0.1


Tree=54
num_leaves=9
num_cat=0
split_feature=15 9 15 9 15 9 12 16
split_gain=1.27978 0.824559 1.17872 0.572913 0.583861 0.307847 0.283157 0.205548
threshold=-1.8126753670882334 -1.2383109784025079 -1.4024864615113928 0.47861201505433798 -0.83382182996993637 -0.75453902188534405 -0.42704147040160673 -1.1348589034138408
decision_type=2 2 2 2 2 2 2 2
left_child=6 -2 5 7 -5 -3 -1 -4
right_child=1 2 3 4 -6 -7 -8 -9
leaf_value=0 -0.075890999310297025 0 0 0.044447960523667125 -0.048468529527873845 0.06578085461046132 0.079887712225741883 -0.077181832767932654
leaf_weight=0.74065210297703776 1.4288260022585735 1.2794832261279228 0.28558932273881454 1.0851180402096359 0.65603345874114882 1.6307857837527975 1.5002797665074474 1.7530404494318661
leaf_count=29 237 26 21 23 696 45 44 1076
internal_value=0 -0.0182272 -9.97484e-05 -0.0363197 0.001974 0.0424375 0.0602032 -0.0669119
internal_weight=10.3598 8.11888 6.69005 3.77978 1.74115 2.91027 2.24093 2.03863
internal_count=2197 2124 1887 1816 719 71 73 1097
is_linear=0
shrinkage=0.1


Tree=55
num_leaves=10
num_cat=0
split_feature=15 9 15 7 8 5 16 15 14
split_gain=1.12985 1.09492 1.67166 0.469557 0.400324 0.320391 0.0789352 0.046375 0.0158207
threshold=-1.1831368226639472 -0.6527917448025814 -1.8126753670882334 -0.97993896815265413 -1.9266814908405061 -0.60341751148247447 -0.84401439628985753 -1.3692417467745479 -0.67736362292206242
decision_type=2 2 2 2 2 2 2 2 2
left_child=1 2 5 -4 6 -1 -2 -3 -8
right_child=4 7 3 -5 -6 -7 8 -9 -10
leaf_value=0 0.02947347527191151 0.084508406891500673 0.00035283890726599444 -0.07708307810848973 -0.07187615172428867 0.072469606697535091 0 0.01492094402279725 -0.019162206357462273
leaf_weight=0.60925948061049018 0.29287258163094521 1.7100756587460639 0.79941934184171293 1.8174216920160686 1.5893341907067222 1.5729131922125814 0.12682316801510751 0.77385794464498747 0.23476907482836429
leaf_count=16 4 59 34 69 1881 45 12 22 33
internal_value=0.00444218 0.0245602 -0.00276021 -0.053957 -0.0497887 0.0535197 0.00308647 0.072313 -0.0113807
internal_weight=9.52675 7.28295 4.79901 2.61684 2.2438 2.18217 0.654465 2.48393 0.361592
internal_count=2175 245 164 103 1930 61 49 81 45
is_linear=0
shrinkage=0.1


Tree=56
num_leaves=10
num_cat=0
split_feature=15 9 15 7 8 5 16 15 14
split_gain=1.01034 0.971468 1.46383 0.436125 0.373535 0.297275 0.0738166 0.0419863 0.0152275
threshold=-1.1831368226639472 -0.6527917448025814 -1.8126753670882334 -0.97993896815265413 -1.9266814908405061 -0.60341751148247447 -0.84401439628985753 -1.3692417467745479 -0.67736362292206242
decision_type=2 2 2 2 2 2 2 2 2
left_child=1 2 5 -4 6 -1 -2 -3 -8
right_child=4 7 3 -5 -6 -7 8 -9 -10
leaf_value=0 0.028633647706455174 0.08161870406266708 0.00033113486612296314 -0.074442058372858222 -0.070251709509423721 0.069844206819753715 0 0.014033059082413516 -0.018663238819364335
leaf_weight=0.60925948061049018 0.28631952032446861 1.6161733618937435 0.79941115959081832 1.7167077192571012 1.4806617293506859 1.4918695683591066 0.12682316801510751 0.772259767865762 0.23052718408871475
leaf_count=16 4 59 34 69 1881 45 12 22 33
internal_value=0.00440748 0.0237731 -0.00237228 -0.0512533 -0.0480082 0.0509188 0.0027591 0.0694401 -0.010917
internal_weight=9.13001 7.00568 4.61725 2.51612 2.12433 2.10113 0.64367 2.38843 0.35735
internal_count=2175 245 164 103 1930 61 49 81 45
is_linear=0
shrinkage=0.1


Tree=57
num_leaves=11
num_cat=0
split_feature=15 9 15 7 10 9 6 3 15 9
split_gain=0.903839 0.861978 1.28122 0.404538 0.236128 0.204488 0.0982178 0.061509 0.00834411 0.00353041
threshold=-1.1831368226639472 -0.6527917448025814 -1.8126753670882334 -0.97993896815265413 -0.89179207618369993 -1.6019090178728219 1.5919250135095264 -0.051975357789660261 -1.1450907471149629 1.5632328818788628
decision_type=2 2 2 2 2 2 2 2 2 2
left_child=1 2 5 -4 9 -1 8 -3 -6 -2
right_child=4 7 3 -5 6 -7 -8 -9 -10 -11
leaf_value=0 0 0.078834320060739815 0.00031076496578988139 -0.071824542117332718 0 0.069908389712955724 0 0.010481329011685614 -0.065999288182380253 0.011186427623515585
leaf_weight=0.89761567488312755 0.10124867310514707 1.5780870905146005 0.79940352204721454 1.624390424811281 0.12902118236524973 1.1293290997855363 0.12828218706999894 0.72370669688098122 1.5115219221333971 0.1448067111778073
leaf_count=17 75 45 34 69 17 44 68 36 1767 3
internal_value=0.00436314 0.0229932 -0.00199802 -0.0486284 -0.0462543 0.0483936 -0.0582429 0.0666183 -0.063674 0.00779953
internal_weight=8.76741 6.75253 4.45074 2.42379 2.01488 2.02694 1.76883 2.30179 1.64054 0.246055
internal_count=2175 245 164 103 1930 61 1852 81 1784 78
is_linear=0
shrinkage=0.1


Tree=58
num_leaves=10
num_cat=0
split_feature=8 16 7 15 9 15 16 2 2
split_gain=0.828298 0.972715 0.851661 0.666758 0.380014 0.355686 0.3255 0.173073 0.0369939
threshold=-1.1166594137876669 -0.87455536588687044 -1.0070337326224337 -1.6369669093685546 -0.6527917448025814 -2.0618067865260072 -0.68494399971858788 2.5519272999232565 2.4706055130456472
decision_type=2 2 2 2 2 2 2 2 2
left_child=1 -1 3 -2 -3 -4 -6 -5 -7
right_child=2 4 5 7 6 8 -8 -9 -10
leaf_value=0.07634385300228759 0.053767487706078747 -0.0549216039598764 0.013063696680934614 -0.053101462260543054 0.04408806563899445 -0.079023558669876606 -0.030789755738163057 0.0086615175728988712 0
leaf_weight=2.1167116416618228 1.374510237015784 0.68804785143584046 0.15990736521780524 0.74641495922696766 0.99941264372318994 1.8113148733391424 0.35875687608495321 0.14887559623457491 0.052519294345984124
leaf_count=93 30 37 3 285 33 1479 166 9 40
internal_value=0.00454405 0.0352108 -0.023675 0.0145214 -0.0100479 -0.0648674 0.0159648 -0.0362406 -0.0771329
internal_weight=8.45647 4.16293 4.29354 2.2698 2.04622 2.02374 1.35817 0.895291 1.86383
internal_count=2175 329 1846 324 236 1522 199 294 1519
is_linear=0
shrinkage=0.1


Tree=59
num_leaves=19
num_cat=0
split_feature=16 9 7 7 9 18 5 16 1 1 5 7 6 3 0 6 1 5
split_gain=0.68884 0.408714 0.534574 0.350559 0.151529 0.178878 0.135341 0.0825637 0.0721717 0.0543146 0.0558626 0.0488005 0.0193672 0.00960496 0.00667596 0.00582301 0.000571393 1.22383e-05
threshold=-0.77919365338585933 -0.6527917448025814 -1.0070337326224337 -1.0600298576195473 -2.1055465033666518 1.5000000000000002 0.0956592180312721 -0.99773113667919833 1.6806315054995307 -1.2389306138657237 -1.6745491772179413 -1.5193373579543528 0.75643793734848142 -0.35715217535108817 -0.60153161248144005 -0.29498724492349249 1.7429619549216651 -1.0573245336729731
decision_type=2 2 2 2 2 2 2 2 2 2 2 2 2 2 2 2 2 2
left_child=1 2 6 7 -4 12 17 11 9 -2 -11 -3 15 -13 -7 -6 -10 -1
right_child=8 3 4 -5 5 14 -8 -9 16 10 -12 13 -14 -15 -16 -17 -18 -19
leaf_value=-0.00041523015561073772 0 0 0.0083354327537548678 0.07228915273624606 0 0 0.051803552138358244 -0.023934910778822829 0.0030412448763858691 0 -0.062866197130432275 0.03305746834159963 -0.012177093149868923 0 -0.0624269398342161 0.01248941499842357 -0.00041361607941915328 0
leaf_weight=0.20981216835207295 0.039164364861789758 0.20955623377813026 0.30726940653403279 1.4498128292325416 0.22883408566121943 0.30896336340811126 1.0784689349238759 0.28148633686942071 0.10669189566397097 0.051213709666626195 1.0843753603403459 0.38030444690957665 0.3228086682211142 0.3492642097407952 0.98260504144127436 0.33273330741212781 0.099312917067436501 0.26647048961604014
leaf_count=19 6 34 12 50 27 30 45 112 4 26 1555 18 14 39 41 20 96 27
internal_value=0.00412661 0.0189789 0 0.0459141 -0.0287345 -0.0382856 0.0374551 0 -0.0485778 -0.0555068 -0.0590497 0.0162055 0 0.026538 -0.0564605 0.00821632 0 0
internal_weight=8.08915 6.70839 4.03797 2.67042 2.48321 2.17594 1.55475 1.22061 1.38076 1.17475 1.13559 0.939125 0.884376 0.729569 1.29157 0.561567 0.206005 0.476283
internal_count=2175 488 235 253 144 132 91 203 1687 1587 1581 91 61 57 71 47 100 46
is_linear=0
shrinkage=0.1


Tree=60
num_leaves=14
num_cat=0
split_feature=15 15 12 0 6 10 5 12 6 1 6 12 12
split_gain=0.650503 0.247125 0.321935 0.187432 0.283519 0.169806 0.217546 0.103829 0.0889826 0.0549213 0.0213184 0.0163189 0.0143576
threshold=-0.83382182996993637 -1.8126753670882334 -0.482891423702763 0.32733081826659965 0.65813860870550955 1.7249765700543855 0.98491883442406969 -0.19866881825785657 1.1138172194811953 -0.77617704067686766 0.33325875536744526 0.27811892470012706 -0.27494683016649529
decision_type=2 2 2 2 2 2 2 2 2 2 2 2 2
left_child=1 7 3 4 -3 6 8 -1 12 -5 -11 -8 -4
right_child=-2 2 5 9 -6 -7 11 -9 -10 10 -12 -13 -14
leaf_value=0 -0.057178826583496656 0.069995182399377867 0 0.013477984134534524 0 0.019908175534699053 0.014179150812533771 0.063287181951653879 0 -0.026913987100840753 0 0 -0.054903046982807173
leaf_weight=0.47896483191289008 0.89402523107128207 0.98696812725393124 0.27830573596293118 0.29561951907817285 0.81231652345741168 0.4627049020200501 0.43054930955986481 0.87663783039897658 0.26787327835336316 0.35313963791122638 0.2493087041657418 0.55364002540591173 1.2456391621381049
leaf_count=29 1744 30 39 12 23 23 26 30 30 38 27 21 100
internal_value=0.00447285 0.0164995 0.00426161 0.0283829 0.0439928 -0.0142622 -0.0251794 0.049111 -0.0429542 -0.000287364 -0.019162 0.00401259 -0.0502883
internal_weight=8.18569 7.29167 5.93606 2.69735 1.79928 3.23871 2.77601 1.3556 1.79182 0.898068 0.602448 0.984189 1.52394
internal_count=2172 428 369 130 53 239 216 59 169 77 65 47 139
is_linear=0
shrinkage=0.1


Tree=61
num_leaves=17
num_cat=0
split_feature=8 3 12 1 17 1 14 1 12 9 19 3 8 9 9 10
split_gain=0.704349 0.249701 0.229955 0.180528 0.178517 0.187051 0.13675 0.134628 0.175753 0.13467 0.0730756 0.0608057 0.0505489 0.0459875 0.0396479 0.00118464
threshold=-0.79210022159514459 1.3369802284151631 0.041995451708858718 -0.19413647058774905 2.5000000000000004 -1.2029031176032816 -1.2106288982145521 -0.27253837387747865 -0.89774615799646329 -0.62771166020226443 1.0000000180025095e-35 -1.161040474405836 -1.7253205052242568 -1.1435835631757432 -1.413878786517262 3.0989280292865344
decision_type=2 2 2 2 2 2 2 2 2 2 2 2 2 2 2 2
left_child=2 4 7 6 5 -2 -4 8 -1 13 -6 -7 -11 -9 -3 -16
right_child=1 14 3 -5 10 11 -8 9 -10 12 -12 -13 -14 -15 15 -17
leaf_value=0 0.0014746761709197916 0.024944781019901854 0.0097427582084331985 0.027023561606334151 0.021398734575402523 0 -0.039033725027074993 0 0.065153101443602396 0.039138727492139133 -0.021446251773429278 -0.072505053215224768 0 -0.029929131040342782 -0.0043504412108591644 0
leaf_weight=0.24575950010330405 0.11569270017207633 0.33564109084545635 0.25027171324472863 0.76333924199570891 0.33350290663656768 0.098010114219505673 0.93012694985372935 0.29636166201089509 1.6764376895444 0.55414711107732706 0.25898879909073003 1.3939043619611764 0.25674936515861257 0.33626431584707439 0.12592391477664922 0.029194770904723555
leaf_count=13 12 14 18 71 86 56 70 26 131 31 335 1066 74 18 149 2
internal_value=0.00439346 -0.0322578 0.0258675 0 -0.0459211 -0.0595699 -0.0229192 0.0400054 0.0555755 0.00516319 0 -0.0685059 0.0290897 -0.0159795 0.0111644 0
internal_weight=8.00032 2.69086 5.30946 1.94374 2.2001 1.60761 1.1804 3.36572 1.9222 1.44352 0.592492 1.49191 0.810896 0.632626 0.49076 0.155119
internal_count=2172 1720 452 159 1555 1134 88 293 144 149 421 1122 105 44 165 151
is_linear=0
shrinkage=0.1


Tree=62
num_leaves=12
num_cat=0
split_feature=8 16 16 8 3 8 6 11 1 15 1
split_gain=0.613339 0.510753 0.503851 0.345248 0.343534 0.177742 0.0904757 0.0637248 0.0590317 0.0406134 0.00369232
threshold=-0.79210022159514459 -1.0977355707786896 -0.85355459658333332 -0.14092813765617088 -0.88007054688187625 -1.1166594137876669 1.2059370792688464 -0.75661911909081792 -0.88053391943199355 -1.6369669093685546 -0.76982715558406134
decision_type=2 2 2 2 2 2 2 2 2 2 2
left_child=2 3 5 -2 -4 -1 7 -6 -5 -9 -11
right_child=1 -3 4 8 6 -7 -8 9 -10 10 -12
leaf_value=0.060072526552521481 0.04527363799818801 -0.067381382584114843 0.033074390516780794 0 0 0 0 0 -0.040871604322134644 0 -0.058161637662201629
leaf_weight=2.271214564563707 0.74144658376462758 1.2364619860891251 0.57179012696724418 0.16083456017076969 0.2192018762580118 0.91207643318921316 0.22637721520732146 0.029328541830181964 0.45065639278618641 0.15025174157926802 0.82526524888817221
leaf_count=90 14 1651 48 7 44 38 43 1 48 36 152
internal_value=0.00428944 -0.0304596 0.024482 0.00696376 -0.0096551 0.0472497 -0.0357876 -0.0444265 -0.029961 -0.0518138 -0.0548934
internal_weight=7.79491 2.5894 5.20551 1.35294 2.02221 3.18329 1.45042 1.22405 0.611491 1.00485 0.975517
internal_count=2172 1720 452 69 324 128 276 233 55 189 188
is_linear=0
shrinkage=0.1


Tree=63
num_leaves=13
num_cat=0
split_feature=15 11 15 11 15 15 11 2 1 10 1 6
split_gain=0.53583 0.333125 0.410168 0.261731 0.188578 0.245361 0.123094 0.122036 0.0850929 0.0775851 0.0114825 0.00256831
threshold=-0.83382182996993637 -0.41487001227255538 -1.3692417467745479 1.4269819848682512 -1.7578042695253928 -1.2040086824361695 -0.66550892338597245 0.41817580556328521 -0.77617704067686766 0.77768802921547786 0.47816692415032375 1.4013913904704716
decision_type=2 2 2 2 2 2 2 2 2 2 2 2
left_child=1 2 6 4 -3 7 -1 -6 -4 -10 11 -7
right_child=-2 3 8 -5 5 10 -8 -9 9 -11 -12 -13
leaf_value=0.0054327917864326388 -0.053949630432456666 0.011747873168352498 0.014883185610560876 0.032693327839952685 -0.061190077808679834 -0.0061407955234989188 0.076946191538596387 0 -0.037388497611247823 0.00050970656933346954 0.016533084753821811 0.0016237948115723083
leaf_weight=0.75381526804994781 0.79624452593270678 0.72901994129642922 0.28968051308766007 0.83655788900796313 1.2415640635299503 0.13780634923023116 1.2340682690264659 0.47277206496801216 0.56747613771585725 0.15348630968946964 0.23526703001698479 0.11887663818197325
leaf_count=34 1744 34 15 40 58 67 27 28 90 4 23 8
internal_value=0.00390827 0.0153305 0.0378492 -0.00256513 -0.0188206 -0.0329207 0.0603893 -0.0489254 -0.0051801 -0.0242254 0.00931954 0
internal_weight=7.56663 6.77039 2.99853 3.77186 2.93531 2.20629 1.98788 1.71434 1.01064 0.720962 0.49195 0.256683
internal_count=2172 428 170 258 218 184 61 86 109 94 98 75
is_linear=0
shrinkage=0.1


Tree=64
num_leaves=11
num_cat=0
split_feature=8 16 8 16 7 8 1 15 1 1
split_gain=0.545862 0.420028 0.462609 0.384493 0.297608 0.277735 0.243075 0.140914 0.0799209 0.0534877
threshold=-0.7625637732423417 -0.91637613949653363 -1.462084854345669 -1.0977355707786896 -0.12687601559136391 -0.14092813765617088 -0.8073134139055923 -1.2371268104092461 -0.1633992938965636 -0.88053391943199355
decision_type=2 2 2 2 2 2 2 2 2 2
left_child=1 6 4 5 -3 -2 -1 -8 -6 -7
right_child=3 2 -4 -5 8 9 7 -9 -10 -11
leaf_value=-0.00014220811580663387 0.040056060136255817 0.050155307181285858 -0.053978278230951283 -0.063858120534747265 -0.02837549759471324 0 0.074347464935741084 0 0.0080026417426548643 -0.039552756714735016
leaf_weight=0.40312462183646891 0.66225967230275273 1.0445255828963129 0.72018705095979374 1.0856893958261933 0.63390220204018999 0.15922720840899274 1.4870481092948467 0.42082920740358498 0.32391517818905435 0.43343990447465353
leaf_count=20 13 44 220 1638 53 7 69 21 39 48
internal_value=0.00396553 0.0230825 -0.00123474 -0.030452 0.0207344 0.00271044 0.0504114 0.0630576 -0.0106883 -0.0291021
internal_weight=7.37415 5.03353 2.72253 2.34062 2.00234 1.25493 2.311 1.90788 0.957817 0.592667
internal_count=2172 466 356 1706 136 68 110 90 92 55
is_linear=0
shrinkage=0.1


Tree=65
num_leaves=13
num_cat=0
split_feature=8 16 8 16 9 16 12 5 19 12 15 15
split_gain=0.471623 0.473107 0.521114 0.400525 0.29314 0.234334 0.109193 0.0711556 0.0633777 0.0332238 0.031917 0.00302547
threshold=-0.031063722027357989 -1.1156317204576469 -1.0039252148106181 -0.85355459658333332 -0.41336229556464327 -0.68494399971858788 0.15917994456695519 -1.2388100324325551 3.5000000000000004 -0.820673525547572 -1.8541044892996421 -1.499989550190701
decision_type=2 2 2 2 2 2 2 2 2 2 2 2
left_child=1 7 3 6 -5 -6 -3 -1 9 -4 -11 -10
right_child=-2 2 8 4 5 -7 -8 -9 11 10 -12 -13
leaf_value=0 -0.054139583885567201 0.059375140030299117 0 -0.048119516686383444 0.039406103292528756 -0.025864052186720301 0 0.059894892041038351 0.0051976995574388018 0 -0.057766854555953644 -0.0046325470990306455
leaf_weight=0.33206451428122807 0.77120860344439268 1.1636971794068816 0.076260490095591549 0.75143193514668372 0.87531707063317288 0.30144868828938287 0.56997988768853236 1.2838544877013189 0.12148948013782501 0.02153851836919729 1.1397267333522916 0.12740931895677921
leaf_count=10 1215 52 50 69 32 174 20 54 2 1 405 116
internal_value=0.00077072 0.0117034 -0.0026005 0.0159797 -0.0110169 0.0139955 0.0462273 0.0518471 -0.0459087 -0.0526714 -0.0556922 0
internal_weight=7.53543 6.76422 5.1483 3.66187 1.9282 1.17677 1.73368 1.61592 1.48642 1.23753 1.16127 0.248899
internal_count=2200 985 921 347 275 206 72 64 574 456 406 118
is_linear=0
shrinkage=0.1


Tree=66
num_leaves=10
num_cat=0
split_feature=15 9 15 15 9 15 10 15 1
split_gain=0.440303 0.373363 0.269361 0.262088 0.503891 0.299158 0.147947 0.00822354 0.00235972
threshold=-1.1831368226639472 -1.6019090178728219 -1.8962317962680098 -1.7578042695253928 -0.49979018470024522 -1.5609805691379164 -0.79377741686658021 -0.83382182996993637 3.2604369291267878
decision_type=2 2 2 2 2 2 2 2 2
left_child=1 2 -1 -3 5 -5 7 -2 -8
right_child=6 3 -4 4 -6 -7 8 -9 -10
leaf_value=0.013524412070564826 0.010458871745619686 0.065090138684322937 -0.054461707400741223 0.0062587845469646479 0.047077333631734782 -0.055769710770953919 -0.0518268238631861 0 0
leaf_weight=0.49904076661914587 0.25177745334804058 1.0275433401111507 0.68007279984885805 1.2356061399914318 1.4783681274857379 0.74678221269277889 1.175712147116428 0.080906917646643595 0.11661598563659925
leaf_count=15 15 62 34 25 54 73 1692 199 31
internal_value=0.00042615 0.0151015 -0.0242731 0.0288464 0.00870197 -0.0196061 -0.0375604 0 -0.0499809
internal_weight=7.29243 5.66741 1.17911 4.4883 3.46076 1.98239 1.62501 0.332684 1.29233
internal_count=2200 263 49 214 152 98 1937 214 1723
is_linear=0
shrinkage=0.1


Tree=67
num_leaves=11
num_cat=0
split_feature=8 16 8 16 9 16 12 12 15 15
split_gain=0.404638 0.408837 0.445342 0.3447 0.240196 0.200907 0.0974043 0.0413113 0.0270594 0.0110633
threshold=-0.031063722027357989 -1.1156317204576469 -1.0039252148106181 -0.85355459658333332 -0.41336229556464327 -0.68494399971858788 0.15917994456695519 -0.58545641032312867 -1.8541044892996421 -1.6091150672231291
decision_type=2 2 2 2 2 2 2 2 2 2
left_child=1 -1 3 6 -5 -6 -3 9 -9 -4
right_child=-2 2 7 4 5 -7 -8 8 -10 -11
leaf_value=0.049124019559638916 -0.051720441556209786 0.056499119119829182 0.0052035654912202861 -0.044857997484895946 0.036567706476519045 -0.024323627362140752 0 0 -0.053176988247316842 -0.01165986948314251
leaf_weight=1.5131649461109189 0.71063612602301862 1.0794010839890691 0.19170123524963856 0.70126469072420139 0.83300589339341957 0.28560268836736158 0.54565671714954067 0.020237360149621408 1.0212070304696692 0.17600057505478561
leaf_count=64 1215 52 4 69 32 174 20 1 413 156
internal_value=0.000249872 0.0108498 -0.00268704 0.0148857 -0.0104532 0.0121316 0.0437508 -0.0435323 -0.0511383 0
internal_weight=7.07788 6.36724 4.85408 3.44493 1.81987 1.11861 1.62506 1.40915 1.04144 0.367702
internal_count=2200 985 921 347 275 206 72 574 414 160
is_linear=0
shrinkage=0.1


Tree=68
num_leaves=9
num_cat=0
split_feature=15 8 7 8 8 15 12 1
split_gain=0.380615 0.240466 0.332173 0.374596 0.201898 0.198792 0.142732 0.0903012
threshold=-1.1450907471149629 -0.37151556597621443 -0.58220806712063788 -1.5782784406133896 -2.0390512536369325 -1.4024864615113928 0.11942949986382299 -0.1633992938965636
decision_type=2 2 2 2 2 2 2 2
left_child=1 2 5 7 -2 -1 -3 -4
right_child=4 6 3 -5 -6 -7 -8 -9
leaf_value=0.063019804666598664 0.00031881464596125687 -0.044523660648349207 0 -0.044211402549258497 -0.058002258885269976 0 0.0054666080814076319 0.041952904617675257
leaf_weight=1.5575784568209201 0.4639853262924587 0.51371464080875728 0.72679309506202128 0.82512060366570938 0.91364489294937812 0.74809939623810362 0.45275155187118798 0.67038641590625059
leaf_count=87 39 51 25 46 1877 29 25 21
internal_value=0 0.0133551 0.0238629 -0.000637622 -0.0381796 0.0469469 -0.0204069 0.0246944
internal_weight=6.87207 5.49444 4.52798 2.2223 1.37763 2.30568 0.966466 1.39718
internal_count=2200 284 208 92 1916 116 76 46
is_linear=0
shrinkage=0.1


Tree=69
num_leaves=14
num_cat=0
split_feature=15 8 8 7 5 14 1 5 16 2 13 14 14
split_gain=0.340463 0.491067 0.222448 0.257833 0.126196 0.132541 0.0931905 0.0550393 0.00119625 0.000727761 0.00023329 0.000170174 4.17455e-05
threshold=-1.5296698763594081 -2.0390512536369325 -0.37151556597621443 -0.55234325748558144 1.3575535965204213 -1.1481476020107542 -1.0663098021775721 -0.46126353455204577 -1.124996686387725 -1.085123936900992 -1.4146664451715998 -1.4318309963133469 -1.4066553824583365
decision_type=2 2 2 2 2 2 2 2 2 2 2 2 2
left_child=2 7 3 6 5 11 -1 -2 -6 -10 -11 -3 -13
right_child=1 4 -4 -5 8 -7 -8 -9 9 10 -12 12 -14
leaf_value=0 0 -0.0016265042864119135 -0.01062186251955302 0 0.0042456025529160049 -0.063282391543058467 0.067449771710102996 0.035401102732395925 0 -0.0039274802802317333 0 0.00089771754619872863 0
leaf_weight=0.19344421382993493 0.42814279568847269 0.10911883910011966 0.80791121732909221 1.1064671154599637 0.16365492151817307 1.5253683139162602 1.1423544860444963 0.66295606014318786 0.092930573460762389 0.12304400249558967 0.015484775285585672 0.13005179907486308 0.18370610324200276
leaf_count=5 24 149 23 33 9 1479 73 35 14 158 24 19 155
internal_value=0 -0.0196549 0.0224179 0.036694 -0.0440751 -0.0526458 0.0596863 0.0238765 0 0 -0.00337601 0 0.00033312
internal_weight=6.68464 3.43446 3.25018 2.44227 2.34336 1.94825 1.3358 1.0911 0.395114 0.231459 0.138529 0.422877 0.313758
internal_count=2200 2066 134 111 2007 1802 78 59 205 196 182 323 174
is_linear=0
shrinkage=0.1


Tree=70
num_leaves=10
num_cat=0
split_feature=8 15 11 8 11 2 7 16 15
split_gain=0.551531 0.452542 0.374417 0.308738 0.229533 0.143682 0.0961464 0.0887192 0.0149474
threshold=-0.096915367512398473 -1.3031794506019792 -0.28739641046590764 -1.9266814908405061 0.43553843609069814 2.5519272999232565 -0.55234325748558144 -0.70406374933186389 -1.1831368226639472
decision_type=2 2 2 2 2 2 2 2 2
left_child=1 2 -1 7 6 -5 -4 -3 -9
right_child=-2 3 4 5 -6 -7 -8 8 -10
leaf_value=0.060046385099794354 -0.055576805467357729 0.036410064525242911 0 -0.059938638242004294 0.031152892450822658 0.00029351309625230031 -0.038606300122050428 0 -0.01521167027393709
leaf_weight=1.9834183547645805 0.78807142555888265 0.41063707321882248 0.44896228471770872 0.91754700547608059 0.94350100075826038 0.11227128366590478 0.74518193630501661 0.085700188763439655 0.20166290592169378
leaf_count=79 1234 11 26 671 41 17 21 2 44
internal_value=0.00262872 0.0158056 0.0335774 -0.0201162 0 -0.0488856 -0.022977 0.0166702 -0.00404568
internal_weight=6.63695 5.84888 4.12106 1.72782 2.13765 1.02982 1.19414 0.698 0.287363
internal_count=2146 912 167 745 88 688 47 57 46
is_linear=0
shrinkage=0.1


Tree=71
num_leaves=10
num_cat=0
split_feature=8 16 1 12 12 8 8 16 8
split_gain=0.498595 0.330906 0.21655 0.354298 0.162013 0.150727 0.103166 0.15715 0.00337882
threshold=-0.096915367512398473 -0.77919365338585933 -0.28007554822649622 0.89902207784752775 -0.94788291712941619 -2.4900693707120527 -1.9266814908405061 -1.1081646312401279 -1.462084854345669
decision_type=2 2 2 2 2 2 2 2 2
left_child=1 2 3 4 -1 -3 -4 -8 -9
right_child=-2 5 6 -5 -6 -7 7 8 -10
