tree
version=v4
num_class=1
num_tree_per_iteration=1
label_index=0
max_feature_idx=17
objective=binary sigmoid:1
feature_names=0 1 2 3 4 5 6 7 8 9 10 11 12 13 14 15 16 17
feature_infos=[-1.5686608069805192:3.7320499795375288] [-3.5376178144552939:2.314264531003273] [-0.14554943371079551:13.310191625945192] [-0.21496188795168089:10.659622171442082] [-3.1600914428475884:4.7092162725197442] [-0.71785117086248951:13.280156986322737] [-1.6287641780245841:3.3154379863618968] [-2.071524758283819:15.186207815713594] [-2.1010514139469492:5.4429517914014607] [-2.2886217383827714:6.6148123620056252] [-0.14000712495299911:20.164191333967938] [0:8] [0:6] [0:14] [0:5] [0:4] [0:1] [0:40]
tree_sizes=3369 3412 3414 3421 3426 3408 3422 3406 3400 3402 3430 3422 3432 3437 3421 3435 3435 3421 3445 3404 3403 3434 3418 3403 3412 3456 3467 3437 3423 3449 3442 3466 3463 3438 3427 3446 3441 3421 3445 3450 3443 3471 3471 3441 3429 3361 3437 3437 3452 3404 3402 3390 3379 3446 3419 3419 3412 3371 3423 3442 3421 3449 3408 3407 3463 3417 3400 3413 3407 3415 3456 3431 3405 3412 3400 3396 3433 3448 3383 3388 3406 3395 3401 3442 3400 3414 3358 3364 3405 3397

Tree=0
num_leaves=31
num_cat=0
split_feature=14 1 5 5 14 8 9 5 1 3 9 3 11 9 5 8 8 3 5 8 8 8 8 9 5 9 11 8 5 13
split_gain=3442.02 1516.68 1215.37 727.371 709.86 291.289 216.426 196.056 170.527 165.246 145.415 118.68 97.7576 95.739 92.7542 79.9243 62.3232 48.5415 43.5676 40.3687 39.8678 31.0437 29.5382 29.1544 27.4962 26.4064 26.2913 25.1316 22.111 21.7733
threshold=1.0000000180025095e-35 0.94882531706294071 0.81528317088010582 0.54204333938006932 4.5000000000000009 -0.42051275851058262 0.83237305234868997 0.54204333938006932 1.0000000180025095e-35 4.3935050940595426 -0.34892488560657858 4.3298453388909151 4.5000000000000009 0.12472202030388709 -0.39893722908961921 0.044256785320048127 0.673396045871268 5.3234368117189037 -0.40054688936355171 -0.92495775120480384 -0.73224842815307889 0.109437879881661 -0.020924309241564732 0.16701192261732153 -0.36701230032329196 -0.84794573290510489 4.5000000000000009 -0.29865245128669776 0.022324278434123702 3.5000000000000004
decision_type=2 2 2 2 2 2 2 2 2 2 2 2 2 2 2 2 2 2 2 2 2 2 2 2 2 2 2 2 2 2
left_child=1 3 4 5 6 19 17 11 20 10 -7 13 21 -3 -11 -8 26 22 -17 -1 -6 -12 -2 -24 -21 -10 -15 -27 -18 -22
right_child=2 7 -4 -5 8 9 15 -9 25 14 12 -13 -14 16 -16 18 28 -19 -20 24 29 -23 23 -25 -26 27 -28 -29 -30 -31
leaf_value=-1.2616544148615714 -1.2933809459332926 -1.1289344766242946 -0.76791303554588564 -0.76319609715773673 -1.2468690956966642 -1.2235978805598065 -1.2581746536252327 -0.75081263646382679 -1.0980094398019642 -1.1729492535120323 -1.1004766935915948 -0.76873034390122841 -1.1754612512498717 -0.97870071980146345 -0.76119071557022422 -0.83664531413043919 -0.89856198272310084 -1.0442847224471681 -1.1476213017912771 -1.0005545861661453 -1.0472444048894793 -1.0464750554412314 -1.2809363547567691 -1.2288301713790715 -1.1942664083073831 -1.1209757903679172 -1.1262925700646564 -0.88751170050175654 -1.121597277269931 -1.1519017557412377
leaf_weight=108.57158303260803 1325.116170912981 28.047658950090408 51.571501940488815 54.285791516304016 25.876227289438248 94.638229876756668 87.038219064474106 72.019150078296661 9.228584557771681 7.2381055355072048 187.64788600802422 40.714343637228012 106.94300928711891 99.88585638999939 21.171458691358566 4.1619106829166403 211.89553955197334 7.9619160890579215 143.85734751820564 7.0571528971195212 35.466717123985291 257.49560442566872 346.5243025124073 160.14308497309685 235.05747726559639 5.4285791516304007 14.295258432626722 50.666738748550415 4.8857212364673606 45.419112235307693
leaf_count=600 7323 155 285 300 143 523 481 398 51 40 1037 225 591 552 117 23 1171 44 795 39 196 1423 1915 885 1299 30 79 280 27 251
internal_value=-1.16789 -1.05284 -1.24557 -1.11824 -1.25663 -1.13722 -1.27282 -0.903344 -1.06172 -1.09883 -1.10936 -0.931338 -1.08972 -0.950336 -0.864716 -1.18238 -0.935312 -1.28436 -1.13772 -1.2111 -1.14001 -1.06912 -1.28544 -1.26456 -1.18825 -0.935086 -0.99683 -0.909314 -0.903424 -1.10543
internal_weight=3850.31 1551.85 2298.46 1080.11 2246.89 1025.82 2074.8 471.744 172.086 675.134 646.725 399.724 552.086 359.01 28.4096 235.057 330.962 1839.75 148.019 350.686 106.762 445.143 1831.78 506.667 242.115 65.3239 114.181 56.0953 216.781 80.8858
internal_count=21278 8576 12702 5969 12417 5669 11466 2607 951 3731 3574 2209 3051 1984 157 1299 1829 10167 818 1938 590 2460 10123 2800 1338 361 631 310 1198 447
is_linear=0
shrinkage=1


Tree=1
num_leaves=31
num_cat=0
split_feature=14 9 5 14 5 8 9 7 8 5 9 5 8 5 5 5 9 5 8 5 5 5 5 8 9 8 9 5 8 9
split_gain=2735.52 899.544 884.335 603.822 383.926 205.829 200.526 199.019 99.1604 89.2201 87.1557 77.9189 67.8016 57.8888 51.4748 44.9462 44.409 42.1963 38.7956 37.642 47.7747 32.9477 32.6021 32.5725 32.2075 29.1779 27.646 23.5307 22.1498 21.1206
threshold=1.0000000180025095e-35 0.48841518019942326 0.81528317088010582 4.5000000000000009 0.54204333938006932 -0.33265997888406096 0.83237305234868997 0.27850380416368076 -0.29865245128669776 0.54204333938006932 -0.63649622133793271 0.54204333938006932 0.044256785320048127 -0.36701230032329196 0.28496717979743807 -0.36701230032329196 -0.27844171508418786 -0.43113043456826861 0.41550562825793008 -0.36701230032329196 -0.39893722908961921 -0.39893722908961921 -0.43703252223935429 -0.92495775120480384 -0.072630857158806947 -0.020924309241564732 0.16701192261732153 -0.38116389689828162 1.7474671258213235 1.2637300559457214
decision_type=2 2 2 2 2 2 2 2 2 2 2 2 2 2 2 2 2 2 2 2 2 2 2 2 2 2 2 2 2 2
left_child=1 4 3 6 5 19 17 11 -5 27 28 14 -8 21 15 -3 -10 -2 -17 20 -1 -12 -14 -21 -15 -19 -27 -9 -7 -24
right_child=2 7 -4 8 -6 10 12 9 16 -11 13 -13 22 24 -16 18 -18 25 -20 23 -22 -23 29 -25 -26 26 -28 -29 -30 -31
leaf_value=-0.098592159985146421 0.10527503390860954 0.2976607973865838 0.29835930987481823 -0.017935982078211395 0.29776287684744018 -0.065198482331876959 -0.085553719667078962 0.22696102631784865 0.068523276905634062 0.30012026347774334 0.012333861692851517 0.3099737455342535 0.29193642217505061 0.037123302245244023 -0.089789992563300086 0.13159132031679496 0.19122380243313533 -0.12139534571494244 0.21090867918802961 -0.095089020219327691 0.31470002270117559 0.29958242144966291 -0.022228278310245712 -0.026554796463826261 0.090474462009206891 -0.10855051801689407 -0.056755433691749457 0.06458583123533583 0.056699340458847905 0.053689808448980893
leaf_weight=4.504781186580658 8.4724401235580427 47.836160555481911 61.69841006398201 57.579474881291389 52.068485528230667 64.209951564669609 82.885809302330017 9.1271668970584852 51.649777144193649 19.108865439891815 5.3775351941585567 80.577236145734787 4.0069421827793112 213.94617688655853 5.7037978768348685 85.455176666378975 72.025438696146011 1237.1121027767658 269.57003504037857 98.031730502843857 6.04822890460491 16.45412603020668 67.721453130245209 238.61174285411835 244.58252386748791 325.80294407904148 154.99492473900318 160.59994466602802 18.862253159284592 78.511345833539963
leaf_count=24 44 221 285 319 240 364 481 44 274 88 29 370 19 1143 30 436 358 7323 1323 570 31 76 370 1331 1291 1915 885 862 103 429
internal_value=-0.000572662 0.097159 -0.0733858 -0.0841716 0.0349737 0.0197816 -0.100328 0.185354 0.0902334 0.0976824 0.0570904 0.219045 -0.0131945 0.073444 0.20073 0.204975 0.140544 -0.112081 0.192057 -0.0407296 0.140893 0.231136 0.0268104 -0.0466533 0.0656705 -0.113189 -0.0919504 0.0740174 -0.0372273 0.0185075
internal_weight=3843.14 1640.68 2202.46 2140.76 962.698 910.629 1959.51 677.978 181.255 188.836 563.433 489.142 233.126 480.36 408.565 402.861 123.675 1726.38 355.025 347.196 10.553 21.8317 150.24 336.643 458.529 1717.91 480.798 169.727 83.0722 146.233
internal_count=21278 8576 12702 12417 5202 4962 11466 3374 951 994 3006 2380 1299 2539 2010 1980 632 10167 1759 1956 55 105 818 1901 2434 10123 2800 906 467 799
is_linear=0
shrinkage=0.1


Tree=2
num_leaves=31
num_cat=0
split_feature=14 2 9 14 2 9 8 8 2 8 9 7 8 2 5 5 5 8 9 8 5 9 9 8 8 8 9 7 5 8
split_gain=2218.28 693.046 648.406 518.729 221.032 186.221 182.5 135.318 86.0949 73.7774 61.8828 61.6163 59.0662 51.9316 41.5653 37.0196 32.4209 30.1667 29.4154 29.1442 28.626 26.3515 23.0064 22.805 21.5284 19.587 18.8656 19.8518 16.5007 15.3108
threshold=1.0000000180025095e-35 0.80625192815758961 0.16701192261732153 4.5000000000000009 0.53215574181053371 0.83237305234868997 0.14344540747902423 -0.42051275851058262 0.53215574181053371 -0.10310916760185919 -0.63649622133793271 0.85604891166476305 -0.15978838026413125 0.53215574181053371 -0.36701230032329196 -0.43113043456826861 -0.36701230032329196 -0.34116186078340177 0.79008315003525553 -0.020924309241564732 -0.43703252223935429 0.16701192261732153 -0.27844171508418786 -0.92495775120480384 -0.83427101094516853 1.5264181964384624 1.2637300559457214 0.17194516278443528 -0.33401426470767637 1.2685277788251248
decision_type=2 2 2 2 2 2 2 2 2 2 2 2 2 2 2 2 2 2 2 2 2 2 2 2 2 2 2 2 2 2
left_child=2 3 4 5 7 15 13 23 11 24 25 14 -7 17 -8 -2 -12 -4 -16 -17 -14 -21 -11 -1 -5 -9 -22 -28 -18 -20
right_child=1 -3 6 9 -6 12 8 10 -10 22 16 -13 20 -15 18 19 28 -19 29 21 26 -23 -24 -25 -26 -27 27 -29 -30 -31
leaf_value=-0.088292672085692248 0.090842183368560217 0.244626035937763 0.0052296059101260431 -0.085839771372991369 0.24190702651111989 -0.101552174560057 0.24641511958533308 -0.063985688903447122 0.25304958801995758 0.070837446149894456 0.18260913244779597 0.032434606286610865 0.25043646455425217 0.24888606715928205 0.12231256845203863 -0.11781275885813314 -0.1209859074744236 0.083279337199645503 0.1530192079131153 -0.10444303105030923 -0.027277266985034757 -0.052824844127883568 0.16534940174605628 -0.027094818925649161 0.033676028651226757 0.044291906771446871 0.070965946247624923 -0.026471650219607415 0.051193723056522415 0.20560432919100419
leaf_weight=91.868525132536888 8.891650974750517 67.462620958685875 79.570470184087753 20.101071774959564 42.419319659471512 55.462749928236008 56.028569161891937 66.205489858984947 109.23788817226887 43.689251571893692 18.62171696126461 38.686787739396095 4.5784690231084815 14.235056728124617 185.27519775927067 1151.6784937083721 5.1514469087123862 132.19304282963276 144.32488092780113 305.81315599381924 76.786502778530121 150.17119087278843 68.737244203686714 183.07255686819553 55.624405235052109 21.780500620603561 63.608574062585831 30.527227938175201 402.03007028996944 108.61632359027863
leaf_count=563 44 285 432 117 179 338 238 388 459 224 84 197 20 60 882 7323 27 664 675 1915 430 885 316 1036 294 117 344 167 2084 491
internal_value=-0.000892371 -0.0695441 0.0840629 -0.0800182 0.0208945 -0.0961305 0.144479 0.00884962 0.171687 0.0779756 0.0391486 0.154769 -0.0120593 0.0669173 0.164282 -0.108128 0.0549259 0.0540805 0.15349 -0.109263 0.0163741 -0.0875418 0.129187 -0.0477029 0.00146481 -0.0369703 0.00933379 0.0392894 0.0488452 0.176
internal_weight=3802.45 2103.13 1699.32 2035.67 831.15 1847.52 868.168 788.73 642.17 188.152 513.789 532.932 230.964 225.999 494.245 1616.55 425.803 211.764 438.216 1607.66 175.501 455.984 112.426 274.941 75.7255 87.986 170.922 94.1358 407.182 252.941
internal_count=21278 12702 8576 12417 4478 11466 4098 4299 2942 951 2700 2483 1299 1156 2286 10167 2195 1096 2048 10123 961 2800 540 1599 411 505 941 511 2111 1166
is_linear=0
shrinkage=0.1


Tree=3
num_leaves=31
num_cat=0
split_feature=14 5 1 14 5 9 9 8 1 11 5 8 9 3 3 0 8 9 8 5 8 3 3 9 11 10 11 1 13 9
split_gain=1820.23 562.788 541.456 448.367 258.903 173.122 159.917 83.6518 77.4691 73.5761 53.6742 51.0888 38.9575 37.8155 32.7085 29.4443 29.3891 24.2804 23.7187 22.6851 21.7931 20.9054 18.4666 17.9088 17.8659 15.784 14.4214 16.1335 14.2771 13.8645
threshold=1.0000000180025095e-35 0.81528317088010582 0.94882531706294071 4.5000000000000009 0.54204333938006932 0.83237305234868997 -0.34892488560657858 -0.22213551419263047 1.0000000180025095e-35 4.5000000000000009 0.54204333938006932 -0.15978838026413125 0.62092354078151779 4.3935050940595426 5.3234368117189037 -0.80622980344025197 -0.074769561270723164 0.16701192261732153 -0.67273525485769314 -0.40054688936355171 -0.73224842815307889 4.3298453388909151 4.3935050940595426 -0.23333248594985781 1.0000000180025095e-35 0.20139869606792996 4.5000000000000009 1.3389508067601785 3.5000000000000004 1.2637300559457214
decision_type=2 2 2 2 2 2 2 2 2 2 2 2 2 2 2 2 2 2 2 2 2 2 2 2 2 2 2 2 2 2
left_child=2 3 4 5 6 14 22 18 20 13 12 -7 15 23 16 -4 -2 -18 -8 -13 -5 -17 -1 -9 -21 26 -14 -28 -22 -26
right_child=1 -3 10 8 -6 11 7 9 -10 -11 -12 19 25 -15 -16 21 17 -19 -20 24 28 -23 -24 -25 29 -27 27 -29 -30 -31
leaf_value=-0.061054391261412128 -0.11501365336990606 0.2107910520978068 -0.077516070121684766 -0.069769369133317272 0.21333126868134933 -0.097523497184958993 -0.042359850549291769 0.043955167957817322 0.14280549703099396 -0.011612093206907042 0.21865364040320345 0.19785981925763466 0.171006809035052 0.20094764426914549 0.079164060897959743 0.097182455546838922 -0.10060936437010351 -0.051384837283917698 0.017387131405675247 0.16499847174077567 0.080857384388562034 0.22541687634603599 0.10591616658469161 0.088666483253800124 -0.031863384289011469 -0.033128439225156806 0.044416682370804143 0.15450737867405659 0.00048185150937379742 0.026538360313859449
leaf_weight=210.67874036729336 1043.0718490481377 70.356364846229553 8.5710479617118818 23.680095702409744 74.115749701857567 52.170782715082169 97.735183894634247 135.83975847065449 80.476143270730972 104.68521648645401 98.610532164573669 6.0145879834890357 258.68715253472328 24.77212218940258 9.2367850542068464 157.71441970765591 305.70600859820843 153.26879277825356 204.7184901535511 6.4173341989517203 40.266829505562782 13.901016891002653 6.3551958948373786 279.55577501654625 71.902449548244476 4.0169978886842719 22.342980936169624 35.796851724386215 48.828993380069733 92.160408586263657
leaf_count=1274 7141 285 42 143 300 338 570 684 361 538 398 26 1116 104 44 722 2045 937 1104 35 196 57 34 1361 409 20 99 153 251 491
internal_value=-0.00108492 -0.0660432 0.0737861 -0.0761752 0.0332399 -0.0922274 0.0205955 0.0402194 0.0681638 0.0636127 0.150657 -0.0110586 0.13705 0.081519 -0.104494 0.0991704 -0.105656 -0.084267 -0.00192461 0.0146467 0.0144165 0.108252 -0.055887 0.0741398 0.00756472 0.158104 0.160609 0.11311 0.0371677 0.000863307
internal_weight=3741.65 2003.56 1738.1 1933.2 1138.46 1739.95 1064.34 847.307 193.252 544.853 599.641 228.666 501.03 440.168 1511.28 180.186 1502.05 458.975 302.454 176.495 112.776 171.615 217.034 415.396 170.48 320.844 316.827 58.1398 89.0958 164.063
internal_count=21278 12702 8576 12417 5969 11466 5669 4361 951 2687 2607 1299 2209 2149 10167 821 10123 2982 1674 961 590 779 1308 2045 935 1388 1368 252 447 900
is_linear=0
shrinkage=0.1


Tree=4
num_leaves=31
num_cat=0
split_feature=14 2 9 14 2 9 8 2 3 9 8 11 8 2 8 8 8 9 3 8 9 8 7 3 11 5 13 13 13 8
split_gain=1505.72 466.365 390.506 389.099 162.362 161.213 133.911 87.3518 58.5511 47.7631 47.1291 46.1975 44.6056 32.6087 31.5343 28.4644 25.3286 24.841 23.4661 23.2762 22.4006 21.9835 17.9055 16.7962 15.6491 15.22 14.1951 24.3897 41.1988 13.9453
threshold=1.0000000180025095e-35 0.80625192815758961 -0.072630857158806947 4.5000000000000009 0.53215574181053371 0.83237305234868997 1.0000000180025095e-35 0.53215574181053371 4.3935050940595426 -0.27844171508418786 -0.39784107344567382 4.5000000000000009 0.044256785320048127 0.27427388558366433 1.0000000180025095e-35 1.0078034005786731 -0.61605604219542121 0.16701192261732153 3.4123959261665786 -0.63589376662721631 -0.63649622133793271 0.95679210918262825 0.26724760965178856 5.3234368117189037 4.5000000000000009 -0.43703252223935429 2.5000000000000004 3.5000000000000004 8.5000000000000018 1.5264181964384624
decision_type=2 2 2 2 2 2 2 2 2 2 2 2 2 2 2 2 2 2 2 2 2 2 2 2 2 2 2 2 2 2
left_child=2 3 7 5 6 14 16 10 11 19 -1 13 -7 18 23 -13 -4 -16 21 -5 29 26 -11 -2 -18 -14 -8 -28 -29 -12
right_child=1 -3 4 9 -6 12 8 -9 -10 22 20 15 25 -15 17 -17 24 -19 -20 -21 -22 -23 -24 -25 -26 -27 27 28 -30 -31
leaf_value=-0.047871699970834812 -0.11160790263706576 0.18733641767265755 -0.031027150571102158 -0.074467628428667318 0.19544795426318853 -0.074360783564311819 0.054835002691084059 0.1771427721103396 0.19024716780145132 0.1237056025354115 -0.057094421014608078 0.0013163668800152987 0.18815891100294144 -0.057442119479686617 -0.095451307056978518 0.091847206976559154 0.051961802563574827 -0.043212980479969361 -0.086332664268634118 0.03802683633684039 0.027597018661329849 0.13942018703201806 -0.0047134033899757025 0.066019752823510053 -0.023717590065090027 0.014398965729796855 0.15781357114881556 -0.01696873847113653 0.10960582709582717 0.033959707219615061
leaf_weight=213.67559178173542 999.38100455701351 71.246441155672073 63.545894637703896 24.09637376666069 149.22767779231071 72.740540891885757 64.954060897231102 25.249373465776443 73.731207430362701 88.397209256887436 60.7950689047575 73.415725514292717 4.7389789074659339 11.148207396268843 264.97956404089928 65.826016873121262 181.43815562129021 141.91613751649857 5.4700068384408942 72.245939508080482 245.56417500972748 219.59048809111118 12.157208248972891 4.9771810919046393 31.654993996024132 148.75792643427849 72.121056839823723 30.682186454534531 150.57691453397274 22.652428641915321
leaf_count=1315 7376 285 368 148 597 481 299 101 298 388 381 362 19 54 1882 289 902 886 25 357 1238 930 58 23 166 799 320 141 673 117
internal_value=-0.00120545 -0.0628057 0.0654353 -0.0725749 0.0979071 -0.0885468 0.0838703 -0.0028048 0.105364 0.0600926 -0.0113509 0.0961987 -0.0101055 0.109145 -0.101107 0.0443615 0.024118 -0.0773317 0.112631 0.00954814 0.0123737 0.114751 0.108134 -0.110685 0.0406436 0.020422 0.0975101 0.108281 0.0881375 -0.0322029
internal_weight=3666.95 1905.63 1761.32 1834.39 1193.38 1637.49 1044.15 567.937 767.516 196.897 542.687 693.785 226.237 554.543 1411.25 139.242 276.639 406.896 543.395 96.3423 329.012 537.925 100.554 1004.36 213.093 153.497 318.334 253.38 181.259 83.4475
internal_count=21278 12702 8576 12417 5424 11466 4827 3152 3391 951 3051 3093 1299 2442 10167 651 1436 2768 2388 505 1736 2363 446 7399 1068 818 1433 1134 814 498
is_linear=0
shrinkage=0.1


Tree=5
num_leaves=31
num_cat=0
split_feature=14 5 8 14 8 5 5 1 8 4 1 0 3 11 13 4 1 3 11 13 3 13 1 8 8 11 0 16 1 4
split_gain=1289.34 384.881 343.08 330.16 116.991 111.458 108.583 94.4005 74.7168 59.4105 45.8696 32.9818 28.1216 28.04 23.7863 23.3476 22.5233 21.7237 21.6579 19.2563 17.4795 16.8782 16.6936 19.5311 16.0342 15.0317 14.5163 13.114 12.539 12.5252
threshold=1.0000000180025095e-35 0.81528317088010582 0.14344540747902423 4.5000000000000009 1.0000000180025095e-35 0.54204333938006932 0.54204333938006932 0.55869982736570301 -0.64722960915967076 0.25261853575559162 -0.22155115202877271 1.8804318280825945 4.3298453388909151 4.5000000000000009 12.500000000000002 0.092020419115441926 1.7290762964574165 4.3935050940595426 4.5000000000000009 2.5000000000000004 5.3234368117189037 3.5000000000000004 0.94882531706294071 0.55153573864738303 -0.029426191140905542 3.5000000000000004 1.8804318280825945 1.0000000180025095e-35 1.3389508067601785 -0.71097016408530622
decision_type=2 2 2 2 2 2 2 2 2 2 2 2 2 2 2 2 2 2 2 2 2 2 2 2 2 2 2 2 2 2
left_child=2 3 6 4 20 7 8 11 -1 22 21 17 14 15 19 -10 27 18 29 25 -2 -5 -6 -24 -12 -9 28 -11 -21 -4
right_child=1 -3 5 10 9 -7 -8 12 13 16 24 -13 -14 -15 -16 -17 -18 -19 -20 26 -22 -23 23 -25 -26 -27 -28 -29 -30 -31
leaf_value=-0.055203871415860119 -0.1070282702293623 0.16972644966684317 -0.04744819431624582 0.045999860982948559 -0.086700488475183676 0.17612392220255513 0.1772970865589133 0.07455867751229632 0.0077934121812987013 -0.040193094578036437 0.030671659603417646 -0.036654694564948707 0.17697156068247288 -0.038935508335318586 -0.00084492928430335745 0.055415901852065047 0.1166238909294831 0.15448802187988603 -0.0014172287903894219 0.10236880145984224 0.047618993936837217 -0.0493660385017596 -0.0949833183085039 -0.017721507264773204 0.1107568645870682 -0.062291279594805737 0.01217039643989214 0.018045566528276481 0.14109176816425595 0.066050920168435848
leaf_weight=194.67754577100277 991.55736520886421 69.229511305689812 9.6570135802030546 30.796317905187607 236.23219022154808 146.57662598788738 34.6957967877388 35.345938384532928 247.66926252841949 75.145875573158264 35.940844938158989 43.074892655014992 57.390987873077393 73.656353667378426 21.281228810548782 176.63634747266769 14.840769335627554 20.579178005456924 67.232246100902557 226.4468918889761 7.0110772699117652 44.994266077876091 48.815618067979813 99.442440137267113 88.730377435684204 9.8499251008033735 13.8029468357563 78.398201331496239 148.15458834171295 259.65079176425934
leaf_count=1241 7846 279 63 153 1769 593 140 149 1292 433 173 235 231 402 96 857 74 86 360 956 33 251 313 624 376 44 61 444 609 1213
internal_value=-0.00149869 -0.0607031 0.0588521 -0.0698605 -0.0854659 0.0951571 0.00594708 0.0820505 -0.00274348 -0.048462 0.0507775 0.0455323 0.110487 0.0177806 0.101892 0.0276839 0.00102094 0.0555109 0.0492086 0.106953 -0.105909 -0.010437 -0.0701319 -0.0434618 0.0879641 0.0441597 0.114168 -0.01043 0.117878 0.0618635
internal_weight=3607.51 1821.13 1786.38 1751.91 1551.44 1059.04 727.335 912.467 692.64 552.875 200.462 400.194 512.273 497.962 454.882 424.306 168.385 357.119 336.54 433.6 998.568 75.7906 384.49 148.258 124.671 45.1959 388.404 153.544 374.601 269.308
internal_count=21396 12768 8628 12489 11536 4696 3932 4103 3792 3657 953 1957 2146 2551 1915 2149 951 1722 1636 1819 7879 404 2706 937 549 193 1626 877 1565 1276
is_linear=0
shrinkage=0.1


Tree=6
num_leaves=31
num_cat=0
split_feature=14 14 8 2 9 2 1 2 8 8 1 9 3 1 3 9 9 9 8 2 8 16 3 2 2 2 5 14 2 1
split_gain=1077.22 331.173 277.237 275.936 119.481 115.472 86.063 81.5108 54.1826 45.6688 40.1 34.5211 26.0366 24.3679 22.9263 22.7146 18.1822 18.1456 16.5383 14.5962 13.8048 13.307 13.2799 13.02 21.0827 12.9425 12.7686 11.9708 11.8545 11.7344
threshold=1.0000000180025095e-35 4.5000000000000009 1.0000000180025095e-35 0.48263811953477681 0.48841518019942326 0.53215574181053371 0.94882531706294071 0.42545064815652506 -0.64722960915967076 0.55153573864738303 -0.22155115202877271 -0.33482825150210044 4.3298453388909151 1.7290762964574165 4.3298453388909151 0.12472202030388709 1.30320063143826 -0.34892488560657858 -0.069101640004495965 0.53215574181053371 -0.29865245128669776 1.0000000180025095e-35 3.7194606275681932 0.27427388558366433 0.2561084534988079 0.42545064815652506 -0.39893722908961921 1.5000000000000002 0.27427388558366433 1.3389508067601785
decision_type=2 2 2 2 2 2 2 2 2 2 2 2 2 2 2 2 2 2 2 2 2 2 2 2 2 2 2 2 2 2
left_child=2 3 7 4 18 6 11 8 -1 16 19 -4 15 -11 22 -8 -6 -10 -2 -3 -12 -20 23 24 -13 -25 -16 -18 -19 -17
right_child=1 10 5 -5 9 -7 12 -9 17 13 20 14 -14 -15 26 29 27 28 21 -21 -22 -23 -24 25 -26 -27 -28 -29 -30 -31
leaf_value=-0.054865664844123412 -0.10788587117080538 -0.01154727118670288 -0.029778333946226532 0.13770920441194281 -0.081579605106231412 0.16327135833996484 0.0039636664418469612 0.14742744340782749 -0.047759257493864803 -0.0085637578968789443 0.013167888771137221 0.046875969862688042 0.16346120542884945 0.10614046261487459 0.0014107466683594839 0.082494261011197001 0.010317578927825704 0.020782529450037925 -0.094867293954851675 0.16902561320099108 0.10100142613071278 -0.049968483653806989 -0.12277588082670687 -0.13165271827544223 0.2581199184743076 0.049976078191588426 0.17337320836215153 -0.088792553747342351 -0.12351528817822095 0.11769657581251142
leaf_weight=185.78131084144115 773.51616106182337 74.856017231941223 60.957294344902039 58.40676898509264 157.51314374059439 150.02712242305279 28.718408152461052 34.17563259601593 46.504839524626732 134.1902609616518 21.492916584014893 408.74277172982693 55.912241250276566 20.96151165664196 5.5359859764575985 256.58451822400093 44.136023506522179 343.33851750195026 201.09662153571844 4.2586545646190634 120.9202718436718 102.97283924371004 4.2105353921651831 7.6360590010881406 4.3303223103284827 7.087985947728157 21.387462466955185 16.226175203919411 5.2793048173189154 163.11972688138485
leaf_count=1225 6644 402 374 270 1188 623 139 153 288 771 108 1898 229 104 24 1059 269 1731 1575 18 505 801 21 37 20 34 87 113 27 659
internal_value=-0.00151709 -0.0577639 0.0528773 -0.0745267 -0.0831235 0.0813557 0.0692732 -0.00149651 -0.0103944 -0.0342433 0.0562875 0.0406299 0.0987105 0.00716009 0.0500258 0.0904416 -0.0637218 0.010533 -0.100011 -0.00070115 0.0879081 -0.0798022 0.0443002 0.0461094 0.049424 -0.0447921 0.139049 -0.0166708 0.0183949 0.0963233
internal_weight=3519.88 1730.55 1789.33 1509.02 1450.61 1174.25 1024.22 615.08 580.904 373.027 221.528 519.888 504.335 155.152 458.931 448.423 217.875 395.123 1077.59 79.1147 142.413 304.069 432.008 427.797 413.073 14.724 26.9234 60.3622 348.618 419.704
internal_count=21396 12768 8628 11735 11465 5204 4581 3424 3271 2445 1033 2495 2086 875 2121 1857 1570 2046 9020 420 613 2376 2010 1989 1918 71 111 382 1758 1718
is_linear=0
shrinkage=0.1


Tree=7
num_leaves=31
num_cat=0
split_feature=14 14 2 8 8 2 2 0 8 4 8 8 3 11 4 0 3 8 11 11 2 2 8 0 7 2 4 3 3 0
split_gain=902.348 286.383 235.122 224.026 103.61 90.8123 78.0303 55.2112 50.9037 49.1517 40.3302 32.8472 30.8385 27.3756 22.3123 17.5959 17.444 14.825 14.6011 15.4696 13.8195 33.6694 12.7937 12.685 12.545 12.0564 11.8017 11.0755 28.0288 10.6923
threshold=1.0000000180025095e-35 4.5000000000000009 0.48263811953477681 0.14344540747902423 1.0000000180025095e-35 0.53215574181053371 0.53215574181053371 1.517369445444372 -0.64722960915967076 0.3329175940756664 1.1013241014714221 -0.34116186078340177 4.3935050940595426 4.5000000000000009 -0.068577697524707715 1.517369445444372 5.3234368117189037 1.444233338078168 4.5000000000000009 3.5000000000000004 0.97075000759267838 0.56983219354208769 0.39566790382613487 1.081694586278505 0.5466058916287474 0.010807840975153931 0.73441288567604068 4.3935050940595426 4.7817047775388195 0.86385715669557139
decision_type=2 2 2 2 2 2 2 2 2 2 2 2 2 2 2 2 2 2 2 2 2 2 2 2 2 2 2 2 2 2
left_child=3 2 4 6 16 7 8 10 -1 17 12 -3 13 29 -10 22 26 -6 19 27 21 -4 -13 -19 -11 -9 -2 -16 -29 -5
right_child=1 11 20 5 9 -7 -8 25 14 24 -12 15 -14 -15 18 -17 -18 23 -20 -21 -22 -23 -24 -25 -26 -27 -28 28 -30 -31
leaf_value=-0.047933741176819339 -0.10671222410417794 -0.017921314114992575 0.25774878727144229 0.074291234943509685 -0.074196587525775459 0.15262000552985452 0.15410033157687361 0.018837938946977391 -0.063655238490403276 0.017191776975305856 0.11100231377396358 0.053257575039015105 0.14872986264235388 0.0014808540615250552 0.017726463600822129 -0.039044903613037564 0.053388089119319408 0.055058171053560624 -0.026158380912264495 0.10570755565157329 0.15499803104502019 -0.049886578114059082 0.11139355381387635 -0.047304382427952978 -0.049666709656698893 -0.09154406640747538 -0.068953603668202357 0.18583090766306223 -0.092218910388264547 0.037019916342675235
leaf_weight=182.10735648870468 749.86128126829863 53.024059176445007 4.5839354246854773 309.62814520299435 291.3021047860384 137.50438974797726 32.780896529555321 147.64525175094604 34.216917380690575 123.4623655974865 236.12762190401554 82.307091280817986 37.192911863327026 81.938981428742409 370.7701481282711 12.791177123785017 6.8817659169435492 16.218882024288177 60.67377533018589 22.674059823155403 42.025813817977905 11.357168659567831 74.313374489545822 43.130074486136436 35.763162329792976 10.087941184639929 99.043846115469933 11.252175346016886 4.8249825537204734 106.24998179078102
leaf_count=1241 6968 300 29 1317 2284 593 140 718 205 691 967 365 157 400 1841 58 33 100 328 108 178 63 310 319 217 54 853 46 23 490
internal_value=-0.00151843 -0.0549207 -0.0714094 0.0477047 -0.0797976 0.0767848 0.00455579 0.0654717 -0.00267728 -0.0440146 0.0764945 0.0504884 0.0611563 0.0544508 0.0136731 0.0719485 -0.101067 -0.0649125 0.0193833 0.0261787 0.125033 0.0431154 0.0811723 -0.0189374 0.00200382 0.0114482 -0.102362 0.0213611 0.101516 0.0648489
internal_weight=3431.74 1646.07 1423.63 1785.68 1365.66 1066.38 719.3 928.871 686.519 509.877 771.138 222.436 535.01 497.817 504.412 169.412 855.787 350.651 470.195 409.521 57.9669 15.9411 156.62 59.349 159.226 157.733 848.905 386.847 16.0772 415.878
internal_count=21396 12768 11735 8628 11465 4696 3932 4103 3792 3611 3331 1033 2364 2207 2551 733 7854 2703 2346 2018 270 92 675 419 908 772 7821 1910 69 1807
is_linear=0
shrinkage=0.1


Tree=8
num_leaves=31
num_cat=0
split_feature=8 2 16 9 2 0 3 1 8 3 9 3 5 11 9 8 3 3 13 7 5 3 13 16 11 1 13 13 13 11
split_gain=713.032 281.565 186.002 106.447 91.0097 64.2547 38.5016 37.1201 32.917 31.2668 31.5217 25.9155 35.368 24.7701 23.8163 16.9458 15.9719 15.6234 13.7222 13.2843 11.4246 13.6397 11.2308 10.2394 10.0713 9.85167 13.5596 28.688 21.5981 9.79512
threshold=-0.34116186078340177 0.80625192815758961 1.0000000180025095e-35 0.48841518019942326 0.42545064815652506 -1.0240672330231855 4.4821294590982204 0.55869982736570301 0.39566790382613487 4.3298453388909151 -0.34046690514389166 4.3935050940595426 -0.39893722908961921 4.5000000000000009 -0.34892488560657858 0.081098273550524971 4.3935050940595426 4.4821294590982204 12.500000000000002 1.0548596199267537 -0.39893722908961921 5.1561739255895693 2.5000000000000004 1.0000000180025095e-35 4.5000000000000009 1.7290762964574165 3.5000000000000004 8.5000000000000018 2.5000000000000004 4.5000000000000009
decision_type=2 2 2 2 2 2 2 2 2 2 2 2 2 2 2 2 2 2 2 2 2 2 2 2 2 2 2 2 2 2
left_child=4 2 7 9 5 -1 8 16 24 10 -4 14 -13 18 -7 29 -2 22 25 -15 21 -11 -9 -16 -5 26 28 -28 -10 -12
right_child=1 -3 3 6 -6 11 -8 17 13 20 15 12 -14 19 23 -17 -18 -19 -20 -21 -22 -23 -24 -25 -26 -27 27 -29 -30 -31
leaf_value=-0.10628294586698842 -0.06050482474444592 0.14521372502922933 -0.038006587499963357 0.033860780096324011 0.1061148366984543 -0.083613096303745693 0.13705880450198274 -0.064054025887291782 0.035614786120946831 -0.12324868307637107 0 -0.056392497949860482 0.21813653769330502 0.039390055860366154 -0.07135827775365558 0.027372503484035832 0.087400477841269836 0.11885743971974604 -0.027220326482900927 -0.075966834526656951 0.14815651301058019 0.10098889730325521 9.1309692181056859e-05 -0.033463625185560612 -0.023072709660278107 0.12836664952070601 -0.050286308348961452 0.074442993203901547 0.12473267750013815 -0.068197888614950478
leaf_weight=390.26196373254061 277.73715939372778 193.29701581597328 134.5335543975234 209.6982199177146 28.281516149640083 230.97319912165403 62.866938583552837 31.055633701384068 37.517102405428886 3.7487150877714175 180.37512867897749 10.563068538904192 7.6752438545227042 95.967924699187279 95.762636952102184 400.17704237252474 7.0206132829189292 9.5280962437391263 10.760980576276777 10.61897501349449 21.108231291174889 6.9724714308977127 199.85680937021971 293.86564052850008 35.881520323455334 48.384223446249962 20.388859778642654 159.67450819909573 107.25122433900833 23.370904728770256
leaf_count=3770 2164 864 899 1054 145 1966 275 204 163 20 1053 61 41 423 860 2025 40 42 49 55 93 33 1189 2110 202 202 95 697 460 142
internal_value=-0.00150041 0.0298833 0.0192028 0.036443 -0.0693948 -0.074277 0.0620059 -0.0322779 0.0554941 0.00989097 0.00565856 -0.0546414 0.061342 0.0704619 -0.0581127 0.0154256 -0.0566764 -0.0032832 0.0823095 0.0275029 0.106169 0.0196938 -0.0086122 -0.0428825 0.0254716 0.0855265 0.0789272 0.0601642 0.101908 -0.00799985
internal_weight=3345.18 2287.79 2094.49 1569.3 1057.38 1029.1 799.01 525.198 736.144 770.286 738.457 638.84 18.2383 490.564 620.601 603.923 284.758 240.441 383.977 106.587 31.8294 10.7212 230.912 389.628 245.58 373.216 324.832 180.063 144.768 203.746
internal_count=21396 12443 11579 7940 8953 8808 3675 3639 3400 4265 4119 5038 102 2144 4936 3220 2204 1435 1666 478 146 53 1393 2970 1256 1617 1415 792 623 1195
is_linear=0
shrinkage=0.1


Tree=9
num_leaves=31
num_cat=0
split_feature=14 14 2 2 1 9 9 9 3 1 3 3 3 9 13 13 13 5 13 14 13 3 2 2 3 9 10 13 9 7
split_gain=673.402 250.041 176.054 163.782 129.348 103.676 67.4483 26.5908 24.9209 24.8448 22.5896 42.5143 19.86 19.4813 19.184 53.8915 25.9079 18.7299 16.386 15.4315 14.8374 13.6286 12.6899 24.5076 12.5564 9.08523 9.00311 8.67874 8.45683 7.95027
threshold=1.0000000180025095e-35 4.5000000000000009 0.48263811953477681 0.53215574181053371 0.94882531706294071 0.48841518019942326 -0.34892488560657858 1.2637300559457214 4.3298453388909151 -0.22155115202877271 4.3935050940595426 4.7817047775388195 3.7007371701656555 0.68576805766211735 3.5000000000000004 8.5000000000000018 2.5000000000000004 -0.45071463456778033 12.500000000000002 1.5000000000000002 3.5000000000000004 5.3234368117189037 0.97075000759267838 0.56983219354208769 4.4821294590982204 -0.23333248594985781 0.40053834389162096 12.500000000000002 -1.5781513795170727 1.2525398359260784
decision_type=2 2 2 2 2 2 2 2 2 2 2 2 2 2 2 2 2 2 2 2 2 2 2 2 2 2 2 2 2 2
left_child=3 2 5 4 6 21 24 17 13 20 12 -12 14 27 16 -16 -8 -7 -17 29 -3 25 23 -4 28 -2 -11 -6 -1 -9
right_child=1 9 22 -5 8 7 10 19 -10 26 11 -13 -14 -15 15 18 -18 -19 -20 -21 -22 -23 -24 -25 -26 -27 -28 -29 -30 -31
leaf_value=-0.093891117371490751 -0.10159951041427262 0.052583928695017906 0.19799201110416134 0.13869044758757268 0.044155551210474847 0.19648102763084441 0.021362194839747307 0.037571363780856813 0.13692009278988479 0.063870933023293205 0.16198638278486821 -0.062590711922792752 -0.11873591433754041 0.079641045362846288 -0.035316112630855011 0.051777605877584433 0.081097427999039684 -0.052193658183802977 0.0017441008412434863 -0.054199094731635922 -0.035686749046755693 0.031075083224530672 0.13874757695935111 -0.052692388708422792 0.084043091457666641 -0.079284994767827827 0.14730338445802679 -0.036925100295360162 -0.038052540585886245 -0.062173206909005033
leaf_weight=33.925725355744362 587.35774414241314 32.968500018119812 5.3725180625915554 154.96087650954723 167.39335729181767 2.5733636021614066 263.92983738332987 85.631864748895168 52.323572352528572 127.86666144430637 27.96713699400425 11.582201614975927 9.8264593929052335 300.80300354957581 181.21198747307062 186.36558119207621 100.3747006431222 226.6594712138176 101.44960206001997 29.227033287286758 43.648863539099693 8.4228334128856641 38.415723696351051 11.091023772954939 6.8962823003530493 291.64194816350937 14.616401761770247 13.820656090974806 144.46734806150198 8.2880932837724668
leaf_count=256 6148 163 29 733 705 11 1311 461 236 548 122 56 52 1225 939 894 469 1730 507 188 257 40 178 63 37 2832 65 64 1022 55
internal_value=-0.00144341 -0.0503234 -0.0670437 0.0406597 0.0311327 -0.0748166 0.0110129 -0.0288311 0.0712798 0.0483604 0.0225364 0.096008 0.0190234 0.0639992 0.0207301 0.00731779 0.0379367 -0.048937 0.03421 0.0085609 0.00226117 -0.0930388 0.107466 0.0319481 -0.0437433 -0.0942565 0.0729848 0.0378322 -0.0489602 0.0283807
internal_weight=3271.08 1513.78 1294.68 1757.3 1602.34 1239.8 1068 352.38 534.341 219.1 882.708 39.5493 843.158 482.017 833.332 469.027 364.305 229.233 287.815 123.147 76.6174 887.423 54.8793 16.4635 185.289 879 142.483 181.214 178.393 93.92
internal_count=21396 12768 11735 8628 7895 11465 5665 2445 2230 1033 4350 178 4172 1994 4120 2340 1780 1741 1401 704 420 9020 270 92 1315 8980 613 769 1278 516
is_linear=0
shrinkage=0.1


Tree=10
num_leaves=31
num_cat=0
split_feature=12 2 12 8 2 8 3 9 1 9 9 1 3 3 11 2 2 9 0 3 3 2 5 8 9 11 15 8 8 11
split_gain=587.064 206.179 177.815 127.236 104.378 70.7852 62.8062 43.0393 42.6301 35.1966 26.9934 23.3902 21.1492 30.0208 20.6263 20.181 19.6553 17.5135 16.1927 14.5416 12.4795 10.736 10.3995 10.2689 9.86011 9.41643 11.5192 9.07671 9.02524 9.57723
threshold=2.5000000000000004 0.53215574181053371 1.0000000180025095e-35 -0.33265997888406096 0.97075000759267838 -0.15978838026413125 4.3935050940595426 0.43484797060240626 -0.22155115202877271 0.43484797060240626 -0.34892488560657858 1.3389508067601785 4.7817047775388195 5.1561739255895693 4.5000000000000009 0.27427388558366433 0.2561084534988079 -0.54909708989016814 -1.0240672330231855 3.6220986490749985 5.3234368117189037 0.27427388558366433 -0.36701230032329196 0.55153573864738303 1.3426712069307991 4.5000000000000009 3.5000000000000004 -0.069101640004495965 1.129663707802558 4.5000000000000009
decision_type=2 2 2 2 2 2 2 2 2 2 2 2 2 2 2 2 2 2 2 2 2 2 2 2 2 2 2 2 2 2
left_child=1 2 7 10 5 20 8 -1 17 -7 -4 14 -8 -14 15 16 -10 -5 -12 23 -2 25 -20 24 -11 26 -19 -26 -9 -30
right_child=4 -3 3 6 -6 9 12 28 11 19 18 -13 13 -15 -16 -17 -18 21 22 -21 -22 -23 -24 -25 27 -27 -28 -29 29 -31
leaf_value=-0.082540965040176537 -0.10114129817971061 0.12765022521291333 -0.059686499908352654 -0.044219452306794284 0.13266339103266056 -0.077027327130082424 0.14758225604488454 -0.027026545234616908 0.048696170538047909 -0.066836295993461817 -0.071544770369728242 0.079855652162605595 -0.15320484078820029 0.1080881762728448 0.0047562870982029029 -0.069366034919878458 0.21520696771017486 -0.027385628220115012 0.11697897175668073 0.1092627703833014 0.056028324344499281 -0.079085540623171621 0.00064433400953018728 0.0093573287736006348 0.12214154329903122 -0.013498972232774671 0.035410218651999358 -0.020652023017490501 0.058367027815343642 -0.052246862164457446
leaf_weight=198.54033488035202 539.01586391031742 176.92843009531498 130.23306077718735 52.851253338158131 23.697543501853943 136.15693962574005 70.420568466186523 66.150933258235455 567.19779417663813 51.742490813136101 31.142341166734695 184.30837585031986 5.8028162270784405 14.017343774437903 136.85076760500669 13.823227778077124 6.7642178982496253 32.491594880819321 7.454750917851924 9.3447695523500425 4.7223989069461814 10.715533167123793 231.96694572269917 79.537299104034901 5.0100506246089962 66.420243427157402 251.30364608764648 22.523245170712471 32.089997991919518 9.783445402979849
leaf_count=2034 6167 882 998 355 116 1316 326 453 2402 393 217 763 27 64 638 63 28 156 35 49 22 54 1343 464 33 347 1156 119 182 52
internal_value=-0.00242445 0.024087 0.0154125 0.0273239 -0.0722734 -0.0780866 0.0414295 -0.0549572 0.0358814 -0.0393219 -0.0223688 0.0479917 0.121998 0.029209 0.0398239 0.0479605 0.0508615 0.00922903 -0.00429241 -0.0085947 -0.0997077 0.0171335 0.0045445 -0.0159135 -0.0412928 0.0202146 0.0281501 0.00668953 -0.00402159 0.0319753
internal_weight=3169.01 2297.26 2120.33 1813.76 871.751 848.053 1412.97 306.565 1322.73 304.315 400.797 908.944 90.2407 19.8202 724.636 587.785 573.962 413.782 270.564 168.158 543.738 360.931 239.422 158.813 79.2758 350.215 283.795 27.5333 108.024 41.8734
internal_count=21254 12575 11693 8972 8679 8563 6379 2721 5962 2374 2593 3894 417 91 3131 2493 2430 2068 1595 1058 6189 1713 1378 1009 545 1659 1312 152 687 234
is_linear=0
shrinkage=0.1


Tree=11
num_leaves=31
num_cat=0
split_feature=12 5 12 5 9 9 3 9 3 9 5 5 5 5 9 3 7 3 6 13 13 13 13 7 6 3 3 14 3 7
split_gain=504.054 180.795 148.172 92.3845 91.6917 60.9965 47.1368 39.1258 31.3998 24.5388 24.1443 25.3419 36.0767 43.753 26.8028 23.3034 23.0246 21.3157 19.9906 16.4799 47.6736 18.8107 15.0226 14.5929 13.2327 12.7896 11.8687 8.7752 8.07859 7.60388
threshold=2.5000000000000004 0.54204333938006932 1.0000000180025095e-35 0.49268042431280701 -0.23333248594985781 0.43484797060240626 4.3935050940595426 0.43484797060240626 3.5472048194648487 -0.65341218226330644 0.46498085376555243 0.4356716229443654 0.28496717979743807 0.26685850171569786 0.83237305234868997 4.7817047775388195 0.10945622840326431 5.7378493355617337 -0.56929228565605239 8.5000000000000018 3.5000000000000004 2.5000000000000004 12.500000000000002 -1.1958845046709263 -0.56929228565605239 5.8501900799769588 3.6220986490749985 1.5000000000000002 4.3298453388909151 0.43767963714361385
decision_type=2 2 2 2 2 2 2 2 2 2 2 2 2 2 2 2 2 2 2 2 2 2 2 2 2 2 2 2 2 2
left_child=1 2 7 5 9 25 8 -1 10 23 11 12 13 14 19 -8 -16 -17 -7 20 21 -6 -21 -4 -11 -2 27 -20 -26 -9
right_child=3 -3 4 -5 6 18 15 29 -10 24 -12 -13 -14 -15 16 17 -18 -19 26 22 -22 -23 -24 -25 28 -27 -28 -29 -30 -31
leaf_value=-0.079510149922815562 -0.095095660843563343 0.12184971104053739 0.0059062577289626904 0.10125341322235122 0.010780250518570284 -0.069173108628816538 0.14152075978924736 0.0092844189016184041 -0.14221506376004087 -0.040402868751758705 -0.13834304011174828 0.24444047611369349 -0.1329687334608953 0.22592373316303982 0.074247495643657152 -0.088308099372016516 0.023529985753931747 0.12758833644477324 -0.0019158749935858255 0.054264932352338924 -0.050088059960658765 0.061895650583913803 -0.00014461336148540347 -0.051980966946242005 0.011997408763793058 0.11874973082846954 0.10124851531369639 -0.062058490862904797 0.10344734314054255 -0.057369642070315176
leaf_weight=186.16377153247595 554.73304041475058 167.33767394721508 60.811542063951492 30.030999973416328 187.70212729275227 91.169874608516693 63.786830246448517 86.866220988333225 9.4151108562946302 49.440488986670971 7.3426103740930548 5.4306618422269812 11.909390717744825 11.852224081754683 263.54564209282398 9.4917574524879473 137.38485904037952 7.9213740825653067 100.07124654203653 230.52656291425228 96.003952272236347 117.18051914870739 64.555947706103325 149.51749300211668 312.89373549818993 2.3670607805252066 8.6181379705667478 31.698071025311947 9.5189145952463132 20.761463284492493
leaf_count=2034 6724 882 339 159 871 885 311 527 48 361 34 25 62 51 1084 45 619 38 632 1020 479 509 309 1144 1578 11 43 225 45 160
internal_value=-0.00231749 0.0219652 0.0139742 -0.0695532 0.0246929 -0.07613 0.0402277 -0.0518203 0.0349506 -0.00795859 0.0364931 0.0377029 0.0365836 0.0384729 0.0363363 0.113709 0.0569442 0.0101666 -0.0328313 0.0244179 0.011159 0.0305282 0.0423477 -0.0352225 0.00746228 -0.0940635 -0.00899759 -0.0166391 0.0148843 -0.00368655
internal_weight=3086.05 2267.36 2100.02 818.688 1806.23 788.657 1224.05 293.791 1142.85 582.182 1133.43 1126.09 1120.66 1108.75 1096.9 81.2 400.931 17.4131 231.557 695.969 400.887 304.883 295.083 210.329 371.853 557.1 140.387 131.769 322.413 107.628
internal_count=21254 12575 11693 8679 8972 8520 5505 2721 5111 3467 5063 5029 5004 4942 4891 394 1703 83 1785 3188 1859 1380 1329 1483 1984 6735 900 857 1623 687
is_linear=0
shrinkage=0.1


Tree=12
num_leaves=31
num_cat=0
split_feature=12 2 12 8 8 5 2 9 1 11 9 2 2 9 5 5 5 5 2 2 2 8 2 0 13 5 0 8 14 13
split_gain=432.299 159.011 123.483 89.186 89.0595 50.8399 42.8331 35.4797 29.6175 28.4749 26.4877 21.2267 19.7281 18.0671 17.5699 17.3483 24.0902 15.9875 15.7942 28.71 23.0702 15.5562 14.4574 13.4852 11.798 11.2361 11.1551 10.2766 10.62 9.81777
threshold=2.5000000000000004 0.53215574181053371 1.0000000180025095e-35 -0.34116186078340177 -0.15978838026413125 -0.38116389689828162 0.48263811953477681 0.43484797060240626 1.3389508067601785 4.5000000000000009 -0.23333248594985781 0.45485173638275572 0.97075000759267838 -0.34892488560657858 -0.33401426470767637 -0.39893722908961921 -0.42214316470547897 -0.45071463456778033 0.42545064815652506 0.27427388558366433 0.2561084534988079 1.3790522435165553 0.010807840975153931 -0.95145475649554101 3.5000000000000004 -0.42938663593817511 1.517369445444372 0.29364532103404523 1.0000000180025095e-35 8.5000000000000018
decision_type=2 2 2 2 2 2 2 2 2 2 2 2 2 2 2 2 2 2 2 2 2 2 2 2 2 2 2 2 2 2
left_child=1 2 7 13 12 15 10 -1 9 11 -6 14 25 -4 -7 16 -5 -12 19 20 22 -19 26 -15 -25 -2 27 28 -16 -26
right_child=4 -3 3 5 6 8 -8 -9 -10 -11 17 -13 -14 23 18 -17 -18 21 -20 -21 -22 -23 -24 24 29 -27 -28 -29 -30 -31
leaf_value=-0.076497265811561355 0.050598977160188935 0.11666278151071162 -0.052738569059285582 0.096562396941636305 -0.088375065435246009 -0.12856979064741844 0.10762397174733369 -0.0033640252633201449 0.066693901750336196 -0.0085568548749382582 0.17214482649935567 -0.13383720838565466 0.099157305098222029 -0.056483984688837086 0.019608326607359478 0.13498084764717219 -0.14221661445401271 -0.033292401488319433 0.21101033323321094 -0.12834755888627689 0.1902657547706319 0.040470427006616259 -0.130141035111102 0.031963563514802187 -0.046970486927705557 -0.097652905758022823 -0.0024824334762324333 0.048343363415939783 0.070210104702952414 0.0092437328112804501
leaf_weight=174.76298402249813 4.7947003841400138 157.81700569391251 120.07129893451929 13.534086480736734 69.129732131958008 6.2345300316810599 22.298388727009296 107.2843901887536 181.10748866200447 226.56352182477713 3.8700232654809943 7.2488827779889098 4.8031592518091193 43.149279020726681 352.19329436123371 63.319734409451485 5.5384497493505469 171.24236629158258 4.5214063823223105 10.462586872279642 8.9487640708684904 33.748590305447578 4.9118399992585173 90.125643447041512 54.698335461318493 460.6929772272706 77.069235637784004 410.31798458844423 46.925290755927563 70.258236721158028
leaf_count=2034 22 882 990 64 800 33 120 687 763 1141 17 35 26 299 1588 327 27 1313 20 55 37 214 26 507 336 6167 379 1732 216 397
internal_value=-0.00220475 0.0200442 0.0126796 0.0223397 -0.0667795 0.0338427 -0.0241341 -0.0487696 0.0291064 0.0231797 -0.0349129 0.0309322 -0.0939336 -0.0207658 0.0323109 0.109912 0.024851 -0.0170012 0.0334872 0.0324797 0.0344299 -0.0210309 0.0327484 -0.00578743 0.00444423 -0.0960517 0.0337351 0.0371952 0.0256631 -0.0153728
internal_weight=3007.64 2237.06 2079.25 1797.2 770.58 1418.9 300.289 282.047 1336.5 1155.4 277.991 928.834 470.291 378.303 921.585 82.3923 19.0725 208.861 915.35 910.829 900.366 204.991 891.418 258.231 215.082 465.488 886.506 809.437 399.119 124.957
internal_count=21254 12575 11693 8972 8679 6443 2464 2721 6025 5262 2344 4121 6215 2529 4086 418 91 1544 4053 4033 3978 1527 3941 1539 1240 6189 3915 3536 1804 733
is_linear=0
shrinkage=0.1


Tree=13
num_leaves=31
num_cat=0
split_feature=8 5 16 0 3 1 4 5 1 11 8 4 3 3 5 8 17 1 16 3 4 15 3 3 3 0 0 3 7 0
split_gain=356.877 142.277 68.3744 65.3469 44.5293 35.5826 32.0604 28.5904 22.7048 16.9383 17.2662 16.794 12.8494 12.5364 12.2794 12.186 10.3147 8.74905 8.74813 8.70302 7.97562 7.82283 7.28926 25.7059 7.0943 7.06758 8.9886 6.82102 6.74848 6.66457
threshold=-0.34116186078340177 0.81528317088010582 1.0000000180025095e-35 -0.95145475649554101 4.4821294590982204 1.3389508067601785 -0.47007298912508177 0.4356716229443654 1.0000000180025095e-35 4.5000000000000009 0.29364532103404523 0.092020419115441926 4.3935050940595426 4.7242861748377045 0.54204333938006932 0.41550562825793008 36.500000000000007 -0.61167664172601044 1.0000000180025095e-35 4.3935050940595426 0.41321665239574129 3.5000000000000004 4.7242861748377045 5.1561739255895693 4.4821294590982204 0.065119914891481889 -0.66100485038496293 4.4821294590982204 -0.13683515489070744 2.0256567811378838
decision_type=2 2 2 2 2 2 2 2 2 2 2 2 2 2 2 2 2 2 2 2 2 2 2 2 2 2 2 2 2 2
left_child=3 2 8 14 5 6 -4 11 19 10 16 12 17 -14 24 -7 -8 -5 -13 -2 27 -18 -6 -24 -1 26 -22 -10 -27 -11
right_child=1 -3 4 7 22 15 9 -9 20 29 -12 18 13 -15 -16 -17 21 -19 -20 -21 25 -23 23 -25 -26 28 -28 -29 -30 -31
leaf_value=-0.097292882225287064 -0.049478698126228619 0.11798832826591794 -0.047615944402073888 -0.080135978068122629 0.1217832806253084 -0.0086974378827580304 -0.049578998085799506 0.078877000554416113 -0.014854031361297822 -0.0050211068040440518 0.03503655983883134 -0.076440937627137828 0.17410726683405953 -0.040719353587327693 0.085210004726285551 0.066730246750334232 -0.030203989485465051 -0.044719726666193477 -0.0034697948282952518 0.074146440678041811 -0.022026066896849772 0.016456194978421507 -0.13123860003751275 0.1053719346919656 0.043985874079899956 0.044990816176092671 0.10229498722664609 0.082588291451746065 -0.044699464936683843 -0.0810460521132189
leaf_weight=309.27594781666994 197.80189344286919 137.15805895626545 81.653200291097164 106.34068924188614 48.0815824046731 23.924277998507023 28.384089812636375 20.416090652346611 184.59735338389874 181.77171354740858 510.98598938435316 18.327226713299751 4.3845803290605527 5.6654752418398857 3.3745407611131659 179.72333341836929 39.008530683815479 219.50779612362385 132.40845096111298 5.3723649531602851 7.7550353035330799 387.05238252878189 5.4179078042507198 20.109587416052818 3.2321659848093978 15.802019044756888 19.862173579633236 6.9556090235710135 16.772621318697929 11.858166210353373
leaf_count=4223 1913 820 611 1181 275 132 157 119 1309 993 2390 196 22 36 19 804 255 2087 994 33 52 2117 31 96 26 76 100 33 89 65
internal_value=-0.00209717 0.0196841 0.0128166 -0.0579359 0.0230098 0.0191149 0.012733 -0.0356056 -0.0211619 0.0170118 0.0224271 -0.0405051 -0.0529464 0.0558657 -0.0936356 0.0578205 0.0082038 -0.0564135 -0.0126315 -0.0459867 -0.00103554 0.0121303 0.0986578 0.0532135 -0.0957318 0.0305228 0.0672585 -0.0110579 -0.000865793 -0.00992524
internal_weight=2932.98 2110.05 1972.89 822.933 1517.97 1444.36 1240.71 507.05 454.919 1159.06 965.431 486.634 335.899 10.0501 315.883 203.648 454.445 325.848 150.736 203.174 251.745 426.061 73.6091 25.5275 312.508 60.1918 27.6172 191.553 32.5746 193.63
internal_count=21254 12351 11531 8903 7926 7524 6588 4635 3605 5977 4919 4516 3326 58 4268 936 2529 3268 1190 1946 1659 2372 402 127 4249 317 152 1342 165 1058
is_linear=0
shrinkage=0.1


Tree=14
num_leaves=31
num_cat=0
split_feature=8 2 14 14 14 3 4 8 14 1 4 16 3 3 3 5 2 2 13 13 13 13 13 17 4 6 4 8 13 3
split_gain=304.3 132.405 95.0958 85.5138 81.3536 34.7684 32.6861 32.4916 26.5619 20.0473 23.0606 19.5655 17.3261 15.0648 13.899 15.743 13.3928 11.3284 10.3952 11.5027 9.71789 56.3201 42.0405 9.95744 8.98612 8.91509 8.51812 8.30553 7.19928 6.83083
threshold=-0.42051275851058262 0.80625192815758961 1.0000000180025095e-35 1.0000000180025095e-35 4.5000000000000009 4.3935050940595426 0.73441288567604068 1.1154939046369901 4.5000000000000009 1.7290762964574165 -0.47007298912508177 1.0000000180025095e-35 3.7194606275681932 5.8501900799769588 4.7817047775388195 -0.42214316470547897 0.42545064815652506 0.8724548362001775 3.5000000000000004 8.5000000000000018 3.5000000000000004 8.5000000000000018 2.5000000000000004 27.500000000000004 0.65411382735596579 1.5496514990810111 -0.47007298912508177 2.4701270872652921 11.500000000000002 5.3234368117189037
decision_type=2 2 2 2 2 2 2 2 2 2 2 2 2 2 2 2 2 2 2 2 2 2 2 2 2 2 2 2 2 2
left_child=3 2 5 16 6 9 7 13 17 10 -2 -9 20 -4 -7 -16 18 29 24 -20 22 -22 23 -12 -1 -6 -13 -23 -8 -5
right_child=1 -3 4 8 25 14 28 11 -10 -11 12 26 -14 -15 15 -17 -18 -19 19 -21 21 27 -24 -25 -26 -27 -28 -29 -30 -31
leaf_value=-0.01186083542285611 -0.034818995756378639 0.11449070997394944 -0.066112343181313676 -0.097030656696747986 0.051674709152733679 0.12350821069707459 0.011680376624637433 -0.031006884666039333 -0.0097346472546678883 0.077930576347666092 -0.07750160335982284 -0.047575196173532126 -0.11883741228409546 0.17249781421886343 0.076272082854168893 -0.12803006410097717 0.085163669448163296 0.081400969565012471 -0.062837372085653612 -0.0099527075661412449 -0.035072355909789264 0.036010155865570645 0.068573351558193121 0.012951151016147029 0.056286247405268414 -0.051621469617889798 0.08779625192005297 -0.049317956674374774 -0.072646260678481192 0.022205634015942517
leaf_weight=77.187317498028278 71.884798429906368 129.8734658062458 332.68619478493929 387.36948474869132 145.48987354338169 49.498852714896202 132.93350999802351 59.253816947340965 41.725068688392639 62.295089140534401 12.274204373359678 5.1614809632301322 7.9860592335462561 2.181045949459075 12.953725174069406 4.7318225502967826 12.180877670645712 3.2323284447193137 79.138048194348812 86.610564596951008 158.58249592781067 451.79035959392786 210.55368001013994 249.81358842551708 25.234232351183891 8.3764122724533063 26.917312428355217 11.187443017959593 10.440352812409399 4.5562988072633734
leaf_count=557 454 832 3701 6042 632 297 850 515 271 270 55 57 45 10 64 26 71 19 631 584 762 1982 901 1122 152 41 168 47 75 21
internal_value=-0.00196424 0.0167973 0.0105063 -0.0583704 -0.0185522 0.0266417 -0.0359891 -0.0498717 -0.086012 0.0228 0.0198344 0.00288581 0.0234221 -0.0642736 0.0965006 0.0190433 -0.0151833 -0.0940184 -0.0199285 -0.0353761 0.0245233 0.0162544 0.0353477 0.00853744 0.0050237 0.0458375 0.0653122 0.0338757 0.00523916 -0.0955925
internal_weight=2874.1 2156.87 2026.99 717.234 723.44 1303.55 569.574 426.2 436.883 1236.37 1174.07 91.3326 1102.19 334.867 67.1844 17.6855 280.351 395.158 268.17 165.749 1094.2 621.56 472.641 262.088 102.422 153.866 32.0788 462.978 143.374 391.926
internal_count=21254 12906 12074 8348 6049 6025 5376 4451 6353 5638 5368 740 4914 3711 387 90 1995 6082 1924 1215 4869 2791 2078 1177 709 673 225 2029 925 6063
is_linear=0
shrinkage=0.1


Tree=15
num_leaves=31
num_cat=0
split_feature=12 5 12 9 1 9 5 5 9 0 8 5 5 5 5 5 11 11 0 8 9 5 5 5 5 5 12 5 0 9
split_gain=294.742 114.192 87.1268 73.3037 53.8105 31.9476 29.5936 29.3497 20.4566 19.9959 18.3953 17.3575 16.8877 15.196 10.7973 30.2646 10.5254 10.3868 9.79982 9.68611 9.19669 9.15577 10.8312 9.14444 20.2946 13.8371 8.90495 13.5948 8.56493 8.16198
threshold=2.5000000000000004 0.54204333938006932 1.0000000180025095e-35 0.16701192261732153 -0.22155115202877271 0.04578086931880946 -0.38116389689828162 0.91166157978181239 -0.93252553753197376 -0.80622980344025197 0.50335840788445185 -0.33401426470767637 0.97926731128697597 0.46498085376555243 -0.36701230032329196 -0.39893722908961921 4.5000000000000009 5.5000000000000009 -1.0240672330231855 -0.020924309241564732 0.77034786228898622 -0.39893722908961921 -0.42905129004777248 0.46498085376555243 0.4356716229443654 0.28496717979743807 1.0000000180025095e-35 0.85425036334488769 -0.66100485038496293 1.30320063143826
decision_type=2 2 2 2 2 2 2 2 2 2 2 2 2 2 2 2 2 2 2 2 2 2 2 2 2 2 2 2 2 2
left_child=1 2 5 12 8 -1 21 10 -4 -8 29 -11 28 16 15 -10 -13 -18 -16 -7 -19 22 -6 24 25 -20 27 -3 -2 -5
right_child=3 26 4 7 6 19 9 -9 14 11 -12 13 -14 -15 18 -17 17 20 23 -21 -22 -23 -24 -25 -26 -27 -28 -29 -30 -31
leaf_value=-0.079950431267654345 -0.10138255375023471 -0.11655263557556375 -0.040872092300914341 -0.060114108822750582 0.096365350480327419 -0.073332362794884087 -0.028554596030101239 0.11812346810482624 -0.10309596635657703 -0.11113278280088829 0.0093913634470005267 0.040996519847444568 0.10765389450623891 -0.12769753287606581 -0.083863566314670096 0.15935515289787047 -0.0075818095610957455 0.01678633329868737 0.0069173541551811714 0.00099014655480636309 0.088377050496481049 0.12342503700935391 -0.077720001262484587 -0.12278235542203891 0.21907898753777957 -0.11798914695770893 0.11655608011137353 0.087119764480846629 -0.070462549631614579 -0.006924971848511834
leaf_weight=119.28735372424126 220.91672451421618 3.9138891398906734 110.32135003060102 116.06451352313161 8.6854102015495283 19.941776629537344 54.468330513685942 14.505040690302847 5.941206946969035 7.7242633104324332 92.259396262466908 746.36743192374706 4.006349951028823 5.22130063176155 12.081869591027496 13.533706083893774 99.737110294401646 56.238176085054874 547.61725783348083 121.52030818909407 26.417003616690636 46.293533071875572 5.3361332044005385 5.0098523944616309 3.9622879475355139 8.5091632902622205 118.22828657925129 12.193430736660956 167.40318010002375 39.114839568734169
leaf_count=1677 3885 22 965 1386 48 241 334 96 33 42 560 3218 26 26 123 68 460 266 2900 819 113 289 26 26 18 54 802 79 2375 286
internal_value=7.2347e-05 0.0178991 0.0119548 -0.0586946 0.0199382 -0.0419342 0.0342228 -0.0176339 -0.00140324 0.0300561 -0.0258546 0.0334701 -0.0860267 0.0347355 0.0059059 0.0782122 0.0357276 0.0140591 0.00338329 -0.00963797 0.0401812 0.102065 0.0290307 0.0053388 0.00661114 0.00488395 0.107018 0.0350086 -0.0881865 -0.0468367
internal_weight=2812.82 2158.55 2024.21 654.27 1763.47 260.749 1056.49 261.944 706.977 996.174 247.439 941.705 392.326 933.981 596.655 19.4749 928.76 182.392 577.18 141.462 82.6552 60.3151 14.0215 565.099 560.089 556.126 134.336 16.1073 388.32 155.179
internal_count=21263 12649 11746 8614 9009 2737 4822 2328 4187 4459 2232 4125 6286 4083 3222 101 4057 839 3121 1060 379 363 74 2998 2972 2954 903 101 6260 1672
is_linear=0
shrinkage=0.1


Tree=16
num_leaves=31
num_cat=0
split_feature=0 2 14 14 9 9 3 13 3 9 5 0 3 9 5 9 13 13 13 3 13 13 13 4 17 4 13 2 3 13
split_gain=223.192 127.811 96.8345 69.1419 58.9156 35.4135 21.8684 20.5969 18.9397 13.0699 12.8514 12.8449 11.9794 11.3217 10.9674 9.62443 9.23315 43.5574 22.5393 9.22664 8.27346 15.9593 18.5406 14.1423 9.53035 8.10595 8.41753 7.54168 7.49616 7.20263
threshold=-0.87884227996789643 0.80625192815758961 1.0000000180025095e-35 4.5000000000000009 0.04578086931880946 -0.25306777369612715 4.3935050940595426 1.5000000000000002 3.5472048194648487 0.12472202030388709 -0.45071463456778033 2.2434942107208173 4.7817047775388195 -1.6007059940842376 -0.45071463456778033 -0.4476013243379256 3.5000000000000004 8.5000000000000018 2.5000000000000004 5.3234368117189037 8.5000000000000018 3.5000000000000004 2.5000000000000004 -0.068577697524707715 35.500000000000007 1.3768053522366392 10.500000000000002 0.2561084534988079 4.4821294590982204 3.5000000000000004
decision_type=2 2 2 2 2 2 2 2 2 2 2 2 2 2 2 2 2 2 2 2 2 2 2 2 2 2 2 2 2 2
left_child=9 2 5 4 19 13 8 -6 11 -1 -9 16 -8 -2 -14 -5 18 -18 -7 -4 21 22 23 -15 -25 26 -19 28 -11 -12
right_child=1 -3 3 15 7 6 12 10 -10 27 29 -13 14 20 -16 -17 17 25 -20 -21 -22 -23 -24 24 -26 -27 -28 -29 -30 -31
leaf_value=-0.094840873427220806 -0.061278269786642692 0.10934595220596555 -0.074220098662613893 -0.0042348830902313997 -0.081310000133114291 0.015833831916694487 0.11865262920094247 0.14453941499576134 -0.12615049288696822 -0.061682067078043447 0.018559771175358307 -0.095806807427142482 0.083490411221325708 -0.09010426168943618 -0.092429843614547827 0.045841629042235175 -0.036062615818637955 0.056195605522830552 0.062934811840900565 0.045869527081710708 0.021078569813510712 -0.037642279847613744 0.077706210104302051 -0.097667418498604566 0.013210323177213901 0.006232063869955666 0.025785373769232758 0.0705399060202241 0.079558123410829393 -0.01493974853904499
leaf_weight=214.4313719458878 30.83706783503294 122.37925340235233 284.48856208473444 53.756198562681675 36.451693527400494 196.83215895295143 40.547202423214912 5.3423366844654074 7.5487451925873748 74.810080900788307 90.01156023144722 7.8251357227563849 7.8930369466543198 16.796004623174667 5.6200550496578199 130.0243338868022 109.19575891643763 178.37780015170574 212.03691130876541 6.1266219019889823 138.44003123044968 114.36752337217331 32.583376988768578 7.7681018561124793 121.57928489148617 85.90494079887867 192.26954855024815 4.6229340806603423 3.4773899838328353 219.19302978739142
leaf_count=3758 268 902 4406 290 340 882 281 24 46 910 686 36 45 118 28 580 534 769 912 30 810 722 175 51 675 385 840 34 21 1705
internal_value=1.75513e-05 0.00994015 0.00469649 -0.0228196 -0.0383114 0.0197823 0.0299825 -0.0106754 0.0265554 -0.0817271 -0.00234199 0.0278025 0.0917411 -0.00323627 0.00892468 0.0311681 0.0288538 0.0205128 0.0403316 -0.0715796 0.000954333 -0.00853679 0.0100851 -0.00513669 0.00612398 0.0340908 0.0405035 -0.0473259 -0.0548164 -0.0051413
internal_weight=2751.54 2454.2 2331.82 825.394 641.614 1506.42 1044.05 350.999 989.991 297.342 314.547 982.442 54.0603 462.371 13.5131 183.781 974.617 565.748 408.869 290.615 431.534 293.094 178.727 146.143 129.347 456.552 370.647 82.9104 78.2875 309.205
internal_count=21263 16540 15638 8061 7191 7577 4758 2755 4404 4723 2415 4358 354 2819 73 870 4322 2528 1794 4436 2551 1741 1019 844 726 1994 1609 965 931 2391
is_linear=0
shrinkage=0.1


Tree=17
num_leaves=31
num_cat=0
split_feature=12 2 8 12 9 9 2 9 8 13 2 2 2 2 2 0 7 0 2 4 13 13 13 0 11 16 9 12 2 8
split_gain=217.002 92.8744 63.2152 59.6269 36.5939 26.6971 24.4315 18.0153 16.1488 14.1574 13.3719 26.8583 18.3833 13.963 26.5064 12.3851 13.0986 14.3917 11.2229 10.9541 8.5108 38.6545 26.1968 10.3445 8.4928 8.57851 9.94803 8.24993 11.4618 8.19625
threshold=3.5000000000000004 0.53215574181053371 -0.28731660875424331 1.0000000180025095e-35 -0.25306777369612715 0.04578086931880946 0.97075000759267838 -0.23333248594985781 -0.93629359373725829 8.5000000000000018 0.27427388558366433 0.2561084534988079 0.010807840975153931 0.42545064815652506 0.45485173638275572 -0.95145475649554101 0.85604891166476305 1.0090821097508604 0.97075000759267838 0.73441288567604068 3.5000000000000004 8.5000000000000018 2.5000000000000004 1.4447569689167274 1.0000000180025095e-35 1.0000000180025095e-35 2.0531415657964978 1.0000000180025095e-35 0.97075000759267838 1.2685277788251248
decision_type=2 2 2 2 2 2 2 2 2 2 2 2 2 2 2 2 2 2 2 2 2 2 2 2 2 2 2 2 2 2
left_child=1 3 18 5 8 -1 7 -4 19 -9 11 12 15 -12 -15 -6 20 -18 -2 -5 22 -22 -17 29 -7 -26 -27 28 -3 -23
right_child=2 27 6 4 10 24 -8 9 -10 -11 13 -13 -14 14 -16 16 17 -19 -20 -21 21 23 -24 -25 25 26 -28 -29 -30 -31
leaf_value=-0.074769190333087196 -0.089193149140587 -0.075984576599442799 -0.075173001488520519 -0.070293834361114874 -0.039248296066924357 0.1096192839973737 0.11267726528643265 -0.041469484249885551 0.0011158106517321234 0.011435505831645269 -0.12793253311865946 0.1730892313077908 -0.13862341470576317 0.17253622928528739 -0.11285025832819817 0.01630193225576133 0.012480433938780207 -0.082311370998009684 0.099584272341197072 0.050933665916063964 -0.03205394934973551 0.033686750971344021 0.065978589880556313 -0.0093562863024164132 -0.036050919359070191 -0.0011307346444897181 0.11696246871033462 0.11065421910241913 0.099435597207521612 0.068357157474862915
leaf_weight=104.66947828233242 290.12700404599309 5.8089818060398093 59.556362994015217 52.083718992769718 27.068147867918015 5.3799152448773375 12.633379027247427 92.378265518695116 521.34215270355344 110.27155554294586 10.943838492035868 12.0855176448822 6.2408924177289 5.7819741219282133 6.2430906966328621 200.33942126110196 87.599428959190845 19.06161954253912 2.7427077889442435 8.2171958424150926 100.67994439229369 348.18521791324019 227.92481920868158 45.13457515835762 73.175671685487032 52.875832073390484 7.7158947587013236 103.38551848381758 8.5600444078445417 86.378261566162109
leaf_count=1677 5624 35 905 602 207 38 98 849 3043 849 62 53 32 24 33 919 435 94 19 77 502 1560 1030 195 593 391 38 808 66 405
internal_value=-2.08295e-05 0.0146389 -0.0549246 0.00956181 0.01597 -0.0367325 -0.0203736 -0.0270245 -0.00455221 -0.0126748 0.0260606 0.0275674 0.0259529 -0.0486231 0.0249826 0.026921 0.0285527 -0.0046717 -0.0872245 -0.0533267 0.0320766 0.0241094 0.0428096 0.035939 -0.00788362 -0.0130745 0.014578 0.100773 0.0276754 0.0406718
internal_weight=2694.59 2126.88 567.709 2009.13 1765.31 243.817 274.84 262.206 581.643 202.65 1183.67 1160.7 1148.61 22.9689 12.0251 1142.37 1115.3 106.661 292.87 60.3009 1008.64 580.378 428.264 479.698 139.147 133.767 60.5917 117.755 14.369 434.563
internal_count=21263 12919 8344 12010 9273 2737 2701 2603 3722 1698 5551 5432 5379 119 57 5347 5140 529 5643 679 4611 2662 1949 2160 1060 1022 429 909 101 1965
is_linear=0
shrinkage=0.1


Tree=18
num_leaves=31
num_cat=0
split_feature=12 5 8 12 3 3 9 9 5 3 9 3 5 13 8 5 5 5 5 5 11 8 7 8 8 7 6 12 5 5
split_gain=185.016 83.3463 62.1337 50.2177 40.7841 30.6726 26.8789 24.1579 21.9167 16.9639 16.6508 13.4658 12.4729 12.0741 11.9135 11.2154 22.6779 23.3804 14.7088 9.99623 9.83669 9.24495 10.1167 8.85547 8.38439 7.90463 10.374 7.80157 9.9585 7.39348
threshold=2.5000000000000004 0.54204333938006932 -0.28731660875424331 1.0000000180025095e-35 4.3298453388909151 4.7817047775388195 -0.25306777369612715 0.04578086931880946 0.97926731128697597 3.5472048194648487 -0.23333248594985781 5.1561739255895693 0.46498085376555243 1.5000000000000002 -0.85410873537696375 0.4356716229443654 0.28496717979743807 0.26685850171569786 0.022324278434123702 0.97926731128697597 1.0000000180025095e-35 0.44667919522217975 -0.20432072748759764 -0.51119949877021786 -0.020924309241564732 0.9026329893849746 1.0000000180025095e-35 1.0000000180025095e-35 0.97926731128697597 0.46498085376555243
decision_type=2 2 2 2 2 2 2 2 2 2 2 2 2 2 2 2 2 2 2 2 2 2 2 2 2 2 2 2 2 2
left_child=1 3 19 7 6 -6 14 -1 10 12 -4 -7 15 -12 -5 16 17 18 20 -2 -8 22 -15 -22 -9 -25 -27 28 -3 -16
right_child=2 27 8 4 5 11 9 24 -10 -11 13 -13 -14 21 29 -17 -18 -19 -20 -21 23 -23 -24 25 -26 26 -28 -29 -30 -31
leaf_value=-0.072044605222680955 -0.08657706529599235 -0.069654057535356834 -0.070830976098356632 -0.046160313137558216 0.12646779849208487 -0.12635728691949993 0.068543983813724757 -0.069181960258865596 0.11063832788227981 -0.12479698753185497 -0.07651045149418155 0.039896842313431657 -0.12081974480397606 -0.057869931339522035 0.0003151096199067113 0.15567458245872082 -0.12379635384578208 0.1603977426503021 -0.13256456323870089 0.096647704473284232 -0.012563832074341447 0.019413640335107903 0.0079622047636250023 0.025560924180330291 0.0025389680417036808 0.043441717628375759 -0.037117353720502559 0.10899696301261014 0.096546864816649536 -0.11862272850197771
leaf_weight=98.126557338982821 274.42791900783777 5.7517959177494031 58.955867223441601 65.754609253257513 53.893845751881599 6.7879873886704472 43.970421686768532 18.32513727620244 12.138760961592196 7.4582252576947203 24.260812219232321 14.132534645497797 5.6017030850052825 45.80363841354847 484.00634143128991 5.8188042342662802 10.107042867690323 11.791840031743048 5.6550332233309737 2.5676836520433417 75.111985325813293 96.233904041349888 46.3998142182827 871.17260461300611 119.74516497552395 23.855986662209034 45.824707724153996 94.840326353907585 7.9795748814940453 4.7821177393198004
leaf_count=1677 5749 35 952 722 367 43 188 241 102 48 264 79 31 466 2734 24 61 53 30 19 490 643 419 3790 819 113 209 802 66 27
internal_value=-5.52755e-05 0.0136836 -0.0510105 0.00896896 0.0148616 0.0868622 0.0115872 -0.0342319 -0.0180295 0.0205927 -0.0240084 -0.0152703 0.0216449 -0.0108475 -0.0063639 0.0224388 0.0216455 0.023076 0.0214725 -0.0846715 0.0223659 -0.00216053 -0.0247689 0.0203247 -0.00712318 0.0229663 -0.00928154 0.0987884 0.0262247 -0.000948125
internal_weight=2641.28 2080.49 560.788 1971.92 1735.73 74.8144 1660.91 236.197 283.793 1106.37 271.654 20.9205 1098.91 212.698 554.543 1093.31 1087.49 1077.38 1065.59 276.996 1059.94 188.437 92.2035 1015.97 138.07 940.853 69.6807 108.572 13.7314 488.788
internal_count=21263 12649 8614 11746 9009 489 8520 2737 2846 5037 2744 122 4989 1792 3483 4958 4934 4873 4820 5768 4790 1528 885 4602 1060 4112 322 903 101 2761
is_linear=0
shrinkage=0.1


Tree=19
num_leaves=31
num_cat=0
split_feature=12 2 9 12 3 3 9 9 3 2 0 3 5 1 11 5 3 2 0 0 11 0 16 3 1 8 8 11 9 0
split_gain=157.526 74.8529 56.5457 45.2788 34.6113 29.3463 24.0905 20.8652 17.4519 16.7506 15.2581 14.0449 11.4243 11.399 12.9165 11.1111 15.1825 10.6471 10.4673 9.79328 8.74728 8.6258 9.03619 8.13229 7.57006 7.45691 6.98678 6.80236 7.12185 6.71905
threshold=3.5000000000000004 0.80625192815758961 0.16701192261732153 1.0000000180025095e-35 4.3935050940595426 4.7817047775388195 -0.34892488560657858 0.04578086931880946 3.5472048194648487 0.90293239447588103 -1.0240672330231855 3.6220986490749985 -0.45071463456778033 1.7290762964574165 4.5000000000000009 -0.34709275443337767 5.3234368117189037 0.97075000759267838 -0.95145475649554101 -0.7336173269126075 1.0000000180025095e-35 -0.66100485038496293 1.0000000180025095e-35 1.3802766827445117 1.3389508067601785 1.2061806448966255 1.6341087004967794 5.5000000000000009 0.77034786228898622 -0.515779897329674
decision_type=2 2 2 2 2 2 2 2 2 2 2 2 2 2 2 2 2 2 2 2 2 2 2 2 2 2 2 2 2 2
left_child=1 3 17 7 6 -6 19 -1 10 11 -8 18 -7 14 20 16 -13 21 -4 -5 -12 -2 -23 25 -9 -24 -27 -16 -29 -15
right_child=2 -3 9 4 5 12 8 24 -10 -11 13 15 -14 29 27 -17 -18 -19 -20 -21 -22 22 23 -25 -26 26 -28 28 -30 -31
leaf_value=-0.069770561636382719 -0.097262360784961796 0.10318373915029354 -0.082114428484727692 -0.084110576314519042 0.12384770667108491 0.056903694231668037 -0.065047361557728139 -0.022216477681212939 -0.11308255656639461 0.10861907708068022 0.058149586955506385 -0.11250502219472247 -0.087746087404618048 -0.039254914659391515 -0.019947513246422955 0.23155216168179732 0.13314164040227155 0.096467936076745364 -0.015805344351809626 -0.012297344898775008 0.018247498650850402 -0.084045252088277636 -0.05233660100342883 0.10052597994036849 0.030946943610315178 0.20062396194501475 -0.042007522741848831 0 0.067477662611671638 0.072447942573080001
leaf_weight=93.042802181094885 156.89293069392443 86.098465867340565 27.217609770596027 20.43451802060008 49.435490809381008 10.196418583393099 22.018039040267467 104.25992610678077 9.9457212090492231 10.369939945638178 57.806778021156788 4.0968147851526719 10.614420913159845 5.5621268302202216 135.93977854028344 3.1338027827441683 5.0424963086843491 2.9563180655241004 177.80509229004383 216.9089510589838 1080.7611641772091 72.497420202940702 44.879027601331472 3.9470142014324656 35.397424831986427 1.9030258953571313 1.9583401903510091 67.110055521130562 19.90590975433588 52.184829294681549
leaf_count=1684 3834 802 537 231 362 60 217 883 70 93 260 35 64 24 688 19 25 25 1541 1670 5052 1326 823 33 192 26 27 329 88 243
internal_value=-9.04916e-05 0.0121581 -0.0497087 0.00819292 0.0136834 0.0822349 0.0108022 -0.0332033 0.0156365 -0.0124529 0.0165706 -0.0185128 -0.0167324 0.0178663 0.0159961 0.083158 0.0218659 -0.0793572 -0.0248352 -0.0186861 0.0203068 -0.0814027 -0.0611386 -0.0289374 -0.00860805 -0.0405388 0.0845689 -0.00596867 0.0157446 0.0612725
internal_weight=2590.32 2077.62 512.7 1991.52 1758.82 70.2463 1688.58 232.7 1451.23 227.666 1441.29 217.296 20.8108 1419.27 1361.52 12.2731 9.13931 285.034 205.023 237.343 1138.57 282.078 125.185 52.6874 139.657 48.7404 3.86137 222.956 87.016 57.747
internal_count=21263 12919 8344 12117 9358 486 8872 2759 6971 2250 6901 2157 124 6684 6417 79 60 6094 2078 1901 5312 6069 2235 909 1075 876 53 1105 417 267
is_linear=0
shrinkage=0.1


Tree=20
num_leaves=31
num_cat=0
split_feature=0 5 14 14 9 5 5 5 3 9 3 9 3 5 5 5 9 9 7 5 5 5 5 9 7 5 5 3 5 3
split_gain=135.658 71.978 42.0544 39.1323 39.4926 26.385 28.9293 24.2847 21.4841 18.3265 16.4348 16.0367 13.0085 12.8673 22.9963 11.713 10.7831 10.5321 10.4331 9.51782 8.84287 14.2261 20.5972 8.70584 7.65305 7.22436 6.85419 7.13953 6.79887 6.70947
threshold=-0.80622980344025197 0.4356716229443654 1.0000000180025095e-35 4.5000000000000009 0.04578086931880946 0.28496717979743807 0.26685850171569786 0.022324278434123702 4.3935050940595426 -0.095185471725971985 4.7817047775388195 0.48841518019942326 5.7378493355617337 0.45679841403972904 0.81528317088010582 -0.45071463456778033 -1.7698656033379754 1.9234525320352984 0.30074331574475216 0.77121872088120458 0.49268042431280701 0.533592622941924 0.54204333938006932 1.6471585035875269 1.4359134774289026 -0.099003864713536061 0.26685850171569786 5.3234368117189037 0.57960207910516026 3.7406805459577357
decision_type=2 2 2 2 2 2 2 2 2 2 2 2 2 2 2 2 2 2 2 2 2 2 2 2 2 2 2 2 2 2
left_child=9 2 5 4 -4 6 7 8 11 -1 -10 16 17 -3 19 -12 -2 25 -5 20 -15 -22 -23 26 -19 29 27 -11 -24 -6
right_child=1 13 3 18 12 -7 -8 -9 10 23 15 -13 -14 14 -16 -17 -18 24 -20 -21 21 22 28 -25 -26 -27 -28 -29 -30 -31
leaf_value=-0.089611462531557162 -0.080148945824138285 0.18195235968242623 -0.062707720617403803 0.033592045556896807 -0.011109370499800264 -0.12134972169699548 0.1740476249105207 -0.12563263118092857 0.1127474365265828 -0.055188453027326362 0.078745295622229719 0.024874835774634022 0.1409155499838744 -0.10691137740573592 0.095679383816608843 -0.080448695450353921 0.0042788847515384193 0.057514740065160788 -0.048410227584650876 -0.15652222359089965 0.18134987527706264 -0.12112756054400947 0.1219836822847698 0.039827553084388553 -0.072304367097592859 -0.11081194705263496 0.057339891472056009 0.11199159447439125 -0.016436616836632893 -0.10195138820720506
leaf_weight=148.94120025262237 14.925634332001207 10.835508629679678 218.55819340795279 150.81217692047358 256.53359610587358 13.944028727710245 10.780475869774817 11.986079111695288 37.214741796255112 117.68034562468529 8.3570276275277156 553.08914837986231 5.3030488789081565 4.3971372656524172 88.594023048877716 9.1529820933938009 764.72448787838221 32.021941289305687 16.753556460142136 3.0027373358607283 5.0921288132667568 8.0306648612022418 9.4080570787191373 12.353174846619366 4.7772769033908835 7.5042828097939482 5.5700747892260543 2.1221212744712821 5.1783807203173629 7.9450310803949824
leaf_count=3431 141 47 4226 694 2191 92 51 78 319 1804 47 2439 25 39 888 56 4023 161 98 21 27 47 67 106 35 71 47 11 35 55
internal_value=-0.000515017 0.00770946 0.00320377 -0.0168483 -0.0301109 0.0130721 0.0144508 0.0131525 0.0144035 -0.065259 0.0755661 0.0118571 -0.00733275 0.0785056 0.0686679 -0.0038379 0.00259945 -0.0101348 0.0252142 0 0.0169464 0.0385023 0.00268153 -0.0386221 0.0396502 -0.0169678 -0.0465588 -0.0516908 0.0732637 -0.0140633
internal_weight=2545.59 2258.92 2124.38 700.209 532.643 1424.17 1410.23 1399.45 1387.46 286.667 54.7248 1332.74 314.085 134.539 123.703 17.51 779.65 308.782 167.566 35.1091 32.1064 27.7092 22.6171 137.726 36.7992 271.983 125.373 119.802 14.5864 264.479
internal_count=21372 15973 14802 7556 6764 7246 7154 7103 7025 5399 422 6603 2538 1171 1124 103 4164 2513 792 236 215 176 149 1968 196 2317 1862 1815 102 2246
is_linear=0
shrinkage=0.1


Tree=21
num_leaves=31
num_cat=0
split_feature=0 5 14 14 9 3 0 16 8 3 9 13 13 13 9 13 13 9 5 0 7 9 3 4 9 17 13 13 0 13
split_gain=116.411 63.7452 35.7448 33.4315 36.2278 19.2983 18.9192 17.3176 16.0349 14.9252 14.6288 12.7138 30.53 37.2279 10.0039 11.5782 10.34 9.94539 9.86682 9.54679 8.72382 8.50011 7.82708 7.42171 7.33715 6.85307 6.39155 10.4857 6.71007 6.52115
threshold=-0.80622980344025197 0.81528317088010582 1.0000000180025095e-35 4.5000000000000009 -0.23333248594985781 4.3935050940595426 -1.0966797095508298 1.0000000180025095e-35 0.49202256535199734 4.7817047775388195 -1.0255633226215293 2.5000000000000004 3.5000000000000004 8.5000000000000018 0.53070508251285775 2.5000000000000004 11.500000000000002 1.6105072549158839 -0.45071463456778033 0.57340725058499353 0.33703601562551949 2.1715532922741141 4.4821294590982204 -0.068577697524707715 0.48841518019942326 36.500000000000007 3.5000000000000004 8.5000000000000018 1.0090821097508604 10.500000000000002
decision_type=2 2 2 2 2 2 2 2 2 2 2 2 2 2 2 2 2 2 2 2 2 2 2 2 2 2 2 2 2 2
left_child=6 2 5 4 -4 10 22 24 -9 -7 -2 23 -13 -14 15 -10 21 -8 -11 -17 26 -16 -1 -12 -6 -25 -5 -28 29 -29
right_child=1 -3 3 20 7 9 17 8 14 18 11 12 13 -15 16 19 -18 -19 -20 -21 -22 -23 -24 25 -26 -27 27 28 -30 -31
leaf_value=-0.095157316174556916 -0.031787063106595001 0.093152315858682111 -0.068129930358649934 0.05479388995571053 -0.058839929830104977 0.10988245235390329 -0.045559402582577964 -0.017025080707869619 -0.014728830601215676 0.072765816911012193 -0.071860309135925046 0.050854398712416329 -0.028051797213764523 0.022128820854022648 0.018611576889203583 -0.0021097263455826668 -0.11482205979530005 0.048490197128925369 -0.07510201326631688 0.20363221822845901 -0.04798652096378582 0.11538925557258924 0.064576654680581991 -0.053191860147189789 -0.017243499985160823 0.0033904503588298297 -0.04189811004817421 0.076446605693921005 -0.041894836998093113 0.0087679532534914086
leaf_weight=120.55060402676463 76.850910842418671 82.240317180752754 153.08596134185791 64.140995994210243 66.223475459963083 34.518871188163757 136.03507712110877 100.29535831511021 5.2429437898099449 8.1894719824194926 14.929032169282435 225.77454409748316 199.59376130253077 564.82918754220009 59.463407836854458 2.7664111331105223 4.5011041462421408 11.747208353132008 8.8746092393994314 9.6135678365826589 14.979966536164282 10.378439575433729 2.7436048984527579 22.610777802765369 121.01384480670094 288.70833887904882 24.458801172673702 32.113310001790524 9.522509813308714 26.173488348722458
leaf_count=3207 708 888 3218 281 1054 319 2080 1137 56 47 88 1020 1087 2605 333 26 27 89 56 95 91 46 23 109 871 1372 129 142 45 123
internal_value=-0.000503495 0.00701557 0.00369341 -0.0147708 -0.0271367 0.0126985 -0.0623249 -0.0105063 0.0105257 0.0725036 0.0104519 0.0129365 0.0185769 0.00900362 0.0406096 0.107487 0.0240107 -0.0378777 -0.00351601 0.158584 0.0235648 0.0338528 -0.0912756 -0.00415456 -0.0321264 -0.000765696 0.0306124 0.0134899 0.0337752 0.0465589
internal_weight=2502.17 2231.09 2148.85 703.974 532.585 1444.88 271.076 379.499 192.261 51.583 1393.3 1316.45 990.197 764.423 91.9659 17.6229 74.343 147.782 17.0641 12.38 171.389 69.8418 123.294 326.248 187.237 311.319 156.409 92.2681 67.8093 58.2868
internal_count=21372 15973 15085 7674 6863 7411 5399 3645 1720 422 6989 6281 4712 3692 583 177 406 2169 103 121 811 379 3230 1569 1925 1481 720 439 310 265
is_linear=0
shrinkage=0.1


Tree=22
num_leaves=31
num_cat=0
split_feature=8 2 14 14 14 4 8 5 5 9 1 5 5 8 5 4 7 13 15 13 8 7 9 13 13 13 9 13 9 13
split_gain=100.702 57.4604 30.1965 29.8798 30.861 25.6886 23.3848 18.5267 12.7487 11.2011 10.2911 9.95373 9.33161 8.24279 7.91725 7.90537 7.50491 7.81498 7.47991 7.45793 6.81371 6.20656 6.16034 5.8624 27.9473 20.7913 7.54787 6.87093 8.14818 7.09741
threshold=-0.77759179828289648 0.80625192815758961 1.0000000180025095e-35 1.0000000180025095e-35 4.5000000000000009 0.092020419115441926 1.444233338078168 -0.38116389689828162 -0.39893722908961921 -0.90151294250212177 1.7290762964574165 -0.33401426470767637 -0.42214316470547897 1.5405879996040304 -0.45071463456778033 0.65411382735596579 0.49503205495607794 1.5000000000000002 2.5000000000000004 3.5000000000000004 0.40416978572547574 0.22204965938096 2.1715532922741141 2.5000000000000004 3.5000000000000004 8.5000000000000018 0.38128076100538938 12.500000000000002 1.365225821497964 10.500000000000002
decision_type=2 2 2 2 2 2 2 2 2 2 2 2 2 2 2 2 2 2 2 2 2 2 2 2 2 2 2 2 2 2
left_child=2 3 15 7 5 6 14 8 12 -9 11 -11 -2 -8 -5 -1 17 -7 -6 22 -16 -20 -19 -13 -25 26 -26 28 -27 -30
right_child=1 -3 -4 4 18 16 13 9 -10 10 -12 23 -14 -15 20 -17 -18 19 21 -21 -22 -23 -24 24 25 27 -28 -29 29 -31
leaf_value=-0.031207011999044409 0.048785690365474171 0.090924594043939572 -0.086522998278760088 0.12086902371330484 -0.025839534310309543 -0.063165326237126437 0.12714444168161659 -0.032321724961714288 0.10950370116793001 -0.10343670851588681 0.054456060781668494 -0.001357335329152775 -0.11262399932857287 0.0060643853843328635 -0.066700263849592101 0.036098432587895364 -0.031107659289376918 0.040697263049032491 0.037759045537220204 0.0040729934466852838 -0.033680747098033287 -0.03744255671938243 0.17708293155494223 0.0455324316327545 -0.010473566161183161 0.027261823989759106 -0.054241228667983359 -0.0057117667919835578 -0.046566615004755736 0.02298202406814763
leaf_weight=70.656359769403934 11.371662832796575 77.02829448133707 159.81370435655117 2.0972296446561804 25.910203501582146 12.160009644925593 6.1442452967166892 60.43181037157774 31.34552127122879 7.2216016054153434 53.140666052699089 316.43242136389017 4.629307582974433 38.393204886466265 179.40433390811086 22.549576804041862 52.331661403179169 41.07231267541647 137.30311687290668 107.16128907352686 100.97841347381473 11.397286452352999 3.2526267170906058 219.32962967455387 133.38962984830141 341.16709905862808 56.119844481348991 121.32843645662069 30.045462131500244 27.602430745959282
leaf_count=777 61 892 4460 10 123 145 62 474 317 53 256 1484 35 344 3662 188 551 331 627 827 1264 55 15 986 738 1528 273 583 132 119
internal_value=-0.000494146 0.0063535 -0.06019 0.00327147 -0.0133348 -0.025099 -0.0427549 0.0117106 0.0729142 0.00955636 0.0115138 0.00966306 0 0.0242163 -0.0533734 -0.0147112 0.00162495 0.0122162 0.0231592 0.0185208 -0.0549252 0.031822 0.0527922 0.0103681 0.0143714 0.00470129 -0.0235958 0.015043 0.0213814 -0.0131827
internal_weight=2461.21 2208.19 253.02 2131.16 717.606 542.995 327.017 1413.56 47.3465 1366.21 1305.78 1252.64 16.001 44.5375 282.48 93.2059 215.978 163.646 174.611 151.486 280.383 148.7 44.3249 1245.41 928.983 709.653 189.509 520.143 398.815 57.6479
internal_count=21372 15947 5425 15055 8016 7211 5342 7039 413 6626 6152 5896 96 406 4936 965 1869 1318 805 1173 4926 682 346 5843 4359 3373 1011 2362 1779 251
is_linear=0
shrinkage=0.1


Tree=23
num_leaves=31
num_cat=0
split_feature=12 8 5 5 5 5 11 3 12 3 8 9 8 5 5 9 5 5 12 5 3 0 8 17 0 9 11 9 5 8
split_gain=95.0643 48.8853 44.8072 30.2 38.3462 27.0657 23.9293 23.7802 19.1803 18.1619 15.2704 14.44 13.804 13.3773 12.1009 11.5649 11.2658 25.9638 12.101 12.7902 11.1557 10.7614 10.0725 9.801 8.62103 8.49873 7.89695 7.44848 6.77833 6.57827
threshold=2.5000000000000004 -0.37800334901387861 0.4356716229443654 0.28496717979743807 0.26685850171569786 -0.12589860512382436 1.0000000180025095e-35 4.3298453388909151 1.5000000000000002 4.7242861748377045 -0.22213551419263047 1.9234525320352984 1.444233338078168 -0.45071463456778033 0.49268042431280701 0.059877503423287598 0.45679841403972904 0.54204333938006932 1.0000000180025095e-35 0.97926731128697597 5.8501900799769588 1.517369445444372 0.74424506169910798 4.5000000000000009 1.662594398499661 1.2637300559457214 4.5000000000000009 -1.7022017596364802 0.533592622941924 1.9203387244412533
decision_type=2 2 2 2 2 2 2 2 2 2 2 2 2 2 2 2 2 2 2 2 2 2 2 2 2 2 2 2 2 2
left_child=2 -2 3 4 5 6 -1 8 15 -9 23 12 14 -11 20 -8 -4 28 19 -19 -3 22 26 -10 -20 -23 -12 -25 -18 -26
right_child=1 11 16 -5 -6 -7 7 9 10 13 21 -13 -14 -15 -16 -17 17 18 24 -21 -22 25 -24 27 29 -27 -28 -29 -30 -31
leaf_value=0.067354942250150804 -0.081743489577649389 -0.040082271094602627 0.16831182631891506 -0.11999385739605464 0.17276288890215352 -0.11993562094536202 -0.059101640532061489 0.10468524744858801 0.12361381294875549 0.070019330901854096 0.01370580013068355 0.054375246751442299 0.034742208162313409 -0.080819647179133411 0.078706813655616797 -0.0080218496691703816 0.03039210963832862 -0.12945400734256407 0.11098164148254866 0.082941674990263448 0.1459258330640282 -0.020933056984052744 0.030711745459859538 -0.097237382853548257 -0.0956233006246867 0.06750338080857117 -0.015459318834859976 -0.010515885574599714 -0.11955803665333425 0.077807244046144849
leaf_weight=62.416378293186426 181.6818478051573 201.23707703500986 10.967487946152685 18.4637082926929 13.326860673725603 16.516606364399195 72.029886960983276 40.19250151142478 4.8261133357882491 11.00483249127865 553.63064485415816 26.616831589490175 35.591343425214291 11.503867372870443 8.9201071560382825 115.88711872324347 4.1643520146608326 4.8223987370729429 59.656247921288013 5.5475719645619392 2.7750480920076361 130.76060049980879 308.75939493626356 9.7212719507515413 3.4873477742075911 11.320053458213804 110.79086204618216 373.29160935804248 8.3859631791710854 4.3436277955770493
leaf_count=347 5455 2676 48 150 65 147 1636 368 37 63 2421 158 311 80 86 942 31 35 718 66 14 686 1404 116 33 51 552 2572 52 52
internal_value=-0.000476803 -0.0415474 0.00907035 0.00553437 0.00682749 0.00556857 0.00674816 0.00456682 0.00230911 0.0647981 0.00608284 -0.0148685 -0.0224189 -0.00671866 -0.0320792 -0.027759 0.0736579 0.0612027 0.0827546 -0.0163211 -0.0371526 0.0120298 0.0157877 -0.0109859 0.0981335 -0.0136049 0.00881957 -0.0128669 -0.0697783 0
internal_weight=2422.64 456.822 1965.82 1864.44 1845.98 1832.65 1816.14 1753.72 1691.02 62.7012 1503.1 275.14 248.524 22.5087 212.932 187.917 101.375 90.4075 77.8572 10.37 204.012 1115.26 973.181 387.839 67.4872 142.081 664.422 383.013 12.5503 7.83098
internal_count=21372 8700 12672 11637 11487 11422 11275 10928 10417 511 7839 3245 3087 143 2776 2578 1035 987 904 101 2690 5114 4377 2725 803 737 2973 2688 83 85
is_linear=0
shrinkage=0.1


Tree=24
num_leaves=31
num_cat=0
split_feature=12 8 2 3 12 3 2 2 2 2 2 3 4 4 8 8 16 12 2 7 3 0 8 16 0 4 3 2 8 10
split_gain=80.2158 45.0322 39.6322 20.919 16.6732 16.0829 15.3414 24.4292 24.802 31.6624 19.9371 14.2539 12.7503 12.4206 16.7561 11.6757 11.5481 10.9177 11.0037 10.4867 10.109 8.99013 9.92948 8.4305 8.29507 8.12116 7.01434 6.85709 6.51237 6.24384
threshold=2.5000000000000004 -0.37800334901387861 0.53215574181053371 4.3298453388909151 1.0000000180025095e-35 4.7242861748377045 0.45485173638275572 0.42545064815652506 0.27427388558366433 0.2561084534988079 0.010807840975153931 3.5472048194648487 0.17231947743551676 0.73441288567604068 0.44667919522217975 -0.22213551419263047 1.0000000180025095e-35 1.0000000180025095e-35 0.97075000759267838 0.81014252957150834 5.1561739255895693 1.517369445444372 1.1693391566661486 1.0000000180025095e-35 1.662594398499661 -0.38977393080500694 5.3234368117189037 0.48263811953477681 1.7474671258213235 0.38505905780139654
decision_type=2 2 2 2 2 2 2 2 2 2 2 2 2 2 2 2 2 2 2 2 2 2 2 2 2 2 2 2 2 2
left_child=2 26 3 4 12 -5 7 8 9 10 11 15 27 14 29 25 -16 18 -4 23 -7 22 -17 -14 -19 -6 -2 -1 -25 -3
right_child=1 13 17 5 6 20 -8 -9 -10 -11 -12 -13 19 -15 16 21 -18 24 -20 -21 -22 -23 -24 28 -26 -27 -28 -29 -30 -31
leaf_value=-0.049081787531401869 -0.082447529988553911 -0.06246834890299037 -0.12072071883534669 0.10042096834758547 -0.056255849072335433 -0.11300411870056792 -0.1168128598509697 0.15377550090050757 -0.11805068054042589 0.16049106534075841 -0.11867783823682505 -0.10908956436046707 -0.014737566057029786 0.018820922782938093 -0.028555614033732815 0.012229032743132084 0.041513569686153336 0.10976774443297815 0.08044367160319299 -0.064142304773700476 0.034554350801205225 -0.010010498825723763 0.038989536794702906 0.035656205827944425 0 -0.0024282522016727064 0.055577848143257683 0.13638687185165185 0.1490822182980189 0.073324083063041431
leaf_weight=111.21899166703224 165.47534210793674 90.703156968578696 4.6971226856112462 39.489258907735348 29.948471423238516 5.8215002864599255 9.468777768313883 10.856095314025877 15.313761752098797 12.967942133545874 12.121313866227863 9.9098247289657575 30.140078745782375 81.589456420391798 53.473212759941816 843.90849963948131 41.16521730273962 54.550921656191349 5.1823712214827538 16.527465282008052 16.930916257202625 143.5958471223712 166.34071300923824 29.657344318926334 7.8125498592853537 360.87989890575409 3.3513363003730765 1.5336543098092068 5.8871938139200202 3.0460747219622126
leaf_count=2015 5438 1611 35 385 303 52 65 48 121 65 97 76 260 566 664 3753 365 718 66 192 97 745 781 236 85 2442 17 9 26 39
internal_value=-0.000449363 -0.0390483 0.00826253 0.00544198 0.00346769 0.0622189 0.00680862 0.0075799 0.00653069 0.00778172 0.00646053 0.00748053 -0.0241078 -0.0136199 -0.0277353 0.00826991 0.00187552 0.0806929 -0.0154429 0.00572797 -0.00438843 0.0133313 0.0166622 0.0238115 0.0960833 -0.00664513 -0.0794925 -0.0458798 0.0565277 -0.0575845
internal_weight=2383.56 438.804 1944.76 1872.52 1810.28 62.2417 1615.31 1605.84 1594.99 1579.67 1566.7 1554.58 194.965 269.977 188.388 1544.67 94.6384 72.243 9.87949 82.2121 22.7524 1153.85 1010.25 65.6846 62.3635 390.828 168.827 112.753 35.5445 93.7492
internal_count=21372 8700 12672 11768 11234 534 8496 8431 8383 8262 8197 8100 2738 3245 2679 8024 1029 904 101 714 149 5279 4534 522 803 2745 5455 2024 262 1650
is_linear=0
shrinkage=0.1


Tree=25
num_leaves=31
num_cat=0
split_feature=0 2 4 12 5 9 7 12 14 0 11 11 11 11 4 1 14 9 9 11 13 13 13 0 13 13 11 0 13 0
split_gain=71.3868 49.3164 31.6151 22.2639 17.3973 16.156 15.9493 14.8677 10.2454 9.85745 9.27923 16.0603 11.8744 10.4913 8.85181 8.08828 8.05678 7.90161 7.86686 7.43113 7.34523 8.67446 8.5291 7.15415 6.94994 14.1161 8.4368 6.92058 6.80288 6.73115
threshold=-0.95145475649554101 0.80625192815758961 0.092020419115441926 2.5000000000000004 -0.37351801059710238 -0.23333248594985781 0.377558315868331 1.5000000000000002 1.5000000000000002 -0.15271751469145159 2.5000000000000004 1.0000000180025095e-35 4.5000000000000009 5.5000000000000009 0.65411382735596579 1.3389508067601785 2.5000000000000004 -0.54909708989016814 -0.5857483385618113 4.5000000000000009 8.5000000000000018 10.500000000000002 6.5000000000000009 1.517369445444372 2.5000000000000004 3.5000000000000004 3.5000000000000004 1.517369445444372 10.500000000000002 1.0090821097508604
decision_type=2 2 2 2 2 2 2 2 2 2 2 2 2 2 2 2 2 2 2 2 2 2 2 2 2 2 2 2 2 2
left_child=14 2 3 4 -2 -5 10 15 18 -7 11 -4 24 -14 -1 -6 17 28 -9 -17 22 -22 -20 -10 -12 -26 -27 -24 29 -8
right_child=1 -3 6 5 7 9 16 8 23 -11 12 -13 13 -15 -16 19 -18 -19 20 -21 21 -23 27 -25 25 26 -28 -29 -30 -31
leaf_value=-0.080626580615220766 0.067632446168198426 0.08920104221871164 0.076172202691950852 -0.075914593425315147 -0.052634570111469749 -0.050376873019169412 0.062264457207605976 -0.031835838092137338 0.028281445882707514 0.010261081703379298 0.007985828169740387 -0.041205547998765524 -0.028789116773906977 0.043487176467050789 -0.0054980052079664126 0.06830359614836129 -0.053397171271555091 -0.0020518494648119577 -0.0075233841514614269 -0.08413683117214088 0.029965866879779708 -0.0060347634486288514 -0.081768083098409036 -0.060790960331104274 0.074328836029011733 0.022360741794873591 0.094688390638299147 0.046885818819873193 0.14178820856141713 -0.092386797269000023
leaf_weight=123.12677053175867 31.611471623182297 62.728256355971098 15.130670234560965 80.390650101006031 94.658739328384399 47.411345174536109 9.2566623985767382 112.26309591159225 128.89537501335144 60.095131561160088 64.500334976240993 45.170100215822458 55.799677271395922 30.694956254214048 18.379327183589339 10.868997387588022 28.02810712903738 284.36579913832247 397.2479449659586 3.9339796602725974 117.13646503537893 154.17477855831385 26.077916540205482 9.1638469882309419 103.98909325525165 185.72829840518534 17.383429534733295 4.5186554342508307 6.6198589764535418 3.4390270542353383
leaf_count=3915 275 898 77 2209 1857 831 111 1024 672 597 403 247 298 172 340 73 308 1641 1949 32 538 728 137 48 584 1093 91 22 64 37
internal_value=-0.00228046 0.00216738 -0.000413142 -0.0103543 -0.00485766 -0.0421059 0.0145226 -0.00706197 -0.00301751 -0.0164976 0.0254727 -0.0112044 0.0303294 -0.00292245 -0.0709927 -0.0418796 -0.00257287 0.00216512 -0.00731426 0.0257128 -0.00334261 0.00949796 -0.0115102 0.022099 0.0380896 0.0443565 0.0288174 -0.0619979 0.0632378 0.0177012
internal_weight=2332.79 2191.28 2128.55 1278.45 1090.55 187.897 850.106 1058.94 949.478 107.506 518.397 60.3008 458.096 86.4946 141.506 109.462 331.709 303.681 811.419 14.803 699.156 271.311 427.845 138.059 371.601 307.101 203.112 30.5966 19.3155 12.6957
internal_count=21271 17016 16118 10992 7355 3637 5126 7080 5118 1428 2965 324 2641 470 4255 1962 2161 1853 4398 105 3374 1266 2108 720 2171 1768 1184 159 212 148
is_linear=0
shrinkage=0.1


Tree=26
num_leaves=31
num_cat=0
split_feature=0 5 4 3 13 13 13 7 13 16 4 15 11 11 11 11 9 11 0 9 3 11 11 1 17 0 4 0 0 9
split_gain=61.9929 43.5338 25.8966 16.1161 15.0846 28.0799 21.9835 13.008 11.4329 9.55975 8.29322 7.77039 7.52473 13.1348 9.6479 8.53048 7.48981 7.48559 6.73386 6.92993 6.66552 6.07864 6.00889 5.99024 5.96836 5.92486 6.45488 5.78206 7.3139 5.76214
threshold=-0.95145475649554101 0.81528317088010582 0.092020419115441926 4.3298453388909151 8.5000000000000018 3.5000000000000004 10.500000000000002 0.377558315868331 2.5000000000000004 1.0000000180025095e-35 0.65411382735596579 3.5000000000000004 2.5000000000000004 1.0000000180025095e-35 4.5000000000000009 5.5000000000000009 -0.54909708989016814 1.0000000180025095e-35 -0.37055494427438501 -0.85358438654689606 4.4821294590982204 4.5000000000000009 1.0000000180025095e-35 1.0000000180025095e-35 23.500000000000004 -0.515779897329674 0.5738147690358909 0.065119914891481889 0.13773239141912638 0.90285622287108069
decision_type=2 2 2 2 2 2 2 2 2 2 2 2 2 2 2 2 2 2 2 2 2 2 2 2 2 2 2 2 2 2
left_child=10 2 3 4 5 8 18 12 17 -9 20 -8 13 -4 25 -16 -11 -2 23 -20 -1 27 -13 -6 -18 29 -27 -10 -29 -14
right_child=1 -3 7 -5 6 -7 11 9 21 16 -12 22 14 -15 15 -17 24 -19 19 -21 -22 -23 -24 -25 -26 26 -28 28 -30 -31
leaf_value=-0.081999072895280536 0.034049999794779164 0.086913094609179009 0.069105191172734101 0.054245728220618121 0.055059585879360662 -0.048909163644282334 -0.060066266929389579 -0.053395243758562277 -0.0038118226572519151 0.0616945448716597 -0.0049830715594019574 0.094653968948952824 -0.032085606207473007 -0.037244212246091708 -0.026065220334203006 0.039112461493493761 0.08115002728126193 -0.021785825000972172 -0.039139081775144115 0.040893087142805346 0.066496059280957712 -0.025018703426665657 -0.012259511589577795 -0.028827581148445469 -0.0036046218269910448 0.022277704369292061 0.052017550348239787 0.15132149704494532 0.031807950987352784 0.029975296327947737
leaf_weight=112.06617554277182 25.446408610790968 58.189993686974049 15.064747631549833 37.94132449105382 10.779087886214255 236.4757647421211 35.065052755177021 32.545618005096912 45.915493024513125 19.947619277983904 18.306424457579851 4.8600788488984099 23.813947217538953 45.03737678937614 55.534612663090229 30.767152901738882 8.068092253059147 310.3144694250077 11.104236006736754 156.72494209371507 2.6773598678410044 30.089639078825712 241.29047355987132 33.901606440544128 270.92908509448171 125.46221661940217 183.59240854158998 5.1056282836943856 78.068046238273382 38.211717844009399
leaf_count=3891 182 898 77 335 116 2763 381 333 379 214 340 30 221 247 298 172 48 2783 102 934 24 179 2005 284 1566 748 967 36 483 235
internal_value=-0.00210515 0.00195919 -0.000396685 -0.00947812 -0.0114811 -0.020594 0.00200597 0.0131003 -0.00700948 -0.00233763 -0.0682348 -0.0163042 0.0230015 -0.0100722 0.0273757 -0.00262229 0.00326741 -0.0174801 0.0262642 0.0354379 -0.0781739 0.0149995 -0.00992043 -0.00798335 -0.000977106 0.0343733 0.0400323 0.0244651 0.0401242 0.00592185
internal_weight=2303.3 2170.25 2112.06 1263.08 1225.14 731.415 493.725 848.975 494.94 331.49 133.05 281.216 517.484 60.1021 457.382 86.3018 298.945 335.761 212.51 167.829 114.744 159.179 246.151 44.6807 278.997 371.08 309.055 129.089 83.1737 62.0257
internal_count=21271 17016 16118 10992 10657 6805 3852 5126 4042 2161 4255 2416 2965 324 2641 470 1828 2965 1436 1036 3915 1077 2035 400 1614 2171 1715 898 519 456
is_linear=0
shrinkage=0.1


Tree=27
num_leaves=31
num_cat=0
split_feature=0 2 12 9 3 3 3 11 9 12 11 9 2 0 14 13 7 13 11 3 12 3 2 2 2 2 9 14 13 2
split_gain=54.8801 39.9299 27.5361 22.608 15.741 14.3384 10.7887 10.2854 10.5312 11.9179 10.2058 9.81279 8.50337 8.5099 8.4854 8.47436 8.25301 8.23043 8.12257 8.11171 9.83737 9.60726 7.30292 13.8701 9.86087 20.1391 6.99339 6.94663 6.79145 6.32115
threshold=-1.0966797095508298 0.80625192815758961 2.5000000000000004 -0.23333248594985781 4.3298453388909151 3.7007371701656555 3.4123959261665786 4.5000000000000009 0.65193613581136978 1.0000000180025095e-35 3.5000000000000004 -0.14875268132298894 0.53215574181053371 1.517369445444372 1.5000000000000002 3.5000000000000004 0.57362075845728844 8.5000000000000018 5.5000000000000009 4.7242861748377045 1.5000000000000002 5.1561739255895693 0.45485173638275572 0.42545064815652506 0.27427388558366433 0.2561084534988079 0.47149921927404947 1.5000000000000002 1.5000000000000002 -0.11090055399338415
decision_type=2 2 2 2 2 2 2 2 2 2 2 2 2 2 2 2 2 2 2 2 2 2 2 2 2 2 2 2 2 2
left_child=-1 2 4 -4 5 6 7 8 9 -2 12 -5 13 22 28 16 -10 18 -9 20 -6 -21 23 24 25 27 -20 -11 -13 -30
right_child=1 -3 3 11 19 -7 -8 17 15 10 -12 14 -14 -15 -16 -17 -18 -19 26 21 -22 -23 -24 -25 -26 -27 -28 -29 29 -31
leaf_value=-0.082736596898471154 -0.032259152880774265 0.085007951565032824 -0.072257189244544023 0.16580335894434986 -0.10390025367654983 -0.10638256051073487 0.1130037972858039 -0.043322235774248263 0.052688518971991519 -0.00055546058953203443 0.046478821982733294 -0.064996765264782166 0.115367277299326 -0.03229585848665311 -0.044688443469914595 0.0079352719018713404 0.00042647576199038913 0.00082404565780186889 -0.027828337817145422 -0.10831152751334983 0.099260643974933671 0.044728516373179705 -0.10820126402580642 0.1572701092379033 -0.10825350960523306 0.18401157152336403 0.062423849066198772 0.028059355146028111 0.0086493532754477638 -0.077796418956611144
leaf_weight=80.550994453951716 99.018390243873 54.726982846856117 84.522038944065571 2.5536914560943833 2.1222917065024367 11.613975552842019 8.3379956036806089 116.91209429688752 110.06856390833855 680.33279474452138 53.186054222285748 15.352073747664688 6.015890307724475 71.254190627485514 66.306304473429918 233.06337637454271 42.123128280043602 177.49524142593145 18.853827802464366 4.9908583164215115 32.524475276470184 15.650963649153708 5.288947567343711 5.3998613506555548 7.3368546925485125 5.6982987821102133 14.864405013620852 96.326384518295527 147.62561454437673 8.4610050413757545
leaf_count=3200 1904 904 2661 54 14 113 43 746 553 3586 246 243 49 415 1035 1154 208 1103 151 46 376 93 40 24 68 29 73 529 1539 72
internal_value=-0.001925 0.0010501 -0.00110834 -0.0279075 0.00367944 0.00201825 0.00277287 0.00220764 0.00591186 0.00062274 0.00414674 -0.0121489 0.00154501 0.000682277 -0.0144462 0.0200056 0.0383379 -0.0137219 -0.0308742 0.0559838 0.0852304 0.00556647 0.00364897 0.0044731 0.00331678 0.00444432 0.0119971 0.00299644 -0.00259556 0.00366606
internal_weight=2278.58 2198.03 2143.3 324.821 1818.48 1763.19 1751.58 1743.24 1415.11 1029.86 930.839 240.299 877.653 871.637 237.745 385.255 152.192 328.126 150.63 55.2886 34.6468 20.6418 800.383 795.094 789.694 782.357 33.7182 776.659 171.439 156.087
internal_count=21271 18071 17167 5604 11563 11034 10921 10878 8805 6890 4986 2943 4740 4691 2889 1915 761 2073 970 529 390 139 4276 4236 4212 4144 224 4115 1854 1611
is_linear=0
shrinkage=0.1


Tree=28
num_leaves=31
num_cat=0
split_feature=0 2 12 9 4 3 12 4 9 17 17 0 13 13 11 14 0 3 13 13 13 9 0 14 13 3 0 2 1 2
split_gain=48.3318 35.1298 22.9922 20.4637 14.7641 11.8384 10.9675 9.79931 7.60626 7.5268 9.37817 8.64437 8.64349 10.5428 7.17679 7.03621 6.78152 6.13733 6.09219 6.08966 7.01007 6.05968 12.0222 10.9504 5.73613 5.56182 5.5606 5.55582 5.46193 5.30865
threshold=-1.0966797095508298 0.80625192815758961 2.5000000000000004 -0.23333248594985781 1.0000000180025095e-35 4.3298453388909151 1.0000000180025095e-35 0.81471194399611535 -0.14029470086030202 26.500000000000004 4.5000000000000009 1.517369445444372 8.5000000000000018 3.5000000000000004 2.5000000000000004 1.5000000000000002 -1.0000000180025095e-35 4.7242861748377045 10.500000000000002 3.5000000000000004 8.5000000000000018 -1.0734918785767549 1.2269195393337939 4.5000000000000009 1.5000000000000002 4.5145834519292851 0.57340725058499353 0.80625192815758961 1.7290762964574165 -0.11090055399338415
decision_type=2 2 2 2 2 2 2 2 2 2 2 2 2 2 2 2 2 2 2 2 2 2 2 2 2 2 2 2 2 2
left_child=25 2 4 -4 5 6 14 28 16 10 -8 12 13 21 -2 24 -5 -7 -14 -9 -21 22 23 -11 26 27 -10 -1 -6 -26
right_child=1 -3 3 8 7 17 9 19 15 11 -12 -13 18 -15 -16 -17 -18 -19 -20 20 -22 -23 -24 -25 29 -27 -28 -29 -30 -31
leaf_value=-0.089653432825057486 0.020920353669887856 0.082676451435690329 -0.069756453940870544 -0.024781110578162176 0.021214723196902322 0.092518564327336503 0.033501430660022959 0.018816103890696941 -0.09070295797290881 -0.061564506673913701 -0.058824218310581315 -0.02504657105614045 0.033180949519357454 -0.028262438111105168 -0.04904190142047328 -0.04157405363347786 0.23084796718993209 0 0.0042338517781143467 -0.047492468197038007 -0.00047400455364317984 0.0020373803066433441 0.24438351430786096 0.14280029228705093 0.0073772576117927223 0.058988119544954122 0.058919804521883772 0.087956328568407585 0.074824766060670497 -0.073216125148433106
leaf_weight=71.063949156552553 17.21098979562521 50.858296610414982 79.098579209297895 1.5453314594924452 420.06410580873489 18.379092279821638 13.961081653833388 107.74231165274978 11.895944645628331 6.337008096277712 45.374204315245152 120.37204908579588 130.94767941907048 134.77380641363561 84.297870866954327 63.982124341651797 1.9317736402153958 11.337826590985058 165.13091631606221 40.573539452627301 141.08179296739399 323.36643343418837 2.5855584368109694 3.740569956600666 148.0346278809011 2.3457122240215531 2.6512722596526137 1.3702087849378575 19.691988803446293 8.1396430712193233
leaf_count=3170 237 904 2661 45 2351 199 80 580 208 74 315 736 622 886 1744 1030 22 78 889 267 734 1620 21 18 1532 21 34 9 112 72
internal_value=-0.00177071 0.00095091 -0.00102003 -0.0258295 0.00333658 -0.00409079 -0.00587587 0.0143245 -0.0110841 -0.00250588 -0.0368352 -0.000179381 0.00372459 -0.00467773 -0.0370373 -0.0134192 0.125892 0.0575923 0.0171045 0 -0.0111322 0.00477978 0.0713126 0.0165102 -0.00271846 -0.0805473 -0.0617175 -0.0855766 0.0237203 0.00289273
