tree
version=v4
num_class=1
num_tree_per_iteration=1
label_index=0
max_feature_idx=17
objective=binary sigmoid:1
feature_names=0 1 2 3 4 5 6 7 8 9 10 11 12 13 14 15 16 17
feature_infos=[-1.5686608069805192:3.7320499795375288] [-3.5376178144552939:2.314264531003273] [-0.14554943371079551:13.310191625945192] [-0.21496188795168089:10.659622171442082] [-3.1600914428475884:4.7092162725197442] [-0.71785117086248951:13.280156986322737] [-1.6287641780245841:3.3154379863618968] [-2.071524758283819:15.186207815713594] [-2.1010514139469492:5.4429517914014607] [-2.2829830847409802:6.6148123620056252] [-0.14000712495299911:20.164191333967938] [0:8] [0:6] [0:14] [0:5] [0:4] [0:1] [0:40]
tree_sizes=3363 3413 3408 3411 3422 3396 3415 3422 3430 3416 3420 3433 3414 3425 3425 3443 3440 3411 3432 3424 3437 3428 3452 3436 3445 3421 3443 3449 3431 3430 3445 3432 3447 3451 3442 3468 3424 3416 3408 3429 3420 3456 3469 3464 3446 3421 3432 3448 3406 3436 3428 3445 3449 3399 3421 3408 3426 3430 3421 3417 3440 3446 3461 3397 3437 3422 3409 3444 3434 3380 3400 3399 3416 3390 3411 3430 3406 3367 3398 3406 3432 3412 3416 3434 3397 3427 3402 3377 3399 3394 3415 3421 3415 3452 3450 3426 3400 3399 3391 3409 3381 3402 3446 3418 3426 3407 3418 3416 3390 3431 3395 3407 3393 3413 3431 3412 3395 3413 3432 3411 3438 3400 3387 3434 3427 3415 3396 3384 3396 3429 3421 3433 3423 3408 3427 3445 3462 3452 3401 3422 3421 3418 3408 3357 3396 3442 3408 3384 3398 3428 3387 3395 3387 3367 3386 3431 3422 3433 3410 3413 3358 3419 3408 3424 3417 3410 3399 3430 3375 3378 3414 3419 3419 3404 3438 3381

Tree=0
num_leaves=31
num_cat=0
split_feature=14 1 2 14 2 9 3 2 9 1 0 3 9 3 3 0 3 1 0 9 0 9 9 9 7 0 3 13 9 13
split_gain=3467.15 1468.87 1161.66 720.462 708.435 343.06 194.925 193.618 187.463 149.549 141.647 116.503 105.395 89.9914 63.0353 59.8272 55.5465 48.3122 46.2844 43.9209 35.6737 27.6985 27.539 24.9557 22.8965 20.905 17.8356 17.7687 17.6867 17.3373
threshold=1.0000000180025095e-35 0.94882531706294071 0.80625192815758961 4.5000000000000009 0.53215574181053371 -0.43350469023344745 4.3935050940595426 0.53215574181053371 0.79008315003525553 1.0000000180025095e-35 -0.22532999121909608 4.2512068178002584 0.12472202030388709 4.7817047775388195 5.8501900799769588 -0.80622980344025197 5.3234368117189037 -0.22155115202877271 -0.58839237385731846 -0.34892488560657858 -0.80622980344025197 -0.25306777369612715 0.68576805766211735 0.16701192261732153 0.48411695724757642 -0.515779897329674 4.2512068178002584 3.5000000000000004 2.0926121412890368 8.5000000000000018
decision_type=2 2 2 2 2 2 2 2 2 2 2 2 2 2 2 2 2 2 2 2 2 2 2 2 2 2 2 2 2 2
left_child=1 4 3 8 5 26 10 11 16 19 20 12 -3 -8 18 -14 23 -12 -10 -5 -7 -22 -17 -2 28 -25 -1 -21 -20 -29
right_child=2 7 -4 9 -6 6 13 -9 14 -11 17 -13 15 -15 -16 22 -18 -19 24 27 21 -23 -24 25 -26 -27 -28 29 -30 -31
leaf_value=-1.242877878902569 -1.2903262839966274 -1.1384252692250649 -0.7632034670021266 -1.2066242184241054 -0.75818785338696648 -1.2376107326539445 -0.78430920359574907 -0.74955206196029556 -1.2591818837345998 -0.93477506386167941 -1.1104544389588609 -0.77104841783633937 -1.1679188944951526 -1.1758300101186245 -0.79998545496976559 -0.97143938704049992 -1.0320666752407563 -1.0478937609058872 -1.1566386519595582 -1.0237300791934967 -1.2049091750013019 -1.1237175757750797 -0.90580531965147992 -1.2859058876069587 -1.2379478128045289 -1.2361537316456268 -1.0741010162481837 -1.2117392870753332 -1.0329166037931019 -1.0616515841424761
leaf_weight=235.96224045753479 1468.9735184311867 27.866706311702728 48.314354449510574 43.609585851430893 52.114359855651855 65.86676037311554 26.419085204601288 69.304860502481461 74.190581738948822 62.247707605361938 281.92421060800552 40.895296275615692 10.676205664873121 7.4190581738948813 3.6190527677536002 107.12396192550659 8.3238213658332807 223.11460313200951 108.75253567099571 31.304806441068649 64.057233989238739 119.60969397425652 214.79078176617622 165.39071148633957 31.847664356231689 182.03835421800613 5.9714370667934409 14.114305794239046 12.485732048749922 15.742879539728163
leaf_count=1304 8118 154 267 241 288 364 146 383 410 344 1558 226 59 41 20 592 46 1233 601 173 354 661 1187 914 176 1006 33 78 69 87
internal_value=-1.16707 -1.05195 -1.24581 -1.25639 -1.11614 -1.13444 -1.10248 -0.904555 -1.27262 -1.05693 -1.11314 -0.931832 -0.950626 -0.869307 -1.18763 -0.934989 -1.28336 -1.08271 -1.19464 -1.13036 -1.17473 -1.15211 -0.927277 -1.28456 -1.16323 -1.26 -1.23849 -1.07594 -1.14331 -1.13248
internal_weight=3824.07 1553.12 2270.96 2222.64 1082.46 1030.34 788.411 470.658 2055.62 167.019 754.573 401.353 360.458 33.8381 230.896 332.591 1824.73 505.039 227.277 104.772 249.534 183.667 321.915 1816.4 153.086 347.429 241.934 61.162 121.238 29.8572
internal_count=21133 8583 12550 12283 5982 5694 4357 2601 11360 923 4170 2218 1992 187 1276 1838 10084 2791 1256 579 1379 1015 1779 10038 846 1920 1337 338 670 165
is_linear=0
shrinkage=1


Tree=1
num_leaves=31
num_cat=0
split_feature=12 1 12 2 2 12 9 0 2 5 9 2 5 2 1 9 5 0 0 0 5 9 5 5 5 13 13 9 13 5
split_gain=2275.15 1426.13 640.656 510.415 443.894 320.757 320.262 146.904 114.614 111.671 95.5185 82.1712 68.2888 63.6164 57.0138 55.1505 42.306 36.1106 33.8946 30.2402 29.3574 29.1622 27.9746 25.1261 23.5726 23.4693 23.4554 20.4078 20.1722 17.8362
threshold=2.5000000000000004 0.94882531706294071 1.0000000180025095e-35 0.53215574181053371 0.90293239447588103 1.0000000180025095e-35 -0.34892488560657858 -0.37055494427438501 0.53215574181053371 -0.38116389689828162 0.83801170599048136 0.84534124682907696 -0.36701230032329196 0.97075000759267838 -0.22155115202877271 0.68576805766211735 -0.43113043456826861 -0.44316742080202953 -0.87884227996789643 -0.80622980344025197 -0.39893722908961921 0.79008315003525553 -0.36701230032329196 -0.39893722908961921 -0.36701230032329196 8.5000000000000018 3.5000000000000004 0.059877503423287598 8.5000000000000018 -0.33569099415968934
decision_type=2 2 2 2 2 2 2 2 2 2 2 2 2 2 2 2 2 2 2 2 2 2 2 2 2 2 2 2 2 2
left_child=1 2 13 6 10 11 22 19 12 20 16 21 -7 -1 26 18 -2 -12 -14 -8 -9 -3 23 -4 -21 -23 -11 -20 -28 -19
right_child=4 5 3 -5 -6 8 7 9 -10 14 17 -13 15 -15 -16 -17 -18 29 27 24 -22 25 -24 -25 -26 -27 28 -29 -30 -31
leaf_value=-0.10657433459513882 0.13395456634081016 -0.068812731193556451 -0.052070424501410487 0.30602931656163307 0.30110549327988384 0.29746837845245089 -0.058734357826863363 0.034838735108716795 0.31080346977233098 0.075473769002480637 -0.079308971677320247 0.29710571615180692 -0.058127462979426031 0.25926298793359348 0.10610461817468458 0.20523487952093147 -0.11572946552460051 0.19333944473653294 0.076417090565734078 0.22228600798693249 0.29737942732577377 0.12866594496673497 -0.065618671290795669 0.28360569310958944 0.0092275795204421092 -0.010351770131609038 -0.013712712560344143 0.1609466442808111 0.050863081376681399 0.0036391958425888329
leaf_weight=383.2471310198307 6.3914710879325858 44.157150968909264 4.1282147318124771 70.093514785170555 26.890419661998749 53.121118709445 80.458473980426788 5.2542882710695258 93.765104025602341 149.40534727275372 77.73758190870285 9.1080453693866712 8.5320969820022565 4.3371644616127005 288.09251697361469 268.67492847144604 1272.6213649064302 4.8287256658077231 38.710232809185982 4.8932137042284003 28.808018386363983 18.844311997294426 290.22120970487595 3.9483431279659253 147.3446007668972 32.137264460325241 85.203687250614166 134.25900301337242 110.31265877187252 73.1981051415205
leaf_count=2250 33 255 22 323 124 247 455 29 431 801 448 42 46 20 1503 1316 7501 25 205 24 135 102 1662 21 806 175 461 675 593 403
internal_value=0.000166568 0.0609486 0.0103029 0.0446987 -0.0978298 0.180413 0.0292798 0.0590489 0.208653 0.0828999 -0.105416 0.0183559 0.189312 -0.102126 0.0732517 0.176212 -0.114422 -0.0312706 0.132748 -0.00931387 0.25826 -0.00963919 -0.0604294 0.117831 0.0168464 0.0415896 0.0456687 0.142362 0.0227075 0.0166625
internal_weight=3818.73 2357.06 1655.75 1268.16 1461.67 701.309 1198.07 899.773 597.062 667.077 1434.78 104.247 503.297 387.584 633.014 450.176 1279.01 155.764 181.501 232.696 34.0623 95.1387 298.298 8.07656 152.238 50.9816 344.922 172.969 195.516 78.0268
internal_count=21133 12599 9105 6835 8534 3494 6512 4807 2920 3522 8410 574 2489 2270 3358 2242 7534 876 926 1285 164 532 1705 43 830 277 1855 880 1054 428
is_linear=0
shrinkage=0.1


Tree=2
num_leaves=31
num_cat=0
split_feature=14 9 2 14 2 9 9 2 1 1 3 11 5 3 3 9 9 9 5 2 1 11 13 1 9 3 1 14 2 17
split_gain=2212.19 703.774 663.48 546.557 261.252 163.293 144.925 131.449 109.18 75.713 61.9974 41.6162 41.2803 40.5936 35.5082 27.5145 25.6666 24.8093 24.6202 21.1691 20.3816 19.8208 18.434 18.2898 18.3726 16.2566 15.3184 14.6208 13.5676 13.1762
threshold=1.0000000180025095e-35 0.22339845903523411 0.80625192815758961 4.5000000000000009 0.53215574181053371 0.77034786228898622 -0.63649622133793271 0.53215574181053371 0.94882531706294071 1.0000000180025095e-35 4.3935050940595426 4.5000000000000009 -0.45071463456778033 5.3234368117189037 4.3935050940595426 -0.34892488560657858 -0.072630857158806947 0.16701192261732153 -0.39893722908961921 0.27427388558366433 -0.22155115202877271 2.5000000000000004 2.5000000000000004 0.94882531706294071 1.2101628463487044 4.3935050940595426 1.3389508067601785 1.5000000000000002 0.27427388558366433 33.500000000000007
decision_type=2 2 2 2 2 2 2 2 2 2 2 2 2 2 2 2 2 2 2 2 2 2 2 2 2 2 2 2 2 2
left_child=1 4 3 5 6 13 20 8 11 15 16 25 -7 17 19 -5 -8 -2 -12 22 -1 -18 -10 -14 -25 -3 -24 -26 -23 -28
right_child=2 7 -4 9 -6 12 10 -9 14 -11 18 -13 23 -15 -16 -17 21 -19 -20 -21 -22 28 26 24 27 -27 29 -29 -30 -31
leaf_value=-0.074788274639801672 -0.11468607124685544 0.093472723839448948 0.24827992204819302 -0.031149335015146898 0.24626526518452263 0.2682521142184241 0.0082705677754153703 0.25424825490737424 0.086622861470533788 0.16425383869463689 0.011052371940322925 0.0010922265515322502 -0.071352429042418772 0.099933496163286159 0.24443092525765431 0.072452007487088591 0.12550262122738839 -0.082356330613985548 0.23414348509034211 -0.021376998753811813 0.0084347376492991417 0.04381770485519209 0.14702299766329138 -0.046922356403280525 0.042057408221210957 0.20294121842112497 0.088816042977433868 -0.044341248240645559 -0.096615719980853845 0.20198755766655277
leaf_weight=175.84528239071369 1286.4514059871435 169.80201016366482 63.187367364764214 41.404276818037033 49.438585698604584 4.4341235607862464 322.93291002511978 110.28915002942085 35.821077331900597 73.393161207437515 6.6626636236906078 51.506716936826706 59.788555487990379 8.9768472015857679 51.554910153150558 65.448666200041771 30.16239170730114 302.22263087332249 20.507241606712341 6.513213947415351 34.954224482178688 259.97935925424099 219.97054497897625 68.709835916757584 75.522846713662148 14.96554212272167 12.800717726349829 25.835513696074486 6.5663563162088385 124.0679307281971
leaf_count=1045 8118 879 267 241 208 20 1752 463 166 344 35 265 356 45 218 338 153 1867 88 30 195 1350 1017 387 422 66 58 145 34 561
internal_value=-0.000209986 0.0841952 -0.0695336 -0.0795779 0.0239112 -0.0959297 0.0109455 0.152708 0.136219 0.0863646 0.0344223 0.0808111 -0.0178715 -0.107361 0.16512 0.0322564 0.0278389 -0.10857 0.180986 0.154559 -0.0609538 0.0490535 0.157526 -0.0240047 -0.00714034 0.102917 0.164484 0.0198273 0.0401463 0.191838
internal_weight=3779.72 1704.34 2075.38 2012.19 907.049 1831.94 857.61 797.292 687.003 180.246 646.811 236.274 234.291 1597.65 450.728 106.853 619.641 1588.67 27.1699 399.173 210.8 296.708 392.66 229.857 170.068 184.768 356.839 101.358 266.546 136.869
internal_count=21133 8583 12550 12283 4860 11360 4652 3723 3260 923 3412 1210 1330 10030 2050 579 3289 9985 123 1832 1240 1537 1802 1310 954 945 1636 567 1384 619
is_linear=0
shrinkage=0.1


Tree=3
num_leaves=31
num_cat=0
split_feature=9 2 0 0 2 9 3 7 3 2 0 0 9 9 0 3 3 3 0 11 13 13 13 3 13 15 0 11 11 11
split_gain=1314.18 501.076 396.656 353.981 199.541 135.489 104.193 81.9509 68.209 62.4688 46.2636 43.886 40.0009 33.6501 32.1177 28.0792 27.4145 23.0854 17.9646 15.3845 14.9009 32.8085 16.3413 14.826 13.7905 14.9089 13.5708 13.0388 19.2408 18.985
threshold=0.39255806828897183 0.53215574181053371 -0.58839237385731846 -0.37055494427438501 0.53215574181053371 -0.34046690514389166 4.4821294590982204 0.35960687838702793 4.3935050940595426 0.2561084534988079 -0.87884227996789643 -0.80622980344025197 0.99025535431884526 -0.072630857158806947 0.2103448679467709 4.2512068178002584 4.3935050940595426 4.7242861748377045 0.2829573444744154 4.5000000000000009 8.5000000000000018 3.5000000000000004 1.5000000000000002 5.3234368117189037 1.5000000000000002 3.5000000000000004 0.71863220364028246 2.5000000000000004 1.0000000180025095e-35 4.5000000000000009
decision_type=2 2 2 2 2 2 2 2 2 2 2 2 2 2 2 2 2 2 2 2 2 2 2 2 2 2 2 2 2 2
left_child=1 3 9 10 6 15 7 12 13 11 -1 -2 14 18 24 -5 -12 -10 -7 -9 21 22 -15 -19 -4 -26 -24 28 -14 -29
right_child=2 -3 4 5 -6 8 -8 19 17 -11 16 -13 27 20 -16 -17 -18 23 -20 -21 -22 -23 26 -25 25 -27 -28 29 -30 -31
leaf_value=-0.11517210570628347 -0.0851193902869994 0.19528000712027138 -0.038890681785121575 -0.066846110151981011 0.21521496401689039 -0.047554858768826813 0.20444620708792446 0.038765395317225511 0.19307470285401579 0.16353644429271927 -0.075168025512193176 0.0049907220609667338 0.18403448988571841 -0.019007795767053394 0.10155257451185756 0.083297480731960097 0.095379230128637998 -0.09922481358322946 -0.0043479171726659195 -0.024725373930786443 0.042704897296083372 -0.052068179229906156 0.020738354074561705 0.1385847738370781 -0.028484157974759117 0.06426040553641825 0.085064834264633016 0.15134323522092788 0.026624680841249596 0.081727981686114504
leaf_weight=599.45809917151928 134.32023519277573 83.928268477320671 17.73827800154686 447.10335372388363 145.89306850731373 164.99579231441021 72.149188727140427 136.44311930239201 24.384588479995728 14.228541836142538 397.07963280379772 89.789215177297592 10.373113945126532 60.427408516407013 212.39458405971527 12.345707401633261 9.1940232962369901 5.2452237606048566 231.56568214297295 52.315138578414917 154.69013027846813 75.598104268312454 98.916613578796387 4.3135590851306915 19.319310918450356 140.20735807716846 49.385469391942024 174.42757175862789 28.667260348796844 54.097414836287498
leaf_count=3994 826 352 97 2835 593 981 300 718 104 64 2468 494 47 359 1046 64 45 31 1336 276 844 431 539 21 103 719 260 797 138 251
internal_value=-0.000446277 -0.0440562 0.0805203 -0.0527042 0.106633 -0.0188088 0.0892605 0.0793101 0.00439609 -0.0359932 -0.0974518 -0.0490416 0.0959853 -0.00127608 0.0752976 -0.0627037 -0.0711714 0.142309 -0.0223873 0.021097 0.0177745 0.00412478 0.0246005 0.00865087 0.0435861 0.0529123 0.0424405 0.125879 0.0705 0.135122
internal_weight=3721 2418.63 1302.36 2334.7 1064.03 1328.97 918.132 845.983 869.523 238.338 1005.73 224.109 657.225 835.579 389.66 459.449 406.274 33.9434 396.561 188.758 439.018 284.328 208.729 9.55878 177.265 159.527 148.302 267.565 39.0404 228.525
internal_count=21133 14664 6469 14312 5085 7805 4492 4192 4906 1384 6507 1320 3198 4750 1965 2899 2513 156 2317 994 2433 1589 1158 52 919 822 799 1233 185 1048
is_linear=0
shrinkage=0.1


Tree=4
num_leaves=31
num_cat=0
split_feature=14 14 8 2 1 9 2 9 2 8 8 8 8 2 5 5 1 5 9 8 5 9 9 4 2 2 2 13 13 13
split_gain=1654.96 529.594 427.898 366.041 164.897 132.86 99.0201 77.384 70.4488 65.8388 46.7823 41.622 40.5079 38.5939 38.4175 25.5252 23.2017 21.6267 21.3206 19.5468 19.5151 18.9861 16.1516 15.9854 15.8375 23.0979 16.843 15.9655 43.4821 25.9737
threshold=1.0000000180025095e-35 4.5000000000000009 -0.26181096305622092 0.84534124682907696 0.94882531706294071 0.77034786228898622 0.53215574181053371 -0.3940341147409086 0.53215574181053371 -0.44601840420860511 -0.64722960915967076 1.0000000180025095e-35 0.10093599798232018 0.53215574181053371 -0.38116389689828162 -0.36701230032329196 -0.22155115202877271 -0.33401426470767637 0.12472202030388709 1.1154939046369901 -0.45071463456778033 0.04578086931880946 -0.072630857158806947 0.092020419115441926 0.27427388558366433 0.2561084534988079 0.42545064815652506 3.5000000000000004 8.5000000000000018 2.5000000000000004
decision_type=2 2 2 2 2 2 2 2 2 2 2 2 2 2 2 2 2 2 2 2 2 2 2 2 2 2 2 2 2 2
left_child=2 3 8 5 6 11 7 -4 10 -3 23 -2 -7 15 -9 -6 -11 -16 -17 -20 -14 -13 -12 -1 25 27 -26 29 -29 -19
right_child=1 9 4 -5 13 12 -8 14 -10 16 22 21 20 -15 17 18 -18 24 19 -21 -22 -23 -24 -25 26 -27 -28 28 -30 -31
leaf_value=-0.078371940353934799 -0.11252569843263086 -0.023043994591604246 -0.038161321431441103 0.18782582200260703 0.19059948935076565 -0.075633133913322756 0.19137072764162003 0.17082225531036588 0.19377055576411506 0.054902528945815002 -0.020731425370443864 -0.091800883157204416 0.2010517510606965 0.19611688365541727 -0.12638128434715176 0.030812240676455261 0.14104260689110179 0.0608440022238039 0.10193572174584885 0.1460117343533904 0.0035015239916511608 -0.047134697934567371 0.032842909334068922 -0.016937020741812827 -0.12816812524889779 0.27094843146909653 0.072532471488056069 -0.0076804125964142211 0.075388584013081489 0.13535405206617634
leaf_weight=133.71108010411263 1028.9873852878809 41.768525272607803 78.740241661667824 48.209132850170135 55.646247208118439 85.300085052847862 57.247629478573799 33.507907792925835 14.999058216810225 44.605296522378922 104.84189054369926 248.54841250181198 4.6839236468076697 95.478819265961647 5.6291475892066947 27.282227471470833 115.92525582015514 158.44516418874264 220.66354256868362 202.27300663292408 146.33491571247578 159.18468321859837 120.10681007802486 63.036432087421417 8.4162680357694608 5.0106115937232962 7.3654448688030234 94.636300161480904 186.3451864272356 67.673764154314995
leaf_count=842 7331 238 497 193 223 533 229 140 60 237 607 1703 19 382 28 146 522 784 948 854 778 996 624 375 43 25 37 492 918 329
internal_value=-0.000561896 -0.0644912 0.0700607 -0.0824844 0.0987375 -0.0903333 0.0657504 0.0544592 -0.0155858 0.0883795 -0.0232766 -0.101761 -0.0207456 0.137199 0.0673608 0.125876 0.117414 0.0606903 0.117651 0.123187 0.0103379 -0.0744662 0.00783855 -0.0588322 0.0628218 0.0658723 -0.0345345 0.0635613 0.047411 0.0834372
internal_weight=3664.6 1923.55 1741.06 1721.25 1304.36 1673.04 703.018 645.77 436.695 202.299 421.696 1436.72 236.319 601.344 567.03 505.865 160.531 533.522 450.219 422.937 151.019 407.733 224.949 196.748 527.893 512.111 15.7817 507.1 280.981 226.119
internal_count=21133 12550 8583 11553 6075 11360 3522 3293 2508 997 2448 10030 1330 2553 2796 2171 759 2656 1948 1802 797 2699 1231 1217 2628 2548 80 2523 1410 1113
is_linear=0
shrinkage=0.1


Tree=5
num_leaves=31
num_cat=0
split_feature=12 12 8 2 2 1 2 11 2 8 9 8 9 9 3 3 3 11 1 3 8 9 11 9 0 3 3 13 2 2
split_gain=1249.14 562.298 403.487 206.811 162.613 129.6 87.7767 86.7544 82.6712 71.0431 52.9303 49.5634 35.5845 33.8779 31.0716 28.9826 25.2331 23.5998 17.7029 17.5305 17.3276 17.0161 15.414 14.0245 13.5751 13.355 13.2727 12.4066 11.4751 17.0975
threshold=2.5000000000000004 1.0000000180025095e-35 -0.22213551419263047 0.49185539433338915 0.53215574181053371 0.55869982736570301 0.84534124682907696 4.5000000000000009 0.53215574181053371 1.0000000180025095e-35 0.48841518019942326 -0.92495775120480384 -0.34892488560657858 0.22339845903523411 4.2512068178002584 3.5472048194648487 4.3935050940595426 4.5000000000000009 1.3389508067601785 3.5908928867374361 0.23413214773865951 -0.25306777369612715 3.5000000000000004 1.6556164840502137 1.662594398499661 5.3234368117189037 4.3935050940595426 3.5000000000000004 0.27427388558366433 0.2561084534988079
decision_type=2 2 2 2 2 2 2 2 2 2 2 2 2 2 2 2 2 2 2 2 2 2 2 2 2 2 2 2 2 2
left_child=1 6 8 9 5 7 10 12 11 25 -1 -3 22 -11 15 17 28 20 -19 23 27 26 24 -15 -4 -2 -13 -7 29 -14
right_child=3 2 4 -5 -6 14 -8 -9 -10 13 -12 21 16 19 -16 -17 -18 18 -20 -21 -22 -23 -24 -25 -26 -27 -28 -29 -30 -31
leaf_value=-0.09795313525026407 -0.10972028087513641 -0.080145874993958893 0.0098898814528578793 0.15079957210720935 0.17882467951969605 0.1233939431773951 0.16153976483492372 -0.021866484595193005 0.18267033412078146 -0.087592482967934676 -0.018632683770581939 -0.030982417717176088 0.068068977588441312 -0.04342830671959258 0.17600321477784822 -0.13961201059755987 0.16440877575481971 0.031730664080530609 0.11053292481237793 0.11775215378442756 0.12273174668080854 0.015110509171418525 0.15453623550828693 0.031808224803974099 -0.097370238055416711 0.060571767224501874 0.13162227359881237 0.03293322936910785 -0.024905397544686549 0.26087251402428008
leaf_weight=286.58425857126713 836.5273749679327 112.81535202264786 33.888525903224945 35.15534982085228 174.82239174842834 23.848079800605774 15.885508343577383 148.72638241946697 20.05386184155941 140.63932567834854 119.86094181239605 183.97050033509731 418.7734095454216 120.25470833480358 62.842849433422089 4.5108958035707465 28.65502604842186 72.510373428463936 47.701868191361427 8.2127141058444959 368.09435079991817 202.23309907317162 4.6398417502641669 30.624547705054283 17.427740275859833 4.2612126767635337 4.6531752645969382 42.814904049038887 12.647962957620619 4.2570481151342383
leaf_count=2092 6427 748 213 154 707 105 64 783 81 1023 688 1123 2029 723 253 20 118 321 204 41 1548 1068 28 165 113 21 22 188 65 19
internal_value=-0.00200516 0.0391837 0.0614282 -0.0865047 0.0883344 0.0760116 -0.06555 0.0453792 -0.0138888 -0.093891 -0.0746377 -0.021908 0.0646233 -0.0518965 0.108863 0.101154 0.073696 0.103253 0.0634116 -0.0201026 0.11416 -0.00499204 -0.0104725 -0.0280366 -0.0269323 -0.10881 -0.0265809 0.0661213 0.0675252 0.0703385
internal_weight=3587.89 2412.22 1989.89 1175.68 1466.16 1291.34 422.331 669.016 523.726 1140.52 406.445 503.672 520.29 299.731 622.323 559.48 464.333 554.97 120.212 159.092 434.757 390.857 55.9561 150.879 51.3163 840.789 188.624 66.663 435.678 423.03
internal_count=21154 12600 9756 8554 6714 6007 2844 3368 3042 8400 2780 2961 2585 1952 2639 2386 2231 2366 525 929 1841 2213 354 888 326 6448 1145 293 2113 2048
is_linear=0
shrinkage=0.1


Tree=6
num_leaves=31
num_cat=0
split_feature=14 14 8 2 8 9 2 9 8 2 8 2 11 0 9 5 9 7 10 7 11 2 2 3 8 9 3 8 0 3
split_gain=1134.35 391.073 281.264 267.289 106.812 99.9935 79.7599 59.5243 51.6003 44.9754 41.1857 37.4935 32.6082 30.1138 23.0463 21.0387 20.0558 19.5323 18.042 17.8334 15.8414 15.3697 36.4055 15.0141 14.1642 13.1622 11.8513 11.3998 9.72832 9.30187
threshold=1.0000000180025095e-35 4.5000000000000009 0.044256785320048127 0.49185539433338915 1.0000000180025095e-35 0.16701192261732153 0.53215574181053371 0.43484797060240626 -0.64722960915967076 0.53215574181053371 -0.73224842815307889 0.53215574181053371 4.5000000000000009 1.517369445444372 -0.47297526572598619 -0.45071463456778033 -0.52654247532300313 0.85604891166476305 0.41619247343923171 0.21611232601204991 4.5000000000000009 0.97075000759267838 0.56983219354208769 4.3935050940595426 0.44667919522217975 1.0861124662292967 5.3234368117189037 -0.3695014671145378 -0.29794246774674055 4.3935050940595426
decision_type=2 2 2 2 2 2 2 2 2 2 2 2 2 2 2 2 2 2 2 2 2 2 2 2 2 2 2 2 2 2
left_child=2 3 6 4 26 11 8 -6 -1 12 -3 13 18 29 -10 -9 -12 24 23 -18 27 22 -5 -7 -14 28 -2 -16 -17 -4
right_child=1 10 5 21 7 9 -8 15 14 -11 16 -13 17 -15 20 25 19 -19 -20 -21 -22 -23 -24 -25 -26 -27 -28 -29 -30 -31
leaf_value=-0.050759076789343563 -0.10604224439684816 -0.067945643392322938 0.047209208663484548 0.25337913629142494 -0.080540918771062689 0.10248921308657531 0.16599047171999892 0.18621268548296793 -0.05068316489609094 0.16446416949556886 0.020208102185460233 0.155370859469454 -0.01672370522280307 -0.013845789158527008 0.0046039688615469587 -0.086520223093856374 0.11064285299732453 -0.047102122137034207 -0.082919277487152609 -0.0041774551545177918 -0.028330980801806058 0.16517952166379543 -0.051176589728032254 0.16013602516878672 0.080644283851657853 0.011462986643303162 0.037830492903701246 0.044193120244071057 -0.022775354274736596 0.13550591284568106
leaf_weight=182.76953028142452 940.94210383296013 19.701789051294327 248.15876759588718 5.3344797492027309 278.99078783392906 445.32545156776905 27.566015914082527 4.6786049008369437 49.817728295922279 112.44573973119259 41.526437073945999 27.105260476469994 17.337353944778442 95.318807929754257 114.49269060790539 30.045515209436417 135.49779713153839 17.366129919886589 4.5579346418380728 14.795780301094053 54.082301139831543 41.390463396906853 11.514062374830244 52.805494919419289 94.914987713098526 95.356385603547096 5.4280784875154486 202.45220063626766 117.80452655255795 12.36756159365177
leaf_count=1207 7740 123 1223 31 2121 1864 114 19 326 468 218 112 78 532 617 192 600 87 20 69 280 170 61 217 400 505 27 971 710 52
internal_value=-0.00198941 -0.0591567 0.0546568 -0.0767631 -0.0850845 0.0845631 0.00118411 -0.0488922 -0.00645691 0.105923 0.0681531 0.0429129 0.0953748 0.0341128 0.0127968 -0.0131413 0.082324 0.0502222 0.106936 0.0992966 0.0214039 0.1325 0.049197 0.108775 0.0655097 -0.0173915 -0.105187 0.0299533 -0.0360447 0.0516906
internal_weight=3501.89 1743.01 1758.88 1531.49 1473.25 1127.7 631.18 526.876 603.614 744.753 211.522 382.95 632.307 355.845 420.845 247.885 191.82 129.618 502.689 150.294 371.027 58.239 16.8485 498.131 112.252 243.206 946.37 316.945 147.85 260.526
internal_count=21154 12586 8568 11576 11314 5053 3515 3547 3401 3134 1010 1919 2666 1807 2194 1426 887 565 2101 669 1868 262 92 2081 478 1407 7767 1588 902 1275
is_linear=0
shrinkage=0.1


Tree=7
num_leaves=31
num_cat=0
split_feature=14 14 9 10 8 8 9 8 10 8 9 10 13 10 11 8 13 11 3 10 8 7 13 13 3 9 9 9 7 4
split_gain=949.591 336.082 230.99 207.784 112.425 83.0616 54.3636 48.9212 47.1607 34.1477 31.6758 26.5383 26.4783 26.4075 20.8067 20.0942 19.5614 18.689 17.0464 16.5272 16.4742 15.8844 14.8579 28.9038 12.6473 12.2058 12.0185 11.6507 11.1807 11.1236
threshold=1.0000000180025095e-35 4.5000000000000009 0.27414634181135544 0.55979253301298215 1.0000000180025095e-35 -0.28731660875424331 0.43484797060240626 0.24546799027111393 0.5977645838792367 -0.33265997888406096 -0.63649622133793271 0.59112617261008238 12.500000000000002 0.35842081105185025 4.5000000000000009 1.5575917634027121 8.5000000000000018 4.5000000000000009 5.7378493355617337 0.31384418958561294 -0.92495775120480384 2.5355316065767908 3.5000000000000004 8.5000000000000018 4.3935050940595426 1.0861124662292967 -0.30945431011403973 -0.89305496203943491 -0.23493609487247238 0.65411382735596579
decision_type=2 2 2 2 2 2 2 2 2 2 2 2 2 2 2 2 2 2 2 2 2 2 2 2 2 2 2 2 2 2
left_child=2 3 5 4 -2 13 -6 19 10 26 15 12 14 20 -9 -7 28 24 25 21 29 -4 -11 -24 -12 -8 -3 -25 -16 -1
right_child=1 9 7 -5 6 8 18 11 -10 22 17 -13 -14 -15 16 -17 -18 -19 -20 -21 -22 -23 23 27 -26 -27 -28 -29 -30 -31
leaf_value=-0.088880107784743478 -0.10241611394369442 -0.069454150932631561 0.044530042204526492 0.12838744314550082 -0.074915400658083317 -0.062302930961297291 -0.031915126034385927 0.10731000896830126 0.14199489709099458 0.11983784001163028 0.042957940488170157 0.15171645649805174 -0.0016394159058025631 0.11557034431978858 0.06930858254802609 0.051733017516714823 0.095261086100800571 -0.0056480610226307395 0.17000164629616643 0.14233256700985733 -0.019381759045392299 -0.10294854433410841 -0.051641945762553515 0.0010862588537574789 0.12610163901213697 0.013571827072970472 0.028271352028691632 0.10250165303708131 -0.033261282946040548 0.0096151390916370677
leaf_weight=66.882878109812737 880.76041997969151 20.198178768157959 212.13035759329796 48.723007827997208 264.98320979624987 55.765681639313698 145.74279406666756 411.39428670704365 38.74223467707634 65.731442913413048 365.90740385651588 89.061912536621094 28.29221223294735 11.851440399885176 16.617472544312477 20.781915739178658 54.467760771512985 80.21461096405983 4.6602507382631293 16.55384324491024 222.41522674262524 7.0624555945396414 19.053181931376457 14.016992241144179 19.087060406804085 98.133499920368195 31.500549778342247 63.562130019068718 27.466590285301208 13.490844011306761
leaf_count=491 7790 130 988 218 2127 366 907 1686 167 287 1747 386 122 58 68 116 227 402 19 72 1338 36 95 69 81 515 161 268 126 91
internal_value=-0.00195976 -0.0562688 0.0492215 -0.0736167 -0.0807264 0.0136041 -0.0434424 0.0861226 0.0360273 0.0605261 0.028307 0.100739 0.0921517 -0.0277257 0.0973714 -0.0310787 0.0554505 0.0381229 -0.0097635 0.0470576 -0.0335487 0.0395092 0.0830112 0.05737 0.0472641 -0.0135804 -0.010017 0.0844303 0.00552177 -0.0722667
internal_weight=3415.25 1657.07 1758.19 1443 1394.28 895.139 513.52 863.047 580.499 214.062 541.757 627.3 538.238 314.64 509.946 76.5476 98.5518 465.209 248.537 235.747 302.789 219.193 162.364 96.6323 384.994 243.876 51.6987 77.5791 44.0841 80.3737
internal_count=21154 12586 8568 11576 11358 4857 3568 3711 2879 1010 2712 2615 2229 1978 2107 482 421 2230 1441 1096 1920 1024 719 432 1828 1422 291 337 194 582
is_linear=0
shrinkage=0.1


Tree=8
num_leaves=31
num_cat=0
split_feature=12 12 1 2 2 2 1 5 2 1 1 0 5 2 11 5 5 4 5 0 1 4 5 5 1 0 1 13 13 13
split_gain=782.766 315.114 220.928 137.018 98.0482 78.7922 60.7108 56.4137 55.3853 41.0601 40.713 38.9726 31.029 31.8762 29.6667 28.6321 30.8263 26.9493 22.6806 21.3372 20.7972 19.7049 17.7497 21.0551 16.8071 15.2093 12.0894 11.5554 11.1931 13.583
threshold=2.5000000000000004 1.0000000180025095e-35 -0.22155115202877271 0.90293239447588103 0.53215574181053371 0.53215574181053371 1.3389508067601785 -0.38116389689828162 0.49185539433338915 -1.0018021314232481 0.94882531706294071 -0.80622980344025197 -0.33401426470767637 0.27427388558366433 4.5000000000000009 -0.36701230032329196 -0.39893722908961921 -0.47007298912508177 -0.43113043456826861 0.42818229752970444 1.3389508067601785 0.49351571071581607 -0.39893722908961921 -0.45339740169100112 0.94882531706294071 -0.44316742080202953 1.7290762964574165 3.5000000000000004 2.5000000000000004 3.5000000000000004
decision_type=2 2 2 2 2 2 2 2 2 2 2 2 2 2 2 2 2 2 2 2 2 2 2 2 2 2 2 2 2 2
left_child=1 8 5 6 7 9 18 22 10 -3 -1 -9 -13 14 24 16 -11 -17 -2 27 -16 -20 23 -4 -14 -8 -27 -19 -12 -30
right_child=3 2 4 -5 -6 -7 25 11 -10 15 28 12 13 -15 20 17 -18 19 21 -21 -22 -23 -24 -25 -26 26 -28 -29 29 -31
leaf_value=-0.086149188242834213 0.077977049612326529 -0.052877322112055848 0.16062203792631805 0.14716142524848139 0.14887405942147611 0.14772204928188623 -0.062671328133760612 -0.024505997523871434 0.099414452145458021 -0.073438890945691171 -0.10885651265929402 -0.12127156964784043 0.05607450570139421 -0.062384415978520451 0.0091270093275178012 -0.071835408102508491 0.1804267062609046 0.014232041444464057 -0.098441733771211931 0.032619552599967148 0.084869760776636452 -0.055336554372166946 0.16117399105355296 -0.067403285060353674 0.086611861233296769 0.0056716933367980012 0.1164522874323797 -0.026466648411739065 0.064371019626873138 -0.0232624667463407
leaf_weight=254.47320584207773 7.48598888516426 144.80243462324142 7.0854211002588263 25.968415334820747 141.74873298406601 34.745482102036476 20.781465567648411 59.172507248818874 21.098103880882263 6.1484096944332149 9.2827129364013654 8.9924286752939206 346.14424574375153 20.170952580869198 145.08258051425219 44.83709979057312 17.382269501686096 120.43561007082462 743.54292657226324 212.72683285176754 48.067766487598419 127.65848627686501 68.287151783704758 8.1853467077016813 394.35684034228325 33.228021420538425 13.664445355534552 163.89347840100527 25.326933987438679 55.518293686211109
leaf_count=2212 36 1048 31 114 635 153 149 345 102 30 59 42 1577 95 677 310 74 650 7001 1032 199 992 292 37 1599 189 73 930 138 333
internal_value=-0.00191666 0.029213 0.0448783 -0.0773947 0.0706059 0.00177108 -0.0836416 0.0604989 -0.0560463 -0.00545392 -0.0657235 0.0539712 0.0588148 0.0605857 0.0632851 0.00670931 0.113529 0.00195204 -0.0906678 0.00869366 0.0281986 -0.0921723 0.139424 0.0395012 0.0723983 0.00743744 0.0390521 -0.00919774 -0.0077849 0.00429506
internal_weight=3330.29 2357.96 1992.27 972.33 1247.29 744.972 946.361 1105.55 365.699 710.226 344.601 1021.99 962.815 953.822 933.651 565.424 23.5307 541.893 878.687 497.056 193.15 871.201 83.5579 15.2708 740.501 67.6739 46.8925 284.329 90.1279 80.8452
internal_count=21154 12600 9756 8554 5529 4227 8440 4894 2844 4074 2742 4534 4189 4147 4052 3026 104 2922 8029 2612 876 7993 360 68 3176 411 262 1580 530 471
is_linear=0
shrinkage=0.1


Tree=9
num_leaves=31
num_cat=0
split_feature=14 14 2 2 8 8 3 0 4 8 8 8 11 8 2 11 1 8 3 13 13 13 2 2 1 13 3 3 3 3
split_gain=664.924 255.108 175.52 157.155 129.151 102.445 43.7736 38.5768 33.0932 31.5947 27.6389 24.8693 19.2022 18.8647 18.556 15.5667 15.0737 14.8971 12.7197 12.9444 24.6846 15.0399 12.4486 26.7181 11.3981 11.1645 10.9572 10.5431 10.2113 14.6924
threshold=1.0000000180025095e-35 4.5000000000000009 0.49185539433338915 0.53215574181053371 0.044256785320048127 1.0000000180025095e-35 4.2512068178002584 1.517369445444372 0.25261853575559162 -0.64722960915967076 0.75841486486467613 -0.73224842815307889 4.5000000000000009 0.55153573864738303 0.53215574181053371 4.5000000000000009 0.94882531706294071 1.5575917634027121 4.3935050940595426 3.5000000000000004 8.5000000000000018 9.5000000000000018 0.97075000759267838 0.56983219354208769 1.7290762964574165 2.5000000000000004 5.3234368117189037 4.3935050940595426 4.7817047775388195 5.3633801875109839
decision_type=2 2 2 2 2 2 2 2 2 2 2 2 2 2 2 2 2 2 2 2 2 2 2 2 2 2 2 2 2 2
left_child=3 2 5 4 9 26 7 10 13 -1 12 -3 -6 -7 18 27 -15 -9 19 -13 -21 -22 23 -4 -10 -18 -2 -11 -8 -30
right_child=1 11 22 -5 6 8 28 17 24 15 -12 14 -14 16 -16 -17 25 -19 -20 20 21 -23 -24 -25 -26 -27 -28 -29 29 -31
leaf_value=-0.042524590221618232 -0.099136996041136669 -0.060390380519933499 0.19580498821116865 0.13925390078696881 0.048291233328299654 -0.084277358451335993 0.14576551427748796 -0.032389612770428851 -0.0086802325317007992 0.013033939257898211 0.077103612234052682 0.076558427325335188 -0.0072145147037211343 -0.064247540777075465 0.15178288688489716 -0.035716344019119065 -0.098405924962903193 0.032689243470657152 0.15118104701100207 -0.06311297160494822 0.091731269728202725 0.00032500128718441872 0.13988048612797707 -0.054898939419619056 0.085711885778515212 0.0062615289981207897 0.03985390394748279 0.09526216595147341 -0.077355886176190977 0.12286465956633184
leaf_weight=168.84254747629166 752.30741009116173 18.096404537558556 6.1303279548883465 146.1154913008213 378.01942305266857 140.42327357083559 58.776466399431229 73.497855797410011 136.23791725933552 341.09665241837502 338.87514352798462 66.493886291980743 74.104999110102654 90.146843634545803 19.785455077886581 66.286295160651207 11.127181537449358 66.517379805445671 11.25303830206394 26.123061910271645 38.464709505438805 33.873975291848183 37.066593989729881 11.335244923830031 13.612735271453856 81.339373476803303 5.3647047430276862 15.916416391730307 5.3456830829381934 9.3633480072021467
leaf_count=1207 7740 123 31 694 1662 1222 266 414 828 1751 1401 291 357 822 87 373 79 306 47 140 161 161 170 61 68 528 27 70 25 42
internal_value=-0.00185912 -0.0506818 -0.0675203 0.0401366 0.031019 -0.0753147 0.0528478 0.0469149 -0.0386988 -0.00600763 0.0554744 0.0502674 0.0391736 -0.0566929 0.0606632 0.00856738 -0.0352546 -0.00139497 0.0499748 0.0425742 0.0192518 0.0493619 0.107271 0.0355407 8.45506e-05 -0.00668782 -0.098114 0.0168559 0.127054 0.0492904
internal_weight=3241.94 1499.18 1285.09 1742.76 1596.64 1230.56 1004.5 931.015 472.887 592.142 791 214.091 452.124 323.037 195.994 423.299 182.613 140.015 176.209 164.956 98.4617 72.3387 54.5322 17.4656 149.851 92.4666 757.672 357.013 73.4855 14.709
internal_count=21154 12586 11576 8568 7874 11314 4473 4140 3547 3401 3420 1010 2019 2651 887 2194 1429 720 800 753 462 322 262 92 896 607 7767 1821 333 67
is_linear=0
shrinkage=0.1


Tree=10
num_leaves=31
num_cat=0
split_feature=12 12 2 8 2 8 1 3 11 3 2 1 1 1 3 8 2 7 5 0 4 8 3 3 4 2 4 1 3 11
split_gain=611.296 230.719 155.659 132.295 100.523 67.9008 56.51 51.2129 44.2128 27.5816 27.3568 24.5229 22.4362 22.033 21.2582 19.8164 18.9964 18.2278 17.689 14.7357 13.3197 14.0734 13.3083 12.4414 10.2494 10.0182 9.41783 8.86307 8.56399 7.48901
threshold=2.5000000000000004 1.0000000180025095e-35 0.53215574181053371 -0.26181096305622092 0.97075000759267838 -0.14845253773167683 0.94882531706294071 4.3935050940595426 4.5000000000000009 3.7007371701656555 0.45485173638275572 0.94882531706294071 0.94882531706294071 0.94882531706294071 4.7817047775388195 -0.77759179828289648 0.97075000759267838 -0.51730914782709181 -0.45071463456778033 1.517369445444372 0.73441288567604068 0.55153573864738303 5.3234368117189037 4.3935050940595426 -0.47007298912508177 0.48263811953477681 -0.22917581416485736 1.7290762964574165 5.3633801875109839 6.5000000000000009
decision_type=2 2 2 2 2 2 2 2 2 2 2 2 2 2 2 2 2 2 2 2 2 2 2 2 2 2 2 2 2 2
left_child=1 6 3 15 5 22 16 8 9 10 12 -10 19 28 -9 26 -1 25 -16 -5 21 -15 -2 29 -21 -8 -3 -13 -7 -17
right_child=4 2 -4 7 -6 13 17 14 11 -11 -12 27 -14 20 18 23 -18 -19 -20 24 -22 -23 -24 -25 -26 -27 -28 -29 -30 -31
leaf_value=-0.08121130864716955 -0.10006714014423285 -0.10851865601913512 0.13447916076677358 0.047203200780385257 0.13300845064764474 -0.071345057539191195 -0.038307261546769798 0.14243040235462029 -0.020163824739480869 -0.13921601007228776 -0.1401838066865779 0.026302642734843076 0.072570200121775993 -0.071351896163734774 0.099381038946801059 -0.0016649656774014839 0.10981731243550721 0.058558179528783255 -0.10760532424280092 -0.076533549369468046 0.029610873328054427 0.00056393235182281508 0.078547434617575365 0.10478581444075762 0.018193230776321567 0.11192561592966777 -0.034653935951552424 0.095422839966434567 0.10603437044827016 -0.095228483754426399
leaf_weight=229.04484073072672 537.9843979254365 19.924011908471584 158.71852979063988 523.72801859676838 22.806387841701508 137.06444080919027 52.418436713516712 73.839783668518066 154.36318697035313 7.0354167371988288 6.792452171444892 92.70907087624073 402.36458884179592 50.225585497915745 9.5575550496578234 296.9895880818367 4.8671551346778861 45.814691767096519 6.4916284084320059 14.457417368888853 49.119840018451214 58.095770709216595 3.7962382584810248 10.303855270147322 47.680114418268204 4.3354406654834738 127.37637357413769 23.194102570414543 2.3081390112638465 8.3198835551738721
leaf_count=2230 6085 165 791 2382 111 1293 346 345 824 33 32 391 1636 420 44 1686 23 231 30 104 271 381 18 45 237 22 963 95 11 55
internal_value=-7.5216e-05 0.0266292 0.039619 0.0313296 -0.0719932 -0.0776563 -0.0498725 0.0470217 0.0418217 0.0514999 0.0529277 0.00587211 0.0543354 -0.0390625 0.119876 -0.0148268 -0.076968 0.0118965 0.0143327 0.0417437 -0.0132773 -0.0328642 -0.0987259 -0.000642565 -0.00412201 -0.0257791 -0.0450459 0.0405711 -0.0679675 -0.00439886
internal_weight=3181.73 2320.33 1983.85 1825.13 861.401 838.594 336.481 1362.21 1272.32 1002.06 995.023 270.266 988.23 296.814 89.889 462.914 233.912 102.569 16.0492 585.866 157.441 108.321 541.781 315.613 62.1375 56.7539 147.3 115.903 139.373 305.309
internal_count=21300 12710 9858 9067 8590 8479 2852 6153 5734 4424 4391 1310 4359 2376 419 2914 2253 599 74 2723 1072 801 6103 1786 341 368 1128 486 1304 1741
is_linear=0
shrinkage=0.1


Tree=11
num_leaves=31
num_cat=0
split_feature=8 2 16 0 9 2 3 8 1 16 1 11 9 9 13 13 11 13 13 13 8 7 11 3 9 3 13 0 8 2
split_gain=469.051 168.431 102.181 79.9633 57.6065 47.719 38.4268 31.5269 30.2296 21.7395 18.9462 18.4336 16.9129 14.4859 13.3444 18.5588 12.18 11.5578 42.9389 32.3959 11.027 10.0327 9.759 9.27391 8.94196 8.73926 8.27467 8.23346 7.79527 7.75429
threshold=-0.28731660875424331 0.80625192815758961 1.0000000180025095e-35 -1.0240672330231855 -0.072630857158806947 0.53215574181053371 4.2512068178002584 0.39566790382613487 0.94882531706294071 1.0000000180025095e-35 1.7290762964574165 4.5000000000000009 -0.63649622133793271 0.62092354078151779 3.5000000000000004 8.5000000000000018 4.5000000000000009 3.5000000000000004 8.5000000000000018 2.5000000000000004 1.8409878267140722 3.7087486802734322 6.5000000000000009 3.4123959261665786 -0.12619806675582387 4.4821294590982204 3.5000000000000004 0.64601972711263789 0.52319613231624706 0.80625192815758961
decision_type=2 2 2 2 2 2 2 2 2 2 2 2 2 2 2 2 2 2 2 2 2 2 2 2 2 2 2 2 2 2
left_child=3 2 8 25 12 9 7 11 26 -5 16 -6 20 14 21 -16 17 19 -19 27 23 -11 -17 -4 -14 29 -2 -9 -29 -1
right_child=1 -3 4 5 6 -7 -8 10 -10 13 -12 -13 24 -15 15 22 -18 18 -20 -21 -22 -23 -24 -25 -26 -27 -28 28 -30 -31
leaf_value=-0.10223415363999078 -0.024619868096735758 0.12716674148022916 -0.066623636077217913 -0.073273004314827722 0.023800476135496608 0.11795479024820117 0.10984553499277017 -0.01265525510431148 0.007800656652617555 -0.019041001833999319 0.098852733552997382 -0.036502713014865455 0.01298874539208528 0.017416228880484278 -0.077497599980560133 -0.013446483686145962 0.015695862006599282 -0.060575389085011845 0.054132952218579049 0.10210867077407325 0.022343448446642423 0.14004425453958866 -0.10372748734098423 0.09957322364344405 -0.074176779100580015 0.048480577144087683 -0.059887156273603484 0.17421041740938215 0.035264559973289443 0.071650833445575934
leaf_weight=308.50179222226143 124.38199593126774 152.88797645270824 69.063468009233475 167.96818707883358 345.32066262513399 18.624261200428009 77.629826165735722 38.350982509553432 191.47715190798044 160.74517573416233 72.277428597211838 58.826727218925953 258.95853410661221 53.576261013746262 133.94982995837927 110.05937232077122 119.2060474306345 37.64388132840395 225.21944689005613 122.82411400973797 21.254972860217094 3.556313030421733 13.041882723569868 3.0497031658887854 11.808120928704737 3.6025662645697585 148.83038986474276 4.1104753986001006 41.283752664923668 2.1891343742609015
leaf_count=3659 1012 807 541 1732 1792 97 387 174 1145 1275 306 339 1481 350 1170 855 558 187 1003 533 120 29 123 17 71 25 1289 20 192 11
internal_value=-0.000143351 0.0262149 0.0183509 -0.057521 0.0309941 -0.0377172 0.0420281 0.0370264 -0.0226144 -0.0423306 0.0504809 0.0149639 -0.00361449 -0.0313007 -0.0375322 -0.05176 0.0444456 0.0517005 0.0375841 0.0694814 -0.0402164 -0.0151225 -0.0234731 -0.0588201 0.00902088 -0.0990458 -0.0439423 0.0211883 0.049825 -0.100864
internal_weight=3100.22 2124.41 1971.52 975.815 1506.83 661.521 1142.69 1065.06 464.69 642.897 660.916 404.147 364.135 474.929 421.353 257.051 588.639 469.433 262.863 206.569 93.3681 164.301 123.101 72.1132 270.767 314.293 273.212 83.7452 45.3942 310.691
internal_count=21300 11974 11167 9326 7721 5631 5491 5104 3446 5534 2973 2131 2230 3802 3452 2148 2667 2109 1190 919 678 1304 978 558 1552 3695 2301 386 212 3670
is_linear=0
shrinkage=0.1


Tree=12
num_leaves=31
num_cat=0
split_feature=14 14 8 2 8 2 2 3 0 3 8 8 11 16 2 3 8 11 8 13 3 5 11 3 5 3 0 13 13 13
split_gain=429.643 213.534 112.267 108.055 71.216 62.5095 28.6491 26.7271 25.2588 24.4299 20.4087 19.81 19.3416 18.3978 16.6117 16.3863 16.0057 14.637 14.2955 13.6565 11.5082 12.6371 11.4955 10.792 12.4443 10.4978 9.86705 9.30296 34.0074 20.9401
threshold=1.0000000180025095e-35 4.5000000000000009 -0.15978838026413125 0.53215574181053371 0.109437879881661 0.48263811953477681 0.8724548362001775 4.3935050940595426 1.517369445444372 5.3234368117189037 -0.77759179828289648 -0.33265997888406096 4.5000000000000009 1.0000000180025095e-35 0.45485173638275572 3.7007371701656555 1.1523353928674669 3.5000000000000004 1.2940334245231471 2.5000000000000004 4.3935050940595426 -0.39632153114447899 4.5000000000000009 4.7817047775388195 -0.42757576813000103 5.3234368117189037 1.662594398499661 3.5000000000000004 8.5000000000000018 2.5000000000000004
decision_type=2 2 2 2 2 2 2 2 2 2 2 2 2 2 2 2 2 2 2 2 2 2 2 2 2 2 2 2 2 2
left_child=3 2 6 4 10 9 25 8 14 13 -1 -3 17 -4 15 16 22 20 -15 -18 -12 -22 27 -9 -25 -2 -13 29 -29 -6
right_child=1 11 5 -5 7 -7 -8 23 -10 -11 12 26 -14 18 -16 -17 19 -19 -20 -21 21 -23 -24 24 -26 -27 -28 28 -30 -31
leaf_value=-0.038284269518341747 -0.09490893874762979 -0.0057888589408065776 -0.05700093420716601 0.12298966752289867 0.033826991258208983 0.094285011885827164 0.10931137966030191 0.12728018240039732 -0.00022971173637146853 0.11743136633144105 0.0083815496656095417 0.073173848869512045 -0.039343240495968886 -0.030836307704224481 -0.1345495109447413 -0.13176011645060948 -0.016931547953213076 0.096468178636000088 0.033760617482743886 0.082574131063600967 -0.030558572586798463 0.14975673775494042 0.0077970932770454211 0.091938498841320104 -0.10308326196945856 0.056465697317172707 -0.039206921159167046 -0.031945178044231186 0.052530178326888978 0.098206250925268301
leaf_weight=115.94287803769112 561.04405185580254 47.754235439002514 281.55707082152367 122.87632568180561 117.24846675992012 38.491600304841995 6.5952910184860221 49.360653787851334 142.5837954133749 9.5251474231481534 398.58562741428614 150.14600111544132 72.937955312430859 170.53824015706778 4.5922651141881934 4.6142923235893241 14.71614734828472 21.088719844818115 42.265920571982861 162.99132896959782 5.4319293349981317 11.389862835407257 95.098057627677917 8.8774065822362882 4.5134694427251807 4.2305612117052069 7.821307733654975 60.795814841985703 213.35350957512856 90.357541367411613
leaf_count=939 7182 297 2464 703 503 205 35 263 737 45 2080 677 434 1399 22 22 60 99 261 675 26 52 451 43 21 20 39 278 896 372
internal_value=-0.000173333 -0.0430676 -0.0603519 0.0327925 0.025799 -0.0276937 -0.0912571 0.0427692 0.0383387 -0.0371157 -0.000495819 0.0504203 0.00811401 -0.0402293 0.0455474 0.0467378 0.0479291 0.0161029 -0.0179105 0.0742535 0.0118879 0.0917524 0.039745 0.105794 0.024141 -0.0937095 0.0674404 0.0460161 0.0337363 0.0620638
internal_weight=3037.33 1319.97 1114.25 1717.36 1594.48 542.378 571.87 969.103 906.351 503.886 625.377 205.722 509.434 494.361 763.767 759.175 754.561 436.496 212.804 177.707 415.407 16.8218 576.853 62.7515 13.3909 565.275 157.967 481.755 274.149 207.606
internal_count=21300 12624 11611 8676 7973 4374 7237 4343 4016 4169 3630 1013 2691 4124 3279 3257 3235 2257 1660 735 2158 78 2500 327 64 7202 716 2049 1174 875
is_linear=0
shrinkage=0.1


Tree=13
num_leaves=31
num_cat=0
split_feature=12 12 2 9 8 9 9 2 2 2 2 8 2 8 8 13 13 13 13 2 2 9 8 9 4 7 13 7 2 9
split_gain=411.044 151.152 115.395 73.4944 69.3698 49.7684 30.0386 28.9935 26.251 18.4253 18.9589 15.6452 15.2239 14.5713 12.7756 12.3541 13.4935 24.1114 79.7922 11.175 26.3288 10.4238 9.26847 9.147 7.91709 7.40194 6.86753 8.84553 6.72895 6.49647
threshold=2.5000000000000004 1.0000000180025095e-35 0.53215574181053371 0.48841518019942326 -0.26181096305622092 0.77034786228898622 -0.11210143265134577 0.97075000759267838 0.90293239447588103 0.27427388558366433 0.2561084534988079 -0.14845253773167683 0.97075000759267838 -0.92495775120480384 0.38433206129368047 12.500000000000002 2.5000000000000004 3.5000000000000004 8.5000000000000018 0.42545064815652506 0.45485173638275572 -0.90151294250212177 0.40416978572547574 1.2101628463487044 0.25261853575559162 0.58228863016698085 3.5000000000000004 3.2726515443269837 0.84534124682907696 2.1715532922741141
decision_type=2 2 2 2 2 2 2 2 2 2 2 2 2 2 2 2 2 2 2 2 2 2 2 2 2 2 2 2 2 2
left_child=1 5 4 7 13 12 21 14 11 10 15 -5 22 26 -2 16 -8 -18 -19 -11 -21 -6 -1 -13 -24 29 27 -3 -7 -25
right_child=3 2 -4 8 6 28 9 -9 -10 19 -12 23 -14 -15 -16 -17 17 18 -20 20 -22 -23 24 25 -26 -27 -28 -29 -30 -31
leaf_value=-0.088229072334727557 -0.095533722164386728 -0.034492334192019948 0.12174645794543877 -0.068365590221439065 -0.023205664513374587 0.01433493279778246 0.023298367599538065 0.10633924357511776 0.12301349838473255 -0.14020440196830541 0.17538752781929254 -0.029424055439072779 0.098418165937544766 -0.00058958925194339373 -0.049630667796146416 0.0027047937421248026 0.082332026482614951 -0.042035964576411511 0.060703018092508942 0.18362907460440439 -0.13523099569803093 0.019566721733301748 -0.055018277630145912 0.015647136033945273 0.048825991738446546 -0.061076913384482602 -0.065925560774270919 0.10135972821604243 0.12065332435763493 0.098835654253838348
leaf_weight=138.41013964265585 430.20808506011963 21.301089718937877 131.52771508693695 59.98386387526989 70.793599151074886 74.043565928936005 177.57393959164619 7.2768138647079459 12.122431755065916 7.8772500902414349 10.939657136797903 85.457171127200127 4.8796766251325598 359.11086149513721 73.770873747766018 64.42377108335495 215.98867367208004 91.579499021172523 421.88979955017567 4.4600007086992246 4.9101995527744293 281.08695811778307 73.338936790823936 43.809182740747929 7.6645155176520339 9.0389777421951276 57.790548883378506 5.6362853646278372 6.0455749034881583 11.703299447894095
leaf_count=1631 5993 187 791 730 451 424 760 42 70 38 45 642 27 2159 756 281 929 423 1801 19 23 1383 672 245 65 56 523 45 33 56
internal_value=-0.000208919 0.0211363 0.0314848 -0.0651354 0.0248346 -0.0442859 0.0360973 -0.0859908 -0.017001 0.0449427 0.0467542 -0.0254042 -0.0684198 -0.00944068 -0.0888902 0.0452058 0.0482104 0.054241 0.0423365 -0.0560843 0.0171398 0.0109124 -0.072391 -0.00798882 -0.0448306 0.0202428 -0.0466142 -0.00437353 0.0231833 0.0340894
internal_weight=2964.64 2231.27 1926.89 733.371 1795.36 304.382 1351.52 511.256 222.115 999.643 982.395 209.992 224.293 443.839 503.979 971.456 907.032 729.458 513.469 17.2475 9.3702 351.881 219.414 150.009 81.0035 64.5515 84.7279 26.9374 80.0891 55.5125
internal_count=21300 12710 9858 8590 9067 2852 6153 6791 1799 4319 4239 1729 2395 2914 6749 4194 3913 3153 2224 80 42 1834 2368 999 737 357 755 232 457 301
is_linear=0
shrinkage=0.1


Tree=14
num_leaves=31
num_cat=0
split_feature=12 12 5 8 8 9 3 5 11 9 3 3 5 5 5 5 10 3 9 4 5 8 5 5 9 8 6 5 8 9
split_gain=351.464 125.26 105.422 70.4446 56.3396 44.7198 38.9737 34.5807 26.0945 23.0684 19.3829 18.996 18.2422 18.9163 32.5751 17.3964 16.5022 14.1813 13.0368 12.7938 12.5895 12.3931 12.1813 11.3979 10.2128 9.79743 11.1772 9.61003 8.56807 8.38334
threshold=2.5000000000000004 1.0000000180025095e-35 0.54204333938006932 -0.29865245128669776 -0.26181096305622092 0.43484797060240626 4.2512068178002584 0.97926731128697597 4.5000000000000009 1.2101628463487044 4.7817047775388195 3.7007371701656555 0.46498085376555243 0.4356716229443654 0.28496717979743807 0.26685850171569786 0.061852466655356007 5.3633801875109839 0.74497392090092551 0.81471194399611535 -0.45071463456778033 -0.92495775120480384 0.97926731128697597 0.97926731128697597 -0.17976527635284084 0.38433206129368047 0.84333690416865659 0.85425036334488769 0.673396045871268 1.0861124662292967
decision_type=2 2 2 2 2 2 2 2 2 2 2 2 2 2 2 2 2 2 2 2 2 2 2 2 2 2 2 2 2 2
left_child=1 5 4 22 21 23 8 9 11 17 -8 12 13 14 15 16 18 24 -6 -20 -12 -3 -2 -1 -5 -10 -27 29 -26 -7
right_child=3 2 -4 7 6 27 10 -9 25 -11 20 -13 -14 -15 -16 -17 -18 -19 19 -21 -22 -23 -24 -25 28 26 -28 -29 -30 -31
leaf_value=-0.078245243654535959 -0.094078523079431015 -0.043580772196693651 0.11821523992714573 -0.082604483902243564 0.030365959587392067 -0.02480050003110559 0.12523793727736357 0.12032359439578029 -0.029675410015917659 0.015306085303964751 0.075321383606750489 -0.13165068431278709 -0.12818375131791218 0.21019380721390007 -0.13508216211857035 0.16817082493523761 -0.13709825832939659 0.11362374940161857 0.072558159048294976 0.029810761738180338 -0.10345842234525163 -0.00053088803006923506 0.083366152311484476 0.10685811789700778 -0.055404138346743292 0.043922449995267329 -0.0059639832533793175 0.10844021723338332 -0.0056707534865006563 0.030391311350297059
leaf_weight=167.28285721689463 365.35305568575859 81.821583613753319 122.39655965566635 80.375421203672886 662.6920053511858 69.206096984446049 62.962518736720085 14.449986100196837 76.175468884408474 69.149344138801098 8.7587243467569333 6.2347384542226783 6.1534995660185805 5.8805458247661582 10.405609063804148 9.8521567732095701 4.8957547396421424 4.6913816481828681 179.29529291391373 118.12134227156639 6.3544254899024954 358.99800481647253 3.4882021844387046 2.9330871701240531 100.33296316862106 71.039324164390564 119.66750257462263 7.7989154905080786 53.678935453295708 44.926444031298161
leaf_count=2053 5617 755 791 983 2967 495 351 90 400 401 44 31 32 25 53 41 25 22 753 495 30 2159 21 17 1044 302 604 45 412 242
internal_value=-0.000245096 0.0192693 0.0285932 -0.0624204 0.0224257 -0.0416528 0.0325697 -0.0281879 0.0283183 -0.0353662 0.101 0.035706 0.0368277 0.0379264 0.036782 0.038695 0.0372764 -0.0500654 0.0382469 0.0556928 -0.000113246 -0.00858446 -0.0922627 -0.0746934 -0.0536192 0.000486679 0.0126329 0.00450668 -0.0382093 -0.00295009
internal_weight=2895.37 2203.85 1911.71 691.519 1789.31 292.147 1348.49 322.678 1270.41 308.228 78.0757 1003.53 997.296 991.143 985.262 974.857 965.004 239.079 960.109 297.417 15.1131 440.82 368.841 170.216 234.387 266.882 190.707 121.931 154.012 114.133
internal_count=21300 12710 9858 8590 9067 2852 6153 2952 5728 2862 425 4422 4391 4359 4334 4281 4240 2461 4215 1248 74 2914 5638 2070 2439 1306 906 782 1456 737
is_linear=0
shrinkage=0.1


Tree=15
num_leaves=31
num_cat=0
split_feature=12 2 12 8 8 5 9 2 5 9 5 9 5 2 4 5 13 5 0 5 5 9 4 13 2 9 16 1 0 13
split_gain=300.061 114.089 97.5189 72.6205 50.232 39.4777 37.3757 34.0144 28.4867 28.148 19.7425 15.8324 15.608 15.7361 14.0951 13.4761 11.1537 10.752 10.6956 9.29816 9.16914 9.68172 9.06469 9.05086 9.36604 8.17699 8.13129 7.84947 7.41348 10.3794
threshold=2.5000000000000004 0.80625192815758961 1.0000000180025095e-35 -0.15978838026413125 -0.65573149105901163 -0.38116389689828162 0.47149921927404947 0.48263811953477681 -0.39893722908961921 0.40383537557255439 -0.42348454826708937 -0.19386191045731899 -0.42938663593817511 0.97075000759267838 1.2965062939165646 -0.15822594895863476 12.500000000000002 -0.33569099415968934 -1.0240672330231855 -0.41583866196591018 -0.33401426470767637 -0.65341218226330644 -0.22917581416485736 8.5000000000000018 0.42545064815652506 1.9713810879905243 1.0000000180025095e-35 -0.22155115202877271 0.35556982100205992 12.500000000000002
decision_type=2 2 2 2 2 2 2 2 2 2 2 2 2 2 2 2 2 2 2 2 2 2 2 2 2 2 2 2 2 2
left_child=1 2 6 12 22 8 19 11 10 20 -6 -5 -2 -14 15 -11 18 -13 -17 -1 -7 -22 -4 24 -24 -19 27 -23 29 -28
right_child=3 -3 4 7 5 9 -8 -9 -10 14 -12 17 13 -15 -16 16 -18 25 -20 -21 21 26 23 -25 -26 -27 28 -29 -30 -31
leaf_value=0.13022746581665889 0.11799664085309813 0.11540718478967177 -0.090643501476703095 -0.074566018457874722 0.061733094098061714 -0.086968523903783096 8.0821684715622367e-06 0.10753758315099099 0.12543878075592718 -0.10843085599400935 -0.14763121950318026 0.070942180664838303 -0.093110157672059213 0.088975489557358206 0.012177540570346354 -0.086981098263300957 -0.023150701420793059 -0.031132493139298018 0.051293018695388527 -0.078623773003507202 -0.015570286371477702 0.010037694520668218 -0.043473970101810165 0.015687223602823864 0.12257057025267509 0.031175380408829834 0.0060102149582693387 0.070636387684870627 0.021366604933944097 -0.054266153832483593
leaf_weight=1.6930802613496769 3.1639993637800208 110.68795861303806 22.188769042491913 62.920302905142307 11.684487566351892 9.2385697811841947 109.2672208994627 18.496736906468868 62.162483617663383 5.1719743460416785 6.6343145072460166 12.47367739677429 370.32118288055062 4.3791126012802115 177.75980694591999 5.1721939593553534 21.473222523927689 162.65910773724318 484.55551388859749 156.29841476678848 120.76078195124865 39.501030407845974 103.26514358818531 43.55648086220026 3.0106533393263808 23.618135429918766 273.30538376420736 47.736653573811054 328.68075753003359 31.393823064863682
leaf_count=12 15 766 212 799 59 51 704 116 359 23 32 70 6123 28 794 28 91 1355 2055 2050 799 191 844 339 21 124 1369 207 1491 163
internal_value=-0.00117694 0.0167206 0.0113981 -0.0603223 0.0197851 0.0252287 -0.0448971 -0.0216391 0.0933456 0.0216442 -0.0154665 -0.0309961 -0.088911 -0.0908397 0.0365857 0.0449489 0.0466247 -0.0170001 0.049725 -0.0759188 0.0094254 0.0105467 -0.0315106 -0.0224147 -0.0381246 -0.0231166 0.014945 0.043525 0.0109616 -0.000246154
internal_weight=2833.23 2175.2 2064.51 658.032 1797.25 1625.23 267.259 280.168 80.4813 1544.75 18.3188 261.671 377.864 374.7 694.133 516.373 511.201 198.751 489.728 157.991 850.617 841.378 172.021 149.832 106.276 186.277 720.618 87.2377 633.38 304.699
internal_count=21290 12660 11894 8630 9128 7712 2766 2464 450 7262 91 2348 6166 6151 2991 2197 2174 1549 2083 2062 4271 4220 1416 1204 865 1479 3421 398 3023 1532
is_linear=0
shrinkage=0.1


Tree=16
num_leaves=31
num_cat=0
split_feature=12 2 12 8 1 2 1 8 13 13 13 5 17 1 13 5 5 8 1 2 13 13 4 14 4 13 14 0 4 0
split_gain=256.606 102.438 81.1118 68.8136 42.162 30.1408 28.5033 26.1261 18.4114 43.9896 21.3163 16.6554 15.9651 13.7041 12.4979 11.8129 11.525 10.8646 10.5467 9.94771 9.40025 10.9299 10.753 9.35516 17.4434 9.01946 8.7436 8.37533 8.27828 7.92889
threshold=2.5000000000000004 0.80625192815758961 1.0000000180025095e-35 -0.29865245128669776 0.94882531706294071 0.48263811953477681 0.94882531706294071 -0.65573149105901163 3.5000000000000004 8.5000000000000018 2.5000000000000004 -0.36701230032329196 36.500000000000007 1.7290762964574165 12.500000000000002 -0.43113043456826861 -0.43113043456826861 0.41550562825793008 1.3389508067601785 0.97075000759267838 2.5000000000000004 3.5000000000000004 0.092020419115441926 1.0000000180025095e-35 -0.068577697524707715 2.5000000000000004 1.5000000000000002 -0.44316742080202953 -0.22917581416485736 -1.0240672330231855
decision_type=2 2 2 2 2 2 2 2 2 2 2 2 2 2 2 2 2 2 2 2 2 2 2 2 2 2 2 2 2 2
left_child=1 2 6 19 7 13 15 28 10 -10 23 -6 17 16 -11 -1 -5 -13 29 -2 -8 22 -22 24 -9 -20 -18 -15 -4 -14
right_child=3 -3 4 5 11 -7 20 8 9 14 -12 12 18 27 -16 -17 26 -19 25 -21 21 -23 -24 -25 -26 -27 -28 -29 -30 -31
leaf_value=0.14224343913621237 -0.092323334129310569 0.112510301734229 -0.087689273456312999 0.090765930900236769 0.10448499427106815 0.094958311215986566 -0.10016619655447766 -0.087196207981936821 -0.034778633551245816 0.035287789063685807 0.062251879720264004 -0.10435433820205212 -0.084944120896236361 -0.06199415325290647 -0.0019538075024217441 -0.069441765687917809 -0.028799239353954117 0.0070391054040089803 -0.040182835518272987 0.075682369262605173 -0.0087701979562394335 -0.0099775979608374837 0.12421592042421548 0.060047129856849284 0.014536812031234199 0.067660526077111871 -0.068377327672223681 0.078150540777551458 -0.020517154132441415 0.032752139690850085
leaf_weight=2.1984357833862296 311.78591464459896 102.61302916705608 20.735185332596302 6.2384614497423163 37.710592642426491 19.451404057443142 7.4438204020261756 17.482989333570004 212.12537033855915 247.68822015076876 132.08840651810169 10.929798267781733 5.3189601078629485 5.2017183676362064 140.62709970027208 166.25092950835824 175.97035138309002 36.633185833692551 7.7355889081954947 3.1472318917512885 10.071479834616186 57.423310458660126 14.127561435103415 39.129646323621273 264.87665853649378 152.38373996317387 83.483862161636353 16.469889432191849 147.3871192112565 314.67650146782398
leaf_count=13 5645 766 212 28 241 128 58 111 1158 1170 603 49 30 34 748 2210 1718 155 32 21 65 355 65 180 1242 665 975 81 1204 1328
internal_value=-0.0011292 0.0152472 0.0103357 -0.0576797 0.0179008 -0.0238709 -0.0420712 0.00743828 0.0132863 0.00177631 0.0284824 0.0404722 0.035784 -0.0321 0.02179 -0.0662071 -0.0383676 -0.0191699 0.0412632 -0.0904954 0.00357975 0.0137152 0.069406 0.0145015 0.00805941 0.0622793 -0.0416797 0.0434219 -0.0290965 0.0306351
internal_weight=2769.41 2147.66 2045.04 621.749 1787.53 306.816 257.516 1222.14 1054.02 600.441 453.578 565.388 527.678 287.364 388.315 168.449 265.693 47.563 480.115 314.933 89.0662 81.6224 24.199 321.489 282.36 160.119 259.454 21.6716 168.122 319.995
internal_count=21290 12660 11894 8630 9128 2964 2766 6628 5212 3076 2136 2500 2259 2836 1918 2223 2721 204 2055 5666 543 485 130 1533 1353 697 2693 115 1416 1358
is_linear=0
shrinkage=0.1


Tree=17
num_leaves=31
num_cat=0
split_feature=12 2 12 9 9 9 10 3 3 3 3 3 9 3 3 6 2 3 3 7 9 3 4 6 9 3 13 13 3 17
split_gain=219.319 94.0332 66.3938 58.9587 35.2855 31.4628 22.9647 15.6395 19.3965 14.7576 19.3728 17.0875 13.3972 12.6462 11.6501 11.1865 10.8204 10.0965 13.4359 10.0718 16.5591 9.84921 9.50427 9.49815 9.24648 8.79594 8.73651 19.93 7.44526 7.09687
threshold=3.5000000000000004 0.80625192815758961 1.0000000180025095e-35 0.16701192261732153 0.16701192261732153 0.43484797060240626 0.38683146284925701 4.2512068178002584 4.7817047775388195 4.3935050940595426 4.7242861748377045 3.7007371701656555 -0.65341218226330644 3.5908928867374361 5.6404873570685394 -0.56929228565605239 0.97075000759267838 3.9279151199831106 5.3234368117189037 0.10495375059850748 0.65193613581136978 3.5472048194648487 0.25261853575559162 -0.56929228565605239 1.6556164840502137 5.3234368117189037 3.5000000000000004 5.5000000000000009 5.3234368117189037 33.500000000000007
decision_type=2 2 2 2 2 2 2 2 2 2 2 2 2 2 2 2 2 2 2 2 2 2 2 2 2 2 2 2 2 2
left_child=1 2 5 16 7 28 13 12 -9 11 -11 19 15 23 -12 -4 25 -15 -19 20 -6 -14 -17 24 -5 -2 -21 -28 -1 -22
right_child=3 -3 4 6 9 -7 -8 8 -10 10 14 -13 21 17 -16 22 -18 18 -20 26 29 -23 -24 -25 -26 -27 27 -29 -30 -31
leaf_value=-0.073738515136574742 -0.087034584332695952 0.11002642047236255 -0.08625624075477345 -0.073269188949454417 0.016045756129751659 0.00073558362857883877 0.10447119655670097 0.12189201357946011 -0.041826095048929972 0.11671754604467716 -0.13330462112099281 -0.12887373770356592 0.0070152847285520556 0.21347497908360744 0.063701170871428792 -0.021626042822723811 0.078511960873304809 -0.1128452654233989 0.11255838826403797 0.034253588613863122 -0.0015479420885954279 -0.11558073335749558 0.06521646898997227 -0.014768301586961199 0.023897687585372539 0.051753901968528554 -0.069534705369906691 0.015201560031455877 0.10654476068876391 0.05778570044817552
leaf_weight=137.25911730527878 326.72832064703107 95.98624625056982 24.694007989019156 66.570847418159246 213.26548155024648 108.92323715239763 13.951325222849844 21.983098685741425 10.253792285919188 37.903788179159164 5.2951968461275083 6.4978771060705176 678.35188376531005 3.0517026856541625 5.7125817388296127 154.39254309237003 3.6580348610877982 4.1697449274361116 5.5783302932977676 137.11851847171783 21.485271438956261 6.1102467440068713 13.189503625035284 128.03905549272895 11.050249114632605 4.2335522323846808 32.509786628186703 173.74520748853683 1.864116072654723 257.36636220663786
leaf_count=2040 6032 773 259 1028 917 715 98 119 57 259 24 34 3530 20 34 1187 27 34 26 624 92 40 116 974 104 19 170 800 11 1127
internal_value=-0.00108529 0.013541 0.00898807 -0.0563671 0.0156785 -0.0394525 -0.0175661 0.00180211 0.0696682 0.0298162 0.0830902 0.0266621 -0.000720158 -0.0256261 -0.0318722 -0.0240179 -0.0832202 0.0688288 0.0143645 0.0279601 0.0371424 0.00582269 -0.014558 -0.031706 -0.059244 -0.0851537 0.0147362 0.00166126 -0.0708784 0.0531837
internal_weight=2710.94 2143.91 2047.92 567.031 1799.88 248.046 232.411 908.975 32.2369 890.9 48.9116 841.989 876.738 218.46 11.0078 192.276 334.62 12.7998 9.74808 835.491 492.117 684.462 167.582 205.66 77.6211 330.962 343.374 206.255 139.123 278.852
internal_count=21290 12928 12155 8362 9389 2766 2284 5308 176 4081 317 3764 5132 2186 58 1562 6078 80 60 3730 2136 3570 1303 2106 1132 6051 1594 970 2051 1219
is_linear=0
shrinkage=0.1


Tree=18
num_leaves=31
num_cat=0
split_feature=0 2 14 14 9 9 5 13 9 13 1 3 13 9 15 0 3 5 3 3 5 13 9 2 13 13 13 15 3 5
split_gain=175.388 103.649 64.2814 55.4717 45.0179 29.8265 18.8589 18.0004 17.6957 13.2267 19.8643 12.4807 11.4467 10.5582 10.318 9.9931 9.57463 15.2319 9.48957 8.52682 8.04496 7.49006 7.47464 6.93024 6.87743 41.5278 12.0025 7.47678 6.79728 8.53124
threshold=-0.80622980344025197 0.80625192815758961 1.0000000180025095e-35 4.5000000000000009 -0.19386191045731899 0.29388162955762481 -0.45071463456778033 1.5000000000000002 0.12472202030388709 3.5000000000000004 1.3389508067601785 4.3935050940595426 8.5000000000000018 -0.34892488560657858 3.5000000000000004 1.662594398499661 3.7406805459577357 -0.32053335991349197 4.7817047775388195 2.56859211255889 -0.45071463456778033 10.500000000000002 1.6105072549158839 0.53215574181053371 3.5000000000000004 8.5000000000000018 2.5000000000000004 2.5000000000000004 4.2512068178002584 -0.33401426470767637
decision_type=2 2 2 2 2 2 2 2 2 2 2 2 2 2 2 2 2 2 2 2 2 2 2 2 2 2 2 2 2 2
left_child=8 2 5 4 -4 13 -6 -8 -1 10 -9 19 -11 21 -5 -16 17 -14 -13 24 -20 -2 23 -10 26 -26 -7 -27 29 -15
right_child=1 -3 3 14 6 11 7 9 22 12 -12 18 16 28 15 -17 -18 -19 20 -21 -22 -23 -24 -25 25 27 -28 -29 -30 -31
leaf_value=-0.086837951054820284 -0.03397550326762961 0.10849062538005956 -0.07398424575317257 -0.027612374577777016 0.15380969555619003 0.01375864451483331 -0.07634941608310114 -0.00012563022259946718 -0.050230587551993167 -0.068037262440127436 0.11482225106557463 0.11209930718706701 0.20768169825950858 -0.11313295659368482 0.046243929106062669 -0.06863664550542832 -0.11408843200559585 -0.010814428810893114 0.076539458347272854 -0.087534199555290751 -0.1113853127527539 0.0093086757069957525 0.041798386375722862 0.098654437374463236 -0.056347798922564078 -0.01407506992721212 0.059102882036733688 0.038547686343619825 0.067990008544007705 0.0082224182373584788
leaf_weight=216.59313111379743 114.05700948089361 98.670555084943771 192.76959593966603 25.988550685346127 6.0102409422397605 94.939873218536377 45.665310606360435 83.474778153002262 87.825236842036247 44.601951416581869 17.789904713630676 30.086474560201168 2.7452159859240046 5.342441424727439 139.80845983326435 7.5040114372968665 8.264363367110489 180.81271209567785 4.5409357994794846 5.8320944160222998 3.6442577838897687 60.658661171793938 10.595828153192995 2.7466152235865584 59.010290816426277 28.9772829413414 155.48516237735748 315.71723242849112 18.427745170891285 587.99353568255901
leaf_count=4080 886 854 3253 132 28 403 568 812 1101 528 91 230 16 34 659 39 57 1521 29 29 16 442 100 20 277 124 679 1369 110 2803
internal_value=-0.00102807 0.00844383 0.00400944 -0.0197245 -0.0345123 0.0160948 -0.0148748 -0.0177424 -0.0706794 -0.00968633 0.0204348 0.0311309 -0.0226458 0.00272172 0.0298481 0.0401119 -0.0118901 -0.00693706 0.0864792 0.0278431 -0.00757369 -0.0189071 -0.0357296 -0.045089 0.0289531 0.0207847 0.0420137 0.0340809 0.00892551 0.00701855
internal_weight=2656.58 2338.82 2240.15 755.435 582.134 1484.71 389.364 383.354 317.761 337.689 101.265 698.234 236.424 786.479 173.301 147.312 191.822 183.558 38.2717 659.962 8.18519 174.716 101.168 90.5719 654.13 403.705 250.425 344.695 611.764 593.336
internal_count=21290 15989 15135 7704 6874 7431 3621 3593 5301 3025 903 3156 2122 4275 830 698 1594 1537 275 2881 45 1328 1221 1121 2852 1770 1082 1493 2947 2837
is_linear=0
shrinkage=0.1


Tree=19
num_leaves=31
num_cat=0
split_feature=12 10 8 12 1 1 8 3 3 13 13 13 10 13 3 3 3 3 8 3 0 13 3 13 17 14 7 16 13 10
split_gain=163.478 62.5233 58.4602 48.932 27.1438 22.8348 20.2361 18.1294 23.0623 15.0064 44.0402 18.2433 14.9698 14.2965 10.7197 9.33282 9.96213 11.2463 9.09487 8.81455 7.80167 7.75551 7.59286 7.52481 7.52158 7.38589 8.66582 7.31628 8.34913 7.19337
threshold=3.5000000000000004 0.5977645838792367 -0.29865245128669776 1.0000000180025095e-35 1.3389508067601785 0.94882531706294071 -0.65573149105901163 4.3935050940595426 4.7242861748377045 3.5000000000000004 8.5000000000000018 2.5000000000000004 0.37124078455634285 12.500000000000002 5.1249681632520065 3.5908928867374361 3.7743827692823033 5.3633801875109839 0.55153573864738303 5.3234368117189037 1.662594398499661 6.5000000000000009 5.3234368117189037 2.5000000000000004 23.500000000000004 1.5000000000000002 -0.66781108974197878 1.0000000180025095e-35 2.5000000000000004 0.18236754974257388
decision_type=2 2 2 2 2 2 2 2 2 2 2 2 2 2 2 2 2 2 2 2 2 2 2 2 2 2 2 2 2 2
left_child=1 3 22 5 6 19 29 9 -9 11 21 20 15 -12 -10 18 -17 -18 -4 -1 25 -11 -2 -7 -15 26 -8 -20 -29 -5
right_child=2 -3 12 4 -6 23 7 8 14 10 13 -13 -14 24 -16 16 17 -19 27 -21 -22 -23 -24 -25 -26 -27 -28 28 -30 -31
leaf_value=-0.063281456532892938 -0.088339954626820982 0.096371332714237368 -0.047194652408490807 -0.028421662835743818 0.049062956379343589 -0.094493232297265362 -0.10838969805433561 0.11152606189161055 -0.13530097037475783 -0.023596364846991884 0.026522061841174917 0.045817887834399856 0.073859124082964162 -0.12427354259290413 0.03711752217791929 0.1850626393653855 -0.10717692908052388 0.081684023858138333 -0.030788503481914198 0.11276819539264984 -0.060075887079157092 -0.065060679620934717 0.072409838425303755 0.01365609535127347 -0.0048980233487591132 0.050119092980616148 0.0091820313780335561 -0.10166061013744948 0.037622435983229549 0.074299642407985575
leaf_weight=141.01838006824255 244.76205496117473 82.721033439040184 132.32016133144498 157.1832022331655 191.32107032090425 6.4814725890755644 5.8944969102740279 37.449071168899536 5.8674990683794004 163.23914567753673 411.06536478549242 218.69727571308613 15.823051780462263 4.9906067214906207 7.8075183033943176 3.5255357176065436 4.9072519540786725 7.0554157793521881 57.593658722937107 2.4222090244293204 15.007217600941656 63.242156498134136 2.5535554736852637 80.267935194075108 147.37196154147387 44.673722773790359 299.3950589671731 4.301603239029645 40.085979044437408 6.6054665297269812
leaf_count=2197 5533 760 1680 1453 922 57 39 260 30 897 1876 981 130 32 39 22 49 33 575 13 81 366 12 482 772 215 1403 44 284 53
internal_value=-0.000977222 0.0114219 -0.0515463 0.00789775 0.0135151 -0.0354271 0.00921327 0.0130462 0.0712678 0.0108468 0.00184485 0.0230005 -0.0188642 0.0168265 -0.0383191 -0.0249136 0.0489486 0.00221655 -0.0299326 -0.0598577 0.00925657 -0.0353366 -0.0864971 0.00496591 -0.00926726 0.0123397 0.00670575 -0.00731653 0.0229197 -0.0240046
internal_weight=2605.65 2092.72 512.928 2010 1779.81 230.19 1588.49 1424.7 51.1241 1373.58 789.909 583.668 265.613 563.428 13.675 249.79 15.4882 11.9627 234.301 143.441 364.97 226.481 247.316 86.7494 152.363 349.963 305.29 101.981 44.3876 163.789
internal_count=21290 12928 8362 12168 9419 2749 8497 6991 329 6662 3943 2719 2817 2680 69 2687 104 82 2583 2210 1738 1263 5545 539 804 1657 1442 903 328 1506
is_linear=0
shrinkage=0.1


Tree=20
num_leaves=31
num_cat=0
split_feature=0 2 9 14 14 3 14 14 9 3 3 8 0 2 14 0 0 0 9 1 2 4 13 16 4 3 0 1 15 16
split_gain=131.641 91.9264 45.2696 23.7131 43.3634 22.6087 15.6935 22.0353 11.7256 11.5775 20.3526 11.5701 10.649 10.4247 11.9392 9.96728 9.26373 10.5278 9.13894 9.67853 9.04597 8.85958 8.69145 8.53931 8.52092 8.41514 8.40151 8.13857 7.31765 7.13139
threshold=-1.0240672330231855 0.80625192815758961 -0.11210143265134577 1.0000000180025095e-35 4.5000000000000009 4.4821294590982204 1.0000000180025095e-35 4.5000000000000009 1.0861124662292967 4.7242861748377045 5.7378493355617337 1.4725729444093041 0.2103448679467709 -0.078606452509194943 1.5000000000000002 0.79124468016792693 0.42818229752970444 2.388719163776106 -1.0255633226215293 -1.7820531108177236 0.27427388558366433 0.89501100231619024 8.5000000000000018 1.0000000180025095e-35 2.2600949937574626 4.4821294590982204 -0.29794246774674055 1.7290762964574165 3.5000000000000004 1.0000000180025095e-35
decision_type=2 2 2 2 2 2 2 2 2 2 2 2 2 2 2 2 2 2 2 2 2 2 2 2 2 2 2 2 2 2
left_child=25 2 3 18 12 6 16 8 11 -7 -11 29 -5 14 -10 26 -4 20 -2 -20 24 28 -13 -24 27 -1 -6 -18 -9 -8
right_child=1 -3 5 4 15 9 7 21 13 10 -12 22 -14 -15 -16 -17 17 -19 19 -21 -22 -23 23 -25 -26 -27 -28 -29 -30 -31
leaf_value=-0.090714540150260009 -0.03412230075578198 0.1054358493493685 0.0067350855188120819 -0.090933103355184508 -0.014299438437291876 0.10498469048153912 -0.053361748110439935 -0.014793814053984642 0.035980375459888032 -0.069107359635332113 0.11514492323751842 -0.029436815855761814 -0.044232439738117163 -0.10144218004728299 -0.041952134281913966 -0.042793446814342474 0.030706505220996799 -0.10764595177179528 0.13041955974498162 -0.0009581182486605894 -0.052752360934580925 -0.050870780935732031 0.022139404839638346 0.16992386946974142 -0.02892033674626722 0.0647982300210556 0.05999607100472705 0.091205080060609567 0.064968864289556186 -0.018818310422535706
leaf_weight=164.41089582443237 91.492546737194061 85.657575607299805 580.03635192662477 100.61430037021637 22.447503767907619 36.549140810966492 119.6759426780045 13.68232151865959 82.391506180167198 12.760109435766937 10.424257665872572 14.003996979445221 100.38438014686108 7.3935365676879874 25.21337553858757 21.200552694499493 342.69145768135786 5.2618456184864035 5.1912323385477057 375.36047618091106 12.768886059522627 9.2661403566598874 11.620093300938608 5.6972417309880248 21.748183399438858 3.1441837772727004 44.562697879970074 23.682357773184776 61.505777135491371 122.9965896718204
leaf_count=3678 781 859 2678 2174 142 304 1590 60 496 70 58 108 1691 40 175 113 1487 25 40 2124 71 42 84 37 100 27 220 110 268 1559
internal_value=-0.00202932 0.00403954 0.000204547 -0.0196875 -0.0422154 0.0101809 0.00769282 -0.007253 -0.0173286 0.0702449 0.0139966 -0.0285702 -0.0678267 0.00937674 0.0175176 0.0160838 0.0148781 0.0264603 -0.0058341 0.000976585 0.0283773 0.0388659 0.0281082 0.0747245 0.0311365 -0.0875527 0.0350384 0.0347634 0.0503201 -0.0359695
internal_weight=2533.84 2366.28 2280.62 761.254 289.209 1519.37 1459.64 473.447 388.992 59.7335 23.1844 273.994 200.999 114.998 107.605 88.2108 986.189 406.153 472.044 380.552 400.891 84.4542 31.3213 17.3173 388.122 167.555 67.0102 366.374 75.1881 242.673
internal_count=21211 17506 16647 7285 4340 9362 8930 4459 4089 432 128 3378 3865 711 671 475 4471 1793 2945 2164 1768 370 229 121 1697 3705 362 1597 328 3149
is_linear=0
shrinkage=0.1


Tree=21
num_leaves=31
num_cat=0
split_feature=12 2 9 3 12 3 11 3 13 13 13 11 9 1 2 0 3 0 3 12 13 0 0 0 9 2 3 3 3 9
split_gain=119.507 62.8326 48.3938 35.0379 29.2376 25.6394 22.7861 19.179 17.7553 49.6421 31.3238 15.7559 15.1633 14.4087 14.3004 13.8432 12.5367 10.5714 8.969 7.72287 7.10514 6.66078 6.53358 11.2633 6.39992 6.00977 5.93312 20.9904 6.13807 5.82425
threshold=3.5000000000000004 0.80625192815758961 -0.038798935308059411 4.2512068178002584 1.0000000180025095e-35 4.7242861748377045 4.5000000000000009 3.5472048194648487 3.5000000000000004 8.5000000000000018 2.5000000000000004 1.0000000180025095e-35 0.77034786228898622 1.7290762964574165 0.90293239447588103 -0.95145475649554101 5.1249681632520065 1.0090821097508604 5.3234368117189037 5.5000000000000009 1.5000000000000002 1.0000000180025095e-35 1.3721444923890831 0.42818229752970444 -1.2398321610095973 0.48263811953477681 3.5908928867374361 3.7406805459577357 5.3633801875109839 -1.3272312924573615
decision_type=2 2 2 2 2 2 2 2 2 2 2 2 2 2 2 2 2 2 2 2 2 2 2 2 2 2 2 2 2 2
left_child=1 3 17 4 12 -5 7 8 10 -10 11 20 21 22 15 -4 -7 18 -2 26 -6 -1 23 -8 -19 -23 -17 -28 -29 -11
right_child=2 -3 14 5 6 16 13 -9 9 29 -12 -13 -14 -15 -16 19 -18 24 -20 -21 -22 25 -24 -25 -26 -27 27 28 -30 -31
leaf_value=-0.08203075986104845 -0.09083091817196913 0.10212756699570275 -0.083561106381382685 0.11234575647695305 0.11807062820932615 -0.12275271428124389 -0.031613055604809197 -0.11992242440751638 -0.035468061642021209 -0.043888351456476939 0.057526149396055763 0.003044062765678679 0.0081458231730555334 0.060222538901453362 0.10653473075019455 -0.02082560702798952 0.032223350440889663 -0.086447848061879468 0.075964857153820287 0.056529217764335227 -0.0015876100046964383 -0.03992918154386408 -0.047100547050082174 0.013262954475800165 0.0011486235177783192 0.093701734194116398 0.25463487516127531 -0.10887096935219627 0.056123463638787278 0.022075054499359936
leaf_weight=45.783008404076099 197.32349853217602 68.937455058097839 29.15479901060462 50.698300816118717 17.682718418538574 6.7232245467603233 138.13888488709927 10.283898077905176 224.68100811168551 13.18557273223996 213.53148169070482 326.25990790128708 63.010414488613605 22.308088108897209 8.809548966586588 166.89528080448508 18.234776541590691 12.062715761363505 2.8560701310634604 15.452600114047526 6.5818013101816168 96.628486763685942 77.874866876751184 92.999320521950722 24.129599679261446 2.9813061207532874 3.0896695852279654 4.3892580978572351 3.6702918410301208 527.08143223822117
leaf_count=864 5074 760 670 400 79 45 800 73 1483 103 993 1708 372 101 86 1711 101 226 13 126 29 1467 475 467 367 22 15 42 19 2520
internal_value=-0.00188973 0.00863931 -0.0474149 0.00531177 0.0026105 0.071812 0.00702397 0.0128367 0.0139162 0.00397025 0.0273714 0.00891755 -0.0326531 -0.0164265 -0.0148072 -0.0198811 -0.0107225 -0.0792043 -0.088218 -0.010044 0.0858325 -0.0503705 -0.0220806 -0.0135242 -0.0285545 -0.0353817 -0.0160201 0.0528626 -0.0336755 0.0204076
internal_weight=2491.44 2023.61 467.833 1954.67 1879.01 75.6563 1670.61 1339.29 1329 764.948 564.056 350.524 208.403 331.321 231.461 222.652 24.958 236.372 200.18 193.497 24.2645 145.393 309.013 231.138 36.1923 99.6098 178.045 11.1492 8.05955 540.267
internal_count=21211 12862 8349 12102 11556 546 8831 6988 6915 4106 2809 1816 2725 1843 2669 2583 146 5680 5087 1913 108 2353 1742 1267 593 1489 1787 76 61 2623
is_linear=0
shrinkage=0.1


Tree=22
num_leaves=31
num_cat=0
split_feature=0 10 12 3 9 12 11 3 3 13 13 13 8 13 16 1 3 11 4 3 8 11 0 8 9 8 1 13 13 9
split_gain=105.083 57.6394 40.6204 28.2513 25.8482 25.0844 19.9337 19.5974 17.1217 14.3449 36.2415 24.7451 13.4385 12.4314 12.3729 11.6326 11.5235 9.81431 7.61716 7.43884 7.04199 7.72985 6.0008 11.0121 5.83935 7.40191 6.66689 16.7014 6.36314 5.21642
threshold=-1.0240672330231855 0.64127804432233415 3.5000000000000004 4.2512068178002584 -0.23333248594985781 1.0000000180025095e-35 4.5000000000000009 4.7242861748377045 3.5472048194648487 3.5000000000000004 8.5000000000000018 2.5000000000000004 -0.11444501013431362 1.5000000000000002 1.0000000180025095e-35 1.7290762964574165 5.1249681632520065 1.0000000180025095e-35 0.17231947743551676 4.4821294590982204 -0.15978838026413125 5.5000000000000009 1.3721444923890831 1.2798636213575791 1.3680451483188596 -0.76058803448421486 1.7290762964574165 10.500000000000002 12.500000000000002 -0.89305496203943491
decision_type=2 2 2 2 2 2 2 2 2 2 2 2 2 2 2 2 2 2 2 2 2 2 2 2 2 2 2 2 2 2
left_child=19 2 3 5 -4 12 8 -5 9 11 -11 13 -2 17 -14 22 -9 -7 -16 -1 -6 -22 23 -8 25 -12 27 -26 29 -27
right_child=1 -3 4 7 20 6 15 16 -10 10 24 -13 14 -15 18 -17 -18 -19 -20 -21 21 -23 -24 -25 26 28 -28 -29 -30 -31
leaf_value=-0.087477270820059155 -0.07705597922507712 0.090332016408945295 -0.074984211921068203 0.10522847708226289 -0.044296382046194654 0.10501253457784326 -0.019168272874414839 -0.11910937996464972 -0.11677334224112951 -0.02965156396353846 -0.039437642730243694 0.053357358149627589 -0.039309444395745685 -0.0026836843707174558 -0.014467029952651032 0.05495707695628417 0.035299851389346083 0.02413783159047081 0.054332003325372018 0.057989314923221805 0.0027629421263053382 -0.074642515036347182 -0.04402892874006846 0.050371746232648389 -0.082730712724888453 -0.023369835716498828 0.040907465414392018 0.027564364287466527 0.0010184848838297577 0.034383582922019824
leaf_weight=142.31670839712024 45.781733918935061 73.417210929095745 97.569365981966257 46.829656712710857 55.593353431671858 17.940160132944584 201.28668804094195 6.0973218791186836 9.5268195681273919 212.14941288903356 17.471834409981966 211.73737834766507 88.963216178119183 239.30943366140127 33.214634403586388 21.986216597259045 17.516262866556644 87.13441726565361 30.135627426207066 3.195737548172473 159.37469509616494 13.521117925643919 74.92267095670104 25.126136735081673 25.774539910256863 15.846547227352856 20.632803969085217 28.18622574955225 83.817548990249634 341.10570783540606
leaf_count=3678 971 826 2285 396 1165 79 1118 43 72 1373 157 994 1062 1231 406 101 96 440 213 27 1389 114 466 108 116 101 99 127 417 1541
internal_value=-0.00175828 0.00345484 0.00056866 0.0061644 -0.0320103 0.0037599 0.00784145 0.068091 0.0133309 0.0143357 0.00524066 0.0264859 -0.0297907 0.0098821 -0.0153128 -0.0143662 -0.00579887 0.0384728 0.0182731 -0.0840264 -0.0134923 -0.00343057 -0.0195399 -0.011313 0.0191666 0.0233916 -0.00663844 -0.0252107 0.0259467 0.0317626
internal_weight=2447.48 2301.97 2228.55 1902.49 326.059 1832.05 1633.95 70.4432 1310.63 1301.11 744.985 556.121 198.095 344.384 152.313 323.322 23.6136 105.075 63.3503 145.512 228.489 172.896 301.335 226.413 532.835 458.242 74.5936 53.9608 440.77 356.952
internal_count=21211 17506 16680 11727 4953 11192 8540 535 6747 6675 3931 2744 2652 1750 1681 1793 139 519 619 3705 2668 1503 1692 1226 2558 2216 342 243 2059 1642
is_linear=0
shrinkage=0.1


Tree=23
num_leaves=31
num_cat=0
split_feature=0 2 12 5 12 1 3 3 11 13 13 13 8 5 13 1 4 11 11 4 12 5 2 4 0 13 4 11 8 8
split_gain=92.2739 67.1088 33.7479 24.7478 20.2262 17.7946 17.6048 16.1079 16.288 12.083 29.7695 20.0849 11.8653 10.7361 10.0488 9.53755 8.27405 7.94767 7.3879 7.12409 6.90188 5.79387 5.6832 5.66028 5.54597 5.51298 8.41995 5.2362 5.21383 5.12807
threshold=-1.0240672330231855 0.80625192815758961 3.5000000000000004 -0.3777433688161751 1.0000000180025095e-35 0.94882531706294071 4.7242861748377045 3.5472048194648487 4.5000000000000009 3.5000000000000004 8.5000000000000018 2.5000000000000004 -0.11444501013431362 -0.42348454826708937 1.5000000000000002 1.7290762964574165 0.092020419115441926 1.0000000180025095e-35 1.0000000180025095e-35 0.17231947743551676 2.5000000000000004 -0.42938663593817511 0.27427388558366433 1.3768053522366392 2.1708817341931725 8.5000000000000018 0.5738147690358909 3.5000000000000004 2.096044283694297 0.18028689570950107
decision_type=2 2 2 2 2 2 2 2 2 2 2 2 2 2 2 2 2 2 2 2 2 2 2 2 2 2 2 2 2 2
left_child=20 2 3 6 12 16 -2 8 9 11 -11 14 -5 29 17 24 -4 -6 -7 -14 25 -22 -13 -21 -10 -1 -27 -25 -26 -8
right_child=1 -3 5 4 7 18 13 -9 15 10 -12 22 19 -15 -16 -17 -18 -19 -20 23 21 -23 -24 27 28 26 -28 -29 -30 -31
leaf_value=-0.0738977709704388 0.10136915477334735 0.10039950340930931 -0.065620001416942006 -0.073776695874661333 0.094011210493194775 0.10044169798558991 -0.056097581488899401 -0.10842088955821401 -0.013894262761015018 -0.027810254256073308 0.016701624753962585 0.051005551624701252 -0.031808663691306527 -0.11587976301509378 -0.0025866432382649798 0.050352824416853417 -0.016113679797707652 0.021458878438761972 -0.0092245676067742536 0.031264181228000287 0.11329652309107466 -0.097005001700427002 -0.041992378912865939 -0.078631143562871555 -0.10371106222058733 -0.030377960327177808 0.15826816437977601 0.030280120334859131 0.012154659236825668 0.065194132525058818
leaf_weight=19.053694859147072 44.022609375417233 68.290474772453308 123.04746159166098 42.635726440697908 18.085247814655304 5.9133289493620387 4.1820103861391607 11.568514188751577 278.11955415830016 208.92655378207564 530.79240525513887 203.01056745275855 91.371724002063274 5.9854958467185488 238.73192529380322 21.732240244746208 47.810162818059325 87.357655219733715 141.57405184209347 43.807590242475271 0.88658015429973502 101.87634205631912 6.3142889961600295 10.48201870173216 12.864490915089847 10.792498406022785 2.4868930615484706 6.8613494187593451 5.131534729152917 13.039901249110697
leaf_count=240 395 859 2876 971 79 46 22 91 1542 1369 2536 945 1256 45 1225 101 738 437 1297 326 4 3313 35 70 104 126 22 41 28 72
internal_value=-0.0016425 0.00313591 9.47266e-05 0.00518732 0.0029693 -0.0299896 0.0645468 0.0066348 0.00750056 0.0124888 0.00410587 0.0236602 -0.0273953 -0.00554532 0.00874372 -0.0127513 -0.0519127 0.0343822 -0.00443555 -0.0141659 -0.0817812 -0.094554 0.0480592 0.0120779 -0.0174934 -0.0400598 0.00868594 -0.0353423 -0.0706961 0.0344248
internal_weight=2406.75 2271.66 2203.37 1885.02 1817.79 318.345 67.23 1622.63 1611.07 1293.22 739.719 553.5 195.158 23.2074 344.175 317.848 170.858 105.443 147.487 152.523 135.096 102.763 209.325 61.151 296.116 32.3331 13.2794 17.3434 17.996 17.2219
internal_count=21211 17506 16647 11690 11156 4957 534 8492 8401 6626 3905 2721 2664 139 1741 1775 3614 516 1343 1693 3705 3317 980 437 1674 388 148 111 132 94
is_linear=0
shrinkage=0.1


Tree=24
num_leaves=31
num_cat=0
split_feature=12 5 9 5 5 5 5 5 5 3 3 12 9 5 5 6 1 9 5 3 12 5 12 14 9 6 13 13 13 4
split_gain=73.6863 46.4112 38.6865 22.565 20.0981 25.6053 46.8948 35.8873 30.2709 18.5279 16.8722 14.2458 14.7395 10.6765 10.4409 10.1996 8.98148 9.69165 8.87026 8.62169 8.43779 7.65715 7.53408 7.37045 7.82669 6.85166 6.56086 25.3861 10.5265 9.54467
threshold=3.5000000000000004 0.54204333938006932 -0.038798935308059411 -0.3777433688161751 0.533592622941924 0.4356716229443654 0.28496717979743807 0.26685850171569786 -0.066810659234886702 4.7242861748377045 3.7007371701656555 1.0000000180025095e-35 0.77034786228898622 0.45679841403972904 0.49268042431280701 0.84333690416865659 1.3389508067601785 -1.4879329212484125 -0.42348454826708937 5.3234368117189037 1.5000000000000002 0.85425036334488769 5.5000000000000009 1.5000000000000002 1.0607385248412362 1.0000000180025095e-35 3.5000000000000004 8.5000000000000018 2.5000000000000004 -0.068577697524707715
decision_type=2 2 2 2 2 2 2 2 2 2 2 2 2 2 2 2 2 2 2 2 2 2 2 2 2 2 2 2 2 2
left_child=1 3 15 9 5 6 7 8 10 -1 11 12 -5 -7 22 19 17 -13 -11 -2 21 -3 23 24 -4 -18 28 -28 29 -19
right_child=2 20 14 4 -6 13 -8 -9 -10 18 -12 16 -14 -15 -16 -17 25 26 -20 -21 -22 -23 -24 -25 -26 -27 27 -29 -30 -31
leaf_value=0.099990660424555011 -0.086795034612426353 -0.11078721592359238 -0.030740784568473324 -0.042563734106521194 -0.1345878020980614 0.20008707924873215 -0.13175158345752988 0.1711030305593696 -0.12744015216944213 0.025096091924976346 -0.10735700001367265 -0.041813512377386355 0.018917694654323688 0.02433655714631756 0.081674779999792974 -0.023437782270721005 0.0015281290563419108 -0.053442684914821792 -0.1127040053756784 0.077360463041651811 0.099655621066135555 0.068044515386997684 0.049472892843215883 -0.054597863367054925 0.016228728909918631 0.045056309801623062 -0.027643922297038711 0.011900357674416797 0.032243982755370715 0.0085674862584323701
leaf_weight=42.385608717799187 154.32879210449755 3.5029788389801961 79.645657334476709 119.76074483245611 10.28721236437559 8.6409795582294446 25.638358201831579 12.136538982391356 17.390587534755468 17.761198539286855 13.165927942842243 42.926912611350417 57.09018249809742 6.0343764573335639 10.974627532064913 35.595330610871315 56.479256898164749 26.263359844684601 5.7627207040786734 2.8371402174234381 60.760083951056004 5.4455467760562897 15.567341323941944 49.981069475412369 62.935399409383535 102.67325410246849 230.23602742888033 547.14526487700641 207.48645504191518 338.13895732164383
leaf_count=399 4995 25 1133 2214 55 41 174 58 149 99 125 420 342 42 107 672 262 171 47 13 779 63 126 854 449 493 1526 2705 961 1712
internal_value=-0.0015294 0.00655934 -0.0399513 0.00358316 0.0014896 0.00230494 0.00120635 0.00317356 0.00196076 0.0608438 0.003295 0.00417457 -0.0226628 0.131662 -0.0111033 -0.0725764 0.00724675 0.00466016 -0.00988802 -0.0835324 0.0863996 -0.00306048 -0.0162275 -0.021705 -0.00995425 0.029725 0.00616106 0.000165482 0.0142863 0.00400375
internal_weight=2368.98 1957.11 411.865 1887.4 1821.49 1811.21 1796.53 1770.89 1758.76 65.9095 1741.37 1728.2 176.851 14.6754 219.104 192.761 1551.35 1392.2 23.5239 157.166 69.7086 8.94853 208.129 192.562 142.581 159.153 1349.27 777.381 571.889 364.402
internal_count=21211 12862 8349 11995 11450 11395 11312 11138 11080 545 10931 10806 2556 83 2669 5680 8250 7495 146 5008 867 88 2562 2436 1582 755 7075 4231 2844 1883
is_linear=0
shrinkage=0.1


Tree=25
num_leaves=31
num_cat=0
split_feature=0 2 9 14 14 9 4 0 2 2 2 2 2 2 11 13 0 13 13 0 17 11 11 17 14 13 17 9 4 11
split_gain=72.8806 46.1638 20.61 18.0609 32.9095 13.5012 13.0235 10.144 9.7319 25.2241 23.738 19.7486 16.5591 16.0533 9.85514 8.63471 8.61793 8.45803 11.784 8.12555 8.1073 7.74248 9.1626 7.1328 6.40162 10.3227 5.87226 5.71145 5.48888 5.48235
threshold=-1.0240672330231855 0.80625192815758961 0.62092354078151779 1.0000000180025095e-35 4.5000000000000009 0.023226254751644419 1.4571044105567141 0.57340725058499353 0.42545064815652506 0.27427388558366433 0.2561084534988079 0.45485173638275572 0.010807840975153931 0.53215574181053371 1.0000000180025095e-35 1.5000000000000002 0.86385715669557139 3.5000000000000004 2.5000000000000004 1.517369445444372 33.500000000000007 2.5000000000000004 1.0000000180025095e-35 36.500000000000007 1.0000000180025095e-35 11.500000000000002 1.5000000000000002 1.2101628463487044 0.73441288567604068 2.5000000000000004
decision_type=2 2 2 2 2 2 2 2 2 2 2 2 2 2 2 2 2 2 2 2 2 2 2 2 2 2 2 2 2 2
left_child=24 2 3 8 5 16 17 -7 9 10 12 -10 14 -13 -2 -9 28 18 27 -6 -20 22 -19 26 25 -1 -16 -4 -5 -17
right_child=1 -3 6 4 19 7 -8 15 11 -11 -12 13 -14 -15 23 29 -18 21 20 -21 -22 -23 -24 -25 -26 -27 -28 -29 -30 -31
leaf_value=-0.060784636678471185 0.053226543447877597 0.089693872030083124 0.023748998403231386 -0.070774628431223327 0.023905978973599782 -0.029296785571699908 -0.0026300580343928712 -0.080701507998152788 0.21011216703523947 -0.12441213769038724 0.19344397235618688 -0.11689661058541859 -0.121860180118914 0.096976689632330762 0.057051491750255527 0.16747430979897496 -0.02309739343305563 0.060597467696945267 -0.043983889236349431 -0.067918467025130783 0.068629563917817701 0.024482884756852789 -0.039649243401797742 0.0033620690534552165 -0.087433344693333553 0.10616916828412293 -0.038275732669415294 -0.060258356160148366 0.087806425425114298 0.037896112641148491
leaf_weight=16.719833709299568 36.864855960011482 59.926748786121607 23.828742131590843 139.97449899464846 139.66527772694826 97.652802603319287 237.64835624396801 4.8598047904670265 6.270506992936137 15.346031628549097 5.9860399961471549 5.924520477652548 10.262069515883921 7.2349713668227196 6.6349294781684867 3.5145790092647102 61.51407577469945 11.093117669224737 6.366010293364524 9.8214086368679983 104.90257593616843 212.80697119608521 41.768857665359974 879.05561735108495 98.025383958593011 4.2071879915893069 66.107629861682653 11.604042578488587 1.7568522710353125 23.135491423308849
leaf_count=182 166 873 136 3655 703 1452 1338 60 28 102 28 38 76 55 37 30 1164 58 32 55 586 1186 237 4710 3489 40 436 61 47 224
internal_value=-0.000590485 0.00347806 0.00107418 -0.00528851 -0.0212824 -0.0387984 0.0159761 -0.0133429 0.00212172 0.000759544 0.00274191 0.0713333 0.00149292 0 0.00284436 0.035473 -0.0548539 0.0267132 0.0459925 0.0176001 0.0619292 0.0159634 -0.0180543 0.00085554 -0.0766945 -0.0250592 -0.0291142 -0.00394031 -0.0684368 0.0581226
internal_weight=2350.48 2231.53 2171.6 1521.58 481.895 332.408 650.019 129.163 1039.69 1020.26 1004.91 19.43 998.925 13.1595 988.663 31.5099 203.245 412.37 146.701 149.487 111.269 265.669 52.862 951.798 118.952 20.927 72.7426 35.4328 141.731 26.6501
internal_count=21284 17573 16700 13066 7390 6632 3634 1766 5676 5555 5453 121 5425 93 5349 314 4866 2296 815 758 618 1481 295 5183 3711 222 473 197 3702 254
is_linear=0
shrinkage=0.1


Tree=26
num_leaves=31
num_cat=0
split_feature=8 5 12 9 3 4 13 11 3 5 13 13 13 9 17 9 8 15 4 0 3 12 9 9 9 4 8 8 11 0
split_gain=69.0862 40.8799 20.9503 17.3134 16.9493 13.4223 13.4069 13.1317 10.076 10.3864 9.83572 19.4378 18.326 8.69514 8.57526 8.40306 8.26061 9.28705 9.45378 8.62645 8.40991 8.04054 7.95496 5.96164 5.76232 5.59534 6.50057 5.64269 7.95105 7.02851
threshold=-0.92495775120480384 0.81528317088010582 2.5000000000000004 -0.23333248594985781 4.4821294590982204 0.65411382735596579 2.5000000000000004 4.5000000000000009 4.7242861748377045 -0.42348454826708937 3.5000000000000004 8.5000000000000018 2.5000000000000004 1.30320063143826 37.500000000000007 -0.30945431011403973 0.55153573864738303 3.5000000000000004 0.73441288567604068 -0.22532999121909608 3.5908928867374361 1.0000000180025095e-35 -1.3131346583528833 1.7289189813935002 0.84365035963227253 0.81471194399611535 -0.15978838026413125 0.27947551786847719 2.5000000000000004 1.3721444923890831
decision_type=2 2 2 2 2 2 2 2 2 2 2 2 2 2 2 2 2 2 2 2 2 2 2 2 2 2 2 2 2 2
left_child=5 2 4 -4 7 14 -5 10 -6 -10 12 21 -2 -14 -1 -7 17 -8 20 -18 -19 -12 -16 24 -23 27 -27 -13 -29 -30
right_child=1 -3 3 6 8 15 16 -9 9 -11 11 25 13 -15 22 -17 19 18 -20 -21 -22 23 -24 -25 -26 26 -28 28 29 -31
leaf_value=-0.083953240101988388 0.00371183613716684 0.08791733703676409 -0.063832067315180693 -0.062979817039195141 0.095410842056125461 0.065453443429859634 -0.075753376550477411 -0.013812679164277798 0.045973832326517458 -0.11195875499145545 -0.076739668740186145 0.0018312999337467802 0.028423722507308596 0.073308923439148618 0.24767527124843719 -0.052843371137856789 0.13798404259661898 -0.039130822924996277 0.035394857376680799 0.016308290241251001 0.10794353485319041 -0.015783732071204142 -0.05205400692611304 0.096955345852255695 -0.093335631227758564 0.034383293464861728 -0.022994731841485802 -0.0063384227882376971 0.04181086762916833 -0.0022090438191429826
leaf_weight=120.90758541226387 369.57382717356086 55.939320232719183 75.463672315701842 37.763270556926727 32.543976463377476 10.874634241685273 20.449124913662672 331.5975777450949 16.285716660320762 5.0300334729254237 25.800783017650247 197.46564241498709 187.62814100086689 56.80041017383337 1.0659883599728348 12.202165659517048 5.8770613968372336 52.271228667348623 38.959938488900661 75.63629699870944 3.6882491055876008 174.59914216399193 1.6309947818517674 3.9345467388629904 9.7482937723398191 25.012456458061934 85.966404020786285 66.574680488556623 177.46926349774003 44.960800025612116
leaf_count=3632 2307 871 2172 707 345 136 359 2036 91 41 522 1223 1028 284 21 228 29 1050 422 521 36 1072 50 18 46 139 394 343 912 249
internal_value=-0.000560441 0.00391715 0.00167692 -0.0223121 0.00579527 -0.0668722 -0.00880904 0.00408661 0.0608046 0.0065351 0.00826061 0.00102007 0.0178056 0.0390234 -0.0798974 0.00268415 0.00166383 -0.0154759 -0.00205627 0.0259907 -0.02839 -0.0247858 0.0834943 -0.0174291 -0.0201801 0.0102968 -0.00987694 0.014925 0.0238182 0.0328831
internal_weight=2323.72 2177.04 2121.1 310.109 1810.99 146.681 234.645 1757.13 53.8597 21.3158 1425.53 811.532 614.002 244.429 123.605 23.0768 196.882 115.369 94.9194 81.5134 55.9595 214.083 2.69698 188.282 184.347 597.449 110.979 486.47 289.005 222.43
internal_count=21284 17217 16346 5296 11050 4067 3124 10573 477 132 8537 4918 3619 1312 3703 364 2417 1867 1508 550 1086 1658 71 1136 1118 3260 533 2727 1504 1161
is_linear=0
shrinkage=0.1


Tree=27
num_leaves=31
num_cat=0
split_feature=0 2 12 9 3 12 3 16 11 0 5 2 2 2 2 2 2 4 0 0 9 4 0 12 9 2 2 14 12 4
split_gain=58.4759 36.9509 18.594 20.2312 14.2404 12.2493 11.036 10.1132 9.80778 9.76217 9.21892 8.57204 19.5601 25.6779 34.2976 26.8761 21.0266 7.56031 6.09372 5.97091 5.94735 9.10553 5.59363 5.5079 5.37756 5.32612 7.95241 5.69893 8.16196 5.06035
threshold=-1.0966797095508298 0.80625192815758961 2.5000000000000004 -0.23333248594985781 4.4821294590982204 1.0000000180025095e-35 4.7242861748377045 1.0000000180025095e-35 1.0000000180025095e-35 0.64601972711263789 -0.42348454826708937 0.53215574181053371 0.45485173638275572 0.42545064815652506 0.27427388558366433 0.2561084534988079 0.010807840975153931 0.3329175940756664 -0.37055494427438501 1.662594398499661 0.65193613581136978 0.81471194399611535 1.662594398499661 5.5000000000000009 0.83801170599048136 0.48263811953477681 -0.078606452509194943 1.5000000000000002 4.5000000000000009 0.65411382735596579
decision_type=2 2 2 2 2 2 2 2 2 2 2 2 2 2 2 2 2 2 2 2 2 2 2 2 2 2 2 2 2 2
left_child=-1 2 4 17 5 7 -6 -2 -7 -9 -8 12 13 14 15 16 20 23 -5 -11 29 -22 -3 -4 -17 26 27 -20 -29 -10
right_child=1 22 3 18 6 8 10 9 11 19 -12 -13 -14 -15 -16 24 -18 -19 25 -21 21 -23 -24 -25 -26 -27 -28 28 -30 -31
leaf_value=-0.082725612053700881 -0.040869909968575341 0.095795145382848002 -0.084212934101658241 -0.026915262924455341 0.09371548844656824 0.046649083665095875 0.037577893779290751 -0.020456978894794833 -0.0014666312159914855 0.066706148215287669 -0.10914789075755699 0.09315718791135523 -0.13056244650595025 0.16204763568737912 -0.12697230451556535 0.18621923552354838 -0.1271471683840856 0.086860209043270048 0.020364591108841507 -0.061054254784133823 0.030657518603646107 0.00044715609352342629 -0.015153639188176179 -0.021250632879277788 0.04024141419403706 0.10717176836613136 -0.11271580965044825 -0.072500004537684015 0.025734733191427751 0.019403137043197939
leaf_weight=82.907970316708088 109.41098118387163 47.249562855809927 61.800944998860359 88.371291471645236 30.617983806878328 56.008071705698967 16.653504893183712 53.534941719844937 943.09223917871714 26.711892638355497 5.2056588586419812 10.268655538558958 10.290067262947558 9.7823929786682111 19.392450030893087 9.0992296040058118 11.639655027538536 2.7375368867069474 95.029297547414899 3.7458665072917929 197.16292052716017 202.85501550883055 4.7136698849499217 19.002947503700852 4.1365292370319358 4.579422451555728 5.2064873687922946 17.888641843572259 15.100470012053846 131.93445025011897
leaf_count=3156 1703 797 2105 1643 346 257 94 735 5167 285 47 83 62 44 135 44 89 68 820 40 945 952 79 443 21 22 51 225 156 670
internal_value=-0.000525582 0.00256713 0.000549431 -0.0221036 0.00434906 0.00283767 0.0554592 -0.0208942 0.00570805 0.00509607 0.000529177 0.00420732 0.00357742 0.00452904 0.00345527 0.00518998 0.00389528 -0.0640135 -0.00647234 0.0499381 0.00497886 0.015382 0.0854917 -0.0697506 0.144451 0.00661492 0.00269584 0.00788768 -0.0275225 0.00109318
internal_weight=2296.13 2213.22 2161.26 309.717 1851.54 1799.07 52.4771 193.404 1605.66 83.9927 21.8592 1549.65 1539.38 1529.09 1519.31 1499.92 1486.68 83.5414 226.176 30.4578 1475.04 400.018 51.9632 80.8039 13.2358 137.804 133.225 128.018 32.9891 1075.03
internal_count=21284 18128 17252 5533 11719 11232 487 2763 8469 1060 141 8212 8129 8067 8023 7888 7823 2616 2917 325 7734 1897 876 2548 65 1274 1252 1201 381 5837
is_linear=0
shrinkage=0.1


Tree=28
num_leaves=31
num_cat=0
split_feature=8 2 3 8 4 14 14 4 11 11 17 8 0 3 3 5 8 14 1 1 13 0 11 7 7 7 8 8 11 11
split_gain=53.8699 32.0445 14.7799 13.1242 11.9588 11.0884 15.5479 15.9829 10.33 8.75645 7.95892 7.74508 7.34091 7.18707 7.10921 9.96707 6.74749 6.66074 5.67232 5.49067 5.38348 5.31567 5.29584 5.28504 5.07602 6.3016 5.86375 5.02539 4.86787 5.11198
threshold=-0.92495775120480384 0.80625192815758961 4.4821294590982204 0.39566790382613487 0.65411382735596579 1.0000000180025095e-35 4.5000000000000009 0.49351571071581607 1.0000000180025095e-35 4.5000000000000009 37.500000000000007 1.2940334245231471 1.662594398499661 3.7007371701656555 4.7242861748377045 -0.42348454826708937 -0.77759179828289648 1.5000000000000002 2.1192017861546546 1.7290762964574165 5.5000000000000009 1.662594398499661 5.5000000000000009 1.11391809502811 -0.23493609487247238 -0.17045755408207339 1.857991590512754 1.0000000180025095e-35 2.5000000000000004 4.5000000000000009
decision_type=2 2 2 2 2 2 2 2 2 2 2 2 2 2 2 2 2 2 2 2 2 2 2 2 2 2 2 2 2 2
left_child=4 2 3 5 10 9 7 -7 11 -2 -1 -5 13 19 -4 20 23 22 24 28 -16 -3 -9 -11 -14 -26 -27 -19 -10 -30
right_child=1 21 14 8 -6 6 -8 17 12 16 -12 -13 18 -15 15 -17 -18 27 -20 -21 -22 -23 -24 -25 25 26 -28 -29 29 -31
leaf_value=-0.080435747708606911 0.0039571537076079268 0.094398743298836074 0.085529575809428854 0.025440454580570634 0.0029835322998163728 -0.052305194528183142 0.010075148739511279 0.029426099720717382 -0.014958286981720338 -0.017219390875752409 0.079809573008503221 0.11591780903635091 -0.037869841176072228 -0.084091898169098719 0.091857898102351968 -0.1063189161508801 -0.034426348908187465 -0.081363973984271365 0.079314753034632229 0.039318555237030227 -0.0010348270376546872 -0.013615284362786306 -0.099367528497394872 0.15437233661900107 0.10473661118341027 0.0054139455192773155 -0.089788502161292694 0.019899526403196206 0.016305004444025255 -0.0052036456726012436
leaf_weight=106.72565041854978 628.01772828772664 43.486432213336229 29.10510103777051 29.249371465295553 22.895114747807384 173.28963578119874 105.07882580161095 51.022061781957746 78.138781178742647 3.3033565320074549 2.7478772774338713 14.083393324166535 69.965500988066196 7.5124697387218466 11.119746521115308 5.0048052277415982 95.202558673918247 12.997486421838405 5.5013475269079199 62.616767287254333 12.996758367866276 4.7747314274311057 2.8898863140493622 3.0096327215433121 4.9454003423452368 43.74642563983798 7.0574947483837596 7.2205125205218783 483.38521589338779 142.11040309071541
